/*!
 * The following copyright notice may not be removed under any circumstances.
 * 
 * Copyright:
 * © 2007 The Monotype Corporation. All Rights Reserved.
 * 
 * Trademark:
 * Arial is a trademark of The Monotype Corporation in the United States and/or
 * other countries.
 * 
 * Description:
 * Monotype Drawing Office 1982. A contemporary sans serif design, Arial contains
 * more humanist characteristics than many of its predecessors and as such is more
 * in tune with the mood of the last decades of the twentieth century. The overall
 * treatment of curves is softer and fuller than in most industrial-style sans
 * serif faces. Terminal strokes are cut on the diagonal which helps to give the
 * face a less mechanical appearance. Arial is an extremely versatile family of
 * typefaces which can be used with equal success for text setting in reports,
 * presentations, magazines etc, and for display use in newspapers, advertising and
 * promotions.
 * 
 * Manufacturer:
 * The Monotype Corporation
 * 
 * Designer:
 * Robin Nicholas, Patricia Saunders
 */
Cufon.registerFont({"w":934,"face":{"font-family":"Arial Narrow","font-weight":400,"font-stretch":"condensed","units-per-em":"2048","panose-1":"2 11 6 6 2 2 2 3 2 4","ascent":"1638","descent":"-410","bbox":"-373 -2224 2047 628","underline-thickness":"150","underline-position":"-142","unicode-range":"U+0020-U+FB02"},"glyphs":{" ":{"w":467,"k":{"\u0164":29,"\u0162":29,"\u0104":92,"Y":29,"T":29,"A":92}},"\u00a0":{"w":467},"!":{"d":"193,-364r-45,-777r0,-325r183,0r0,325r-42,777r-96,0xm155,0r0,-205r169,0r0,205r-169,0","w":467},"\"":{"d":"117,-947r-41,-279r0,-240r168,0r0,240r-37,279r-90,0xm388,-947r-39,-279r0,-240r168,0r0,240r-40,279r-89,0","w":596},"#":{"d":"82,25r71,-426r-138,0r0,-149r163,0r61,-363r-224,0r0,-149r248,0r72,-429r123,0r-72,429r259,0r71,-429r124,0r-72,429r143,0r0,149r-167,0r-61,363r228,0r0,149r-253,0r-71,426r-124,0r71,-426r-258,0r-71,426r-123,0xm301,-550r258,0r61,-363r-258,0"},"$":{"d":"853,-417v0,239,-142,433,-350,446r0,182r-88,0r0,-180v-241,-33,-336,-186,-358,-438r149,-34v13,108,38,187,76,237v38,50,83,77,133,83r0,-573v-117,-29,-246,-102,-295,-220v-23,-56,-37,-120,-37,-193v0,-232,110,-386,332,-408r0,-86r88,0r0,86v201,25,292,158,320,361r-152,28v-17,-134,-73,-213,-168,-237r0,519v135,41,170,53,245,127v65,64,105,171,105,300xm415,-1365v-112,21,-185,116,-185,251v0,119,62,201,185,247r0,-498xm503,-121v118,-20,202,-137,198,-287v-5,-159,-67,-207,-198,-261r0,548"},"%":{"d":"346,-1491v176,0,262,171,262,387v0,126,-27,221,-76,288v-96,130,-269,134,-364,2v-48,-67,-74,-166,-74,-300v0,-206,83,-377,252,-377xm443,-1308v-51,-75,-133,-75,-183,0v-44,65,-44,345,0,410v50,73,134,76,184,0v44,-67,43,-344,-1,-410xm351,54r658,-1545r120,0r-655,1545r-123,0xm1123,-721v177,0,263,169,263,386v0,127,-26,222,-76,289v-97,131,-265,130,-364,1v-90,-117,-99,-461,-1,-579v52,-62,108,-97,178,-97xm1220,-538v-50,-75,-134,-75,-184,0v-44,66,-44,346,1,410v51,72,133,76,183,-1v43,-67,44,-343,0,-409","w":1493},"&":{"d":"522,-1491v161,0,280,144,280,313v0,139,-76,258,-227,357r216,335v23,-57,42,-125,57,-204r153,40v-26,127,-61,232,-106,316v54,88,116,163,187,225r-99,143v-59,-47,-121,-116,-184,-207v-97,132,-212,198,-344,198v-230,0,-383,-215,-382,-430v0,-181,95,-326,286,-437v-81,-119,-128,-176,-135,-322v-8,-174,132,-327,298,-327xm515,-1343v-80,-1,-140,75,-140,162v0,83,81,181,124,244v97,-76,145,-106,152,-236v5,-93,-54,-169,-136,-170xm232,-416v-6,126,93,289,224,282v108,-6,207,-93,250,-181r-270,-409v-118,90,-196,154,-204,308","w":1120},"'":{"d":"109,-947r-38,-274r0,-245r168,0r0,245r-39,274r-91,0","w":322},"(":{"d":"392,431v-141,-227,-291,-587,-291,-963v0,-324,97,-644,291,-959r106,0v-126,273,-178,365,-222,649v-76,491,15,849,222,1273r-106,0","w":559},")":{"d":"458,-532v0,377,-144,732,-291,963r-106,0v207,-423,296,-782,221,-1273v-43,-283,-95,-377,-221,-649r106,0v194,315,291,635,291,959","w":559},"*":{"d":"50,-1197r38,-142v87,37,150,70,189,97v-10,-123,-15,-206,-16,-249r119,0v-1,64,-8,147,-19,248v55,-34,120,-66,193,-96r38,142v-70,28,-138,47,-204,56v33,35,80,98,141,189r-98,85v-31,-51,-68,-122,-113,-215v-41,94,-76,166,-107,215r-96,-85v60,-92,105,-155,136,-189v-71,-17,-138,-35,-201,-56","w":653},"+":{"d":"419,-237r0,-402r-327,0r0,-168r327,0r0,-399r140,0r0,399r327,0r0,168r-327,0r0,402r-140,0","w":981},",":{"d":"152,0r0,-205r168,0v-2,136,12,306,-35,391v-25,44,-57,80,-102,104r-41,-77v68,-39,91,-99,93,-213r-83,0","w":467},"-":{"d":"53,-440r0,-181r453,0r0,181r-453,0","w":559},"\u00ad":{"d":"53,-440r0,-181r453,0r0,181r-453,0","w":559},".":{"d":"155,0r0,-205r168,0r0,205r-168,0","w":467},"\/":{"d":"0,25r348,-1516r119,0r-349,1516r-118,0","w":467},"0":{"d":"67,-723v0,-246,33,-432,99,-559v66,-127,165,-190,294,-190v115,0,205,51,271,154v80,124,120,322,120,595v0,245,-33,430,-99,557v-66,127,-164,191,-294,191v-115,0,-209,-56,-282,-168v-73,-112,-109,-305,-109,-580xm286,-1200v-78,131,-80,829,0,956v96,153,249,156,345,-2v79,-130,79,-829,-1,-956v-96,-151,-249,-158,-344,2"},"1":{"d":"180,-1104v143,-79,287,-223,347,-368r96,0r0,1472r-148,0r0,-1147v-62,75,-201,176,-295,217r0,-174","k":{"1":123}},"2":{"d":"470,-1472v338,-11,465,403,299,674v-52,84,-144,199,-281,343v-134,141,-165,159,-233,282r590,0r0,173r-795,0v-2,-70,20,-148,64,-235v44,-87,125,-189,243,-307v138,-137,228,-243,271,-318v43,-75,64,-145,64,-210v0,-140,-95,-255,-227,-253v-151,2,-239,124,-235,294r-152,-19v16,-256,143,-416,392,-424"},"3":{"d":"855,-433v8,248,-173,460,-404,459v-223,-2,-371,-186,-383,-413r148,-24v31,192,108,288,233,288v145,-1,249,-145,249,-307v0,-193,-146,-339,-339,-264r17,-158v158,16,268,-92,268,-244v0,-126,-80,-228,-196,-228v-138,0,-202,116,-218,264r-147,-32v29,-218,147,-375,363,-380v197,-5,354,174,350,380v-3,142,-69,245,-165,298v149,41,218,175,224,361"},"4":{"d":"540,0r0,-351r-521,0r0,-165r549,-950r120,0r0,950r163,0r0,165r-163,0r0,351r-148,0xm540,-516r0,-661r-376,661r376,0"},"5":{"d":"864,-497v0,266,-152,526,-411,522v-226,-3,-374,-178,-386,-409r155,-16v17,155,89,277,229,277v161,0,257,-170,257,-360v0,-187,-93,-330,-258,-330v-103,0,-181,65,-218,142r-139,-22r117,-753r597,0r0,172r-479,0r-65,394v71,-61,147,-92,227,-92v223,0,374,219,374,475"},"6":{"d":"498,-951v215,0,356,226,356,476v0,190,-79,370,-191,443v-171,111,-373,54,-485,-107v-77,-111,-118,-292,-118,-547v0,-283,40,-486,121,-606v81,-120,184,-180,310,-180v206,0,323,155,342,365r-147,14v-22,-138,-82,-231,-204,-231v-86,0,-155,53,-207,160v-45,92,-67,228,-68,408v56,-108,151,-195,291,-195xm469,-792v-144,0,-239,148,-239,317v0,181,97,352,249,352v140,0,224,-166,224,-341v0,-179,-83,-328,-234,-328"},"7":{"d":"245,0v19,-480,205,-976,420,-1274r-588,0r0,-173r778,0r0,140v-221,281,-436,834,-458,1307r-152,0"},"8":{"d":"66,-423v0,-192,84,-327,228,-372v-113,-51,-177,-144,-180,-300v-3,-211,144,-377,346,-377v204,0,353,171,349,383v-3,152,-66,243,-177,294v141,55,226,184,226,377v0,244,-164,443,-395,443v-235,0,-397,-199,-397,-448xm461,-1324v-110,-1,-195,106,-195,224v0,131,78,235,197,236v113,1,195,-104,195,-226v0,-125,-84,-234,-197,-234xm459,-717v-143,0,-242,137,-242,294v0,162,100,300,246,300v146,0,244,-133,244,-294v0,-163,-102,-300,-248,-300"},"9":{"d":"67,-977v0,-270,143,-495,379,-495v182,0,299,134,359,292v71,189,62,701,-4,884v-66,184,-169,321,-373,321v-205,0,-322,-155,-339,-364r142,-16v23,155,89,232,200,232v138,0,192,-94,237,-230v31,-95,44,-208,42,-337v-49,100,-154,193,-283,193v-221,0,-360,-222,-360,-480xm460,-656v152,0,234,-150,234,-330v0,-176,-87,-337,-231,-337v-148,0,-244,173,-244,352v0,169,94,315,241,315"},":":{"d":"155,-857r0,-205r168,0r0,205r-168,0xm155,0r0,-205r168,0r0,205r-168,0","w":467},";":{"d":"152,-857r0,-205r168,0r0,205r-168,0xm152,0r0,-205r168,0v-2,136,12,306,-35,391v-25,44,-57,80,-102,104r-41,-77v68,-39,91,-99,93,-213r-83,0","w":467},"\u037e":{"d":"152,-857r0,-205r168,0r0,205r-168,0xm152,0r0,-205r168,0v-2,136,12,306,-35,391v-25,44,-57,80,-102,104r-41,-77v68,-39,91,-99,93,-213r-83,0","w":467},"<":{"d":"90,-641r0,-168r796,-410r0,179r-631,316r631,319r0,179","w":981},"=":{"d":"886,-862r-794,0r0,-168r794,0r0,168xm886,-417r-794,0r0,-168r794,0r0,168","w":981},">":{"d":"886,-641r-796,415r0,-179r631,-319r-631,-316r0,-179r796,410r0,168","w":981},"?":{"d":"463,-1491v219,-5,391,176,383,400v-7,186,-67,242,-180,374v-115,134,-132,135,-140,356r-141,0v-7,-251,49,-329,190,-482v79,-86,114,-116,120,-236v7,-134,-106,-269,-231,-264v-155,6,-222,126,-241,297r-152,-22v23,-252,146,-418,392,-423xm375,0r0,-205r168,0r0,205r-168,0"},"@":{"d":"1108,4v-116,-1,-147,-57,-158,-167v-59,85,-138,166,-248,166v-80,0,-147,-36,-202,-109v-127,-166,-125,-458,-28,-668v49,-106,103,-184,168,-234v65,-50,128,-76,190,-76v119,0,196,85,245,184r27,-155r148,0r-119,671v-16,93,-24,144,-24,155v-1,35,25,66,57,66v29,0,71,-23,125,-70v105,-89,192,-291,191,-486v-2,-252,-124,-448,-290,-547v-195,-116,-453,-102,-636,21v-201,135,-347,424,-344,764v4,476,244,759,710,764v269,3,476,-127,574,-302r148,0v-65,164,-240,330,-410,396v-226,88,-565,61,-753,-50v-237,-141,-390,-415,-390,-794v0,-392,174,-758,405,-911v209,-139,541,-155,762,-19v195,120,347,377,346,682v0,200,-58,376,-174,527v-98,128,-205,192,-320,192xm1028,-647v0,-157,-64,-288,-191,-288v-41,0,-82,17,-123,52v-120,104,-233,485,-106,663v71,100,155,95,250,16v92,-77,170,-269,170,-443","w":1704},"A":{"d":"-2,0r462,-1466r171,0r492,1466r-182,0r-140,-444r-502,0r-132,444r-169,0xm345,-602r407,0r-125,-406v-39,-125,-67,-226,-85,-304v-42,252,-131,479,-197,710","w":1120,"k":{"\u0164":123,"\u0162":123,"\u2019":123,"y":29,"w":29,"v":29,"Y":123,"W":61,"V":123,"T":123," ":92}},"B":{"d":"806,-780v136,48,226,173,226,355v0,177,-81,321,-200,379v-61,30,-144,46,-250,46r-458,0r0,-1466r451,0v187,1,278,56,348,175v34,60,51,126,51,199v-1,146,-71,254,-168,312xm283,-850v125,-3,313,14,405,-14v84,-25,129,-92,129,-205v0,-101,-41,-177,-111,-204v-82,-32,-295,-17,-423,-20r0,443xm582,-173v199,6,285,-75,285,-253v0,-182,-98,-251,-306,-251r-278,0r0,504r299,0","w":1120},"C":{"d":"632,-141v208,0,319,-161,351,-373r160,49v-35,165,-99,285,-185,369v-149,146,-434,161,-608,40v-167,-116,-270,-386,-270,-687v0,-309,103,-543,280,-663v174,-118,434,-114,587,24v82,74,142,178,175,318r-156,45v-53,-204,-160,-306,-321,-306v-187,0,-289,102,-349,253v-35,87,-52,196,-52,329v0,201,35,351,106,451v71,100,165,151,282,151","w":1212},"D":{"d":"126,0r0,-1466v207,6,496,-26,649,27v244,85,342,354,345,698v2,300,-94,557,-260,669v-161,109,-474,62,-734,72xm541,-173v349,13,407,-245,415,-570v7,-257,-65,-446,-216,-521v-90,-45,-310,-26,-455,-29r0,1120r256,0","w":1212},"E":{"d":"133,0r0,-1466r869,0r0,173r-710,0r0,449r665,0r0,172r-665,0r0,499r738,0r0,173r-897,0","w":1120},"F":{"d":"141,0r0,-1466r811,0r0,173r-652,0r0,454r564,0r0,173r-564,0r0,666r-159,0","w":1026,"k":{"\u0104":92,"A":92,".":186,",":186}},"G":{"d":"700,-150v133,1,283,-78,349,-152r0,-273r-353,0r0,-172r509,-1r0,544v-132,127,-279,229,-499,229v-265,0,-436,-147,-532,-345v-106,-220,-104,-602,0,-824v98,-210,247,-347,522,-347v299,0,437,167,490,435r-143,48v-36,-150,-77,-225,-189,-282v-117,-59,-289,-41,-388,28v-133,93,-209,286,-209,525v0,196,41,343,123,441v82,98,189,146,320,146","w":1307},"H":{"d":"129,0r0,-1466r159,0r0,602r625,0r0,-602r159,0r0,1466r-159,0r0,-691r-625,0r0,691r-159,0","w":1212},"I":{"d":"160,0r0,-1466r159,0r0,1466r-159,0","w":467},"J":{"d":"45,-416r143,-24v4,112,23,188,52,230v48,69,158,82,228,30v77,-57,79,-131,79,-276r0,-1010r159,0r0,999v0,180,-29,307,-88,381v-59,74,-143,111,-250,111v-245,0,-321,-180,-323,-441","w":840},"K":{"d":"124,0r0,-1466r159,0r0,727r597,-727r216,0r-505,594r527,872r-210,0r-428,-742r-197,234r0,508r-159,0","w":1120},"L":{"d":"120,0r0,-1466r159,0r0,1293r592,0r0,173r-751,0","k":{"\u0164":123,"\u0162":123,"\u2019":92,"y":61,"Y":123,"W":123,"V":123,"T":123," ":61}},"M":{"d":"125,0r0,-1466r239,0r285,1038r57,217r352,-1255r214,0r0,1466r-153,0r0,-1227r-350,1227r-143,0r-348,-1248r0,1248r-153,0","w":1399},"N":{"d":"125,0r0,-1466r163,0r632,1151r0,-1151r152,0r0,1466r-163,0r-631,-1152r0,1152r-153,0","w":1212},"O":{"d":"660,25v-353,4,-575,-361,-575,-739v0,-250,58,-440,165,-576v167,-213,468,-270,701,-112v178,121,284,363,284,670v0,406,-211,753,-575,757xm249,-711v0,181,41,320,119,421v152,199,429,193,584,-2v128,-160,153,-555,58,-782v-55,-132,-179,-251,-348,-251v-120,0,-218,50,-296,150v-78,100,-117,255,-117,464","w":1307},"P":{"d":"1047,-1044v-5,283,-138,455,-450,448r-308,0r0,596r-159,0r0,-1466v219,7,526,-25,689,28v141,46,231,199,228,394xm600,-769v191,0,280,-82,283,-267v1,-107,-47,-204,-115,-234v-98,-43,-333,-18,-479,-23r0,524r311,0","w":1120,"k":{"\u0104":123,"A":123,".":215,",":215," ":29}},"Q":{"d":"1226,-736v0,244,-68,448,-181,579v74,62,142,107,204,136r-47,135v-88,-39,-174,-99,-258,-180v-89,61,-187,91,-294,91v-359,2,-574,-359,-574,-757v0,-304,111,-555,286,-674v168,-115,412,-113,580,4v175,122,284,363,284,666xm694,-405v91,31,167,77,227,140v93,-105,140,-262,140,-471v0,-239,-68,-425,-201,-521v-166,-120,-378,-71,-502,81v-148,181,-152,704,1,884v116,137,280,194,454,112v-49,-39,-102,-67,-158,-84","w":1307},"R":{"d":"1090,-1067v-1,232,-130,367,-338,400v115,66,167,155,227,268r210,399r-200,0r-160,-305v-62,-119,-109,-200,-141,-241v-61,-76,-92,-105,-216,-105r-184,0r0,651r-159,0r0,-1466r533,0v218,1,301,42,377,178v35,63,51,137,51,221xm926,-1066v0,-154,-96,-238,-258,-238r-380,0r0,485r342,0v196,5,296,-74,296,-247","w":1212,"k":{"\u0164":29,"\u0162":29,"Y":29,"W":29,"V":29,"T":29}},"S":{"d":"1033,-415v0,272,-178,441,-464,441v-299,0,-490,-200,-493,-497r150,-16v16,158,66,238,176,297v53,27,112,41,178,41v174,0,299,-91,299,-250v0,-97,-47,-154,-115,-193v-68,-40,-421,-131,-490,-188v-84,-68,-151,-164,-152,-307v-2,-241,176,-408,425,-404v279,5,439,166,450,438r-153,14v-15,-182,-105,-278,-292,-281v-161,-2,-277,74,-277,217v0,59,21,102,52,138v54,62,409,142,484,184v131,73,222,179,222,366","w":1120},"T":{"d":"438,0r0,-1293r-396,0r0,-173r953,0r0,173r-398,0r0,1293r-159,0","w":1026,"k":{"\u0150":29,"\u0119":186,"\u0105":186,"\u0104":123,"y":92,"w":92,"u":61,"s":143,"r":61,"o":186,"i":37,"e":186,"c":186,"a":186,"O":29,"A":123,";":186,":":186,".":186,"-":92,",":186," ":29}},"U":{"d":"1075,-619v7,390,-106,644,-471,644v-159,0,-277,-47,-356,-142v-79,-95,-119,-262,-119,-502r0,-847r159,0r0,846v2,230,15,340,132,424v115,82,346,50,418,-50v48,-67,77,-189,77,-374r0,-846r160,0r0,847","w":1212},"V":{"d":"474,0r-466,-1466r172,0r313,1065v24,83,45,163,63,240v19,-81,40,-161,64,-240r325,-1065r162,0r-470,1466r-163,0","w":1120,"k":{"\u0119":92,"\u0105":123,"\u0104":123,"y":61,"u":61,"r":61,"o":92,"i":29,"e":92,"a":123,"A":123,";":61,":":61,".":154,"-":92,",":154}},"W":{"d":"342,0r-319,-1466r163,0r183,961v19,99,36,199,51,300r54,-271r229,-990r192,0r172,742v42,181,73,354,94,519v15,-95,35,-202,59,-319r189,-942r160,0r-330,1466r-153,0r-292,-1289v-11,64,-23,121,-35,172r-255,1117r-162,0","w":1585,"k":{"\u0119":29,"\u0105":61,"\u0104":61,"y":14,"u":29,"r":29,"o":29,"e":29,"a":61,"A":61,";":29,":":29,".":92,"-":29,",":92}},"X":{"d":"8,0r465,-764r-410,-702r189,0r219,376v45,77,77,137,96,180v98,-187,229,-375,338,-556r172,0r-422,691r455,775r-196,0r-303,-523v-17,-29,-34,-62,-52,-98r-58,110r-302,511r-191,0","w":1120},"Y":{"d":"468,0r0,-621r-463,-845r194,0r236,442v47,87,88,170,123,248v35,-77,79,-163,131,-259r233,-431r185,0r-480,845r0,621r-159,0","w":1120,"k":{"\u0119":154,"\u0105":123,"\u0104":123,"v":92,"u":92,"q":154,"p":123,"o":154,"i":61,"e":154,"a":123,"A":123,";":109,":":92,".":215,"-":154,",":215," ":29}},"Z":{"d":"36,0r0,-180r616,-939v43,-65,84,-123,125,-174r-672,0r0,-173r861,0r0,173r-674,1017r-73,103r767,0r0,173r-950,0","w":1026},"[":{"d":"117,407r0,-1873r326,0r0,149r-179,0r0,1575r179,0r0,149r-326,0","w":467},"\\":{"d":"348,25r-348,-1516r119,0r348,1516r-119,0","w":467},"]":{"d":"362,407r-326,0r0,-149r178,0r0,-1575r-178,0r0,-149r326,0r0,1873","w":467},"^":{"d":"196,-690r-151,0r290,-801r119,0r290,801r-148,0r-203,-597","w":788},"_":{"d":"-12,154r955,0r0,102r-955,0r0,-102"},"`":{"d":"381,-1194r-119,0r-189,-280r198,0","w":559},"a":{"d":"813,-445v4,269,-10,303,47,445r-154,0v-15,-37,-25,-80,-30,-131v-83,86,-176,152,-320,155v-180,4,-298,-121,-298,-303v0,-128,61,-222,142,-274v90,-58,381,-73,464,-121v14,-176,-49,-265,-207,-263v-157,2,-197,59,-229,202r-145,-24v41,-219,148,-323,396,-327v164,-2,279,65,313,179v30,102,19,316,21,462xm215,-284v-1,103,71,168,177,167v113,-1,201,-69,240,-151v26,-55,34,-164,32,-265v-62,43,-288,64,-371,105v-47,23,-78,75,-78,144"},"b":{"d":"485,24v-121,0,-191,-68,-241,-157r0,133r-137,0r0,-1466r147,0r0,523v54,-82,121,-143,239,-143v267,0,369,252,369,547v0,180,-38,319,-113,417v-75,98,-163,146,-264,146xm242,-539v0,191,22,298,115,372v99,79,206,47,283,-59v87,-120,89,-496,3,-614v-93,-127,-239,-132,-329,4v-46,70,-72,168,-72,297"},"c":{"d":"460,-124v138,0,204,-114,219,-265r145,23v-25,221,-150,390,-367,390v-114,0,-203,-50,-281,-140v-143,-167,-139,-664,0,-832v124,-151,366,-187,514,-54v62,56,102,140,119,252r-143,27v-23,-121,-78,-215,-198,-215v-73,0,-129,35,-180,96v-93,111,-91,510,-4,621v49,62,105,97,176,97","w":840},"d":{"d":"424,-1086v112,0,193,66,239,146r0,-526r148,0r0,1466r-138,0r0,-134v-45,88,-123,158,-239,158v-103,0,-187,-52,-266,-146v-123,-145,-144,-509,-63,-716v56,-142,152,-248,319,-248xm273,-840v-83,119,-84,499,5,616v96,126,233,129,329,4v92,-120,81,-502,0,-616v-90,-127,-242,-136,-334,-4"},"e":{"d":"472,24v-276,0,-414,-233,-414,-546v0,-183,41,-322,116,-420v144,-188,429,-192,574,-2v79,104,120,263,112,459r-650,0v6,119,34,209,83,270v49,61,109,91,180,91v111,0,188,-73,231,-218r152,23v-44,202,-162,343,-384,343xm705,-633v-7,-179,-91,-305,-240,-305v-149,0,-243,143,-246,305r486,0"},"f":{"d":"419,-1326v-102,4,-122,50,-123,166r0,98r170,0r0,140r-170,0r0,922r-146,0r0,-922r-131,0r0,-140r131,0r0,-113v-3,-206,55,-316,240,-316v42,0,88,6,138,18r-22,157v-31,-7,-60,-10,-87,-10","w":467,"k":{"\u2019":-29,"f":29}},"g":{"d":"429,-1086v123,0,197,66,253,152r0,-128r136,0r0,918v-3,289,-23,407,-171,514v-128,93,-380,76,-479,-30v-58,-63,-90,-145,-88,-252r144,26v13,111,78,168,199,168v137,0,207,-69,233,-185v9,-37,13,-116,13,-236v-56,79,-124,139,-241,139v-251,0,-377,-260,-377,-539v0,-213,71,-402,189,-487v56,-40,119,-60,189,-60xm272,-840v-88,118,-84,482,0,595v92,124,245,123,339,2v88,-113,88,-483,-2,-597v-96,-121,-241,-129,-337,0"},"h":{"d":"670,-673v1,-160,-48,-258,-184,-258v-64,0,-119,26,-164,77v-45,51,-67,142,-67,273r0,581r-147,0r0,-1466r147,0r0,526v60,-84,136,-146,262,-146v225,0,300,142,300,413r0,673r-147,0r0,-673"},"i":{"d":"108,-1259r0,-207r147,0r0,207r-147,0xm108,0r0,-1062r147,0r0,1062r-147,0","w":373},"j":{"d":"107,-1257r0,-209r147,0r0,209r-147,0xm-80,412r28,-153v61,21,110,23,138,-23v15,-24,21,-85,21,-182r0,-1116r147,0r0,1120v0,145,-21,242,-56,295v-54,81,-172,95,-278,59","w":373},"k":{"d":"112,0r0,-1466r147,0r0,836r350,-432r191,0r-333,394r366,668r-181,0r-289,-543r-104,122r0,421r-147,0","w":840},"l":{"d":"104,0r0,-1466r147,0r0,1466r-147,0","w":373},"m":{"d":"627,-690v0,-148,-33,-240,-152,-240v-67,0,-120,28,-159,82v-39,54,-59,153,-59,297r0,551r-147,0r0,-1062r132,0r0,149v50,-96,136,-173,264,-173v134,0,214,75,246,186v59,-103,133,-186,269,-186v191,0,269,137,269,357r0,729r-147,0r0,-669v-2,-131,-7,-186,-70,-235v-24,-18,-52,-26,-83,-26v-152,0,-215,129,-215,313r0,617r-148,0r0,-690","w":1399},"n":{"d":"487,-930v-175,0,-232,135,-232,350r0,580r-147,0r0,-1062r133,0r0,151v56,-103,136,-175,277,-175v234,0,298,159,298,433r0,653r-148,0r0,-646v-1,-137,-13,-202,-82,-254v-28,-21,-62,-30,-99,-30"},"o":{"d":"461,-1086v264,0,408,237,408,544v0,191,-40,331,-115,426v-145,185,-431,180,-584,0v-146,-171,-152,-663,-2,-830v81,-90,175,-140,293,-140xm278,-836v-92,122,-93,493,1,612v100,127,265,130,365,-2v93,-122,93,-490,-1,-610v-100,-127,-265,-132,-365,0"},"p":{"d":"484,24v-107,0,-180,-61,-229,-134r0,517r-147,0r0,-1469r135,0r0,138v58,-97,120,-162,251,-162v267,0,370,253,370,546v0,181,-38,320,-114,418v-76,98,-164,146,-266,146xm314,-838v-88,125,-93,495,-4,616v94,127,237,126,332,-3v87,-119,90,-501,2,-620v-96,-130,-233,-131,-330,7"},"q":{"d":"424,-1086v129,0,200,71,253,166r0,-142r133,0r0,1469r-147,0r0,-520v-38,70,-126,137,-223,137v-104,0,-191,-52,-270,-148v-143,-175,-149,-606,-18,-806v67,-102,155,-156,272,-156xm274,-844v-84,120,-85,500,5,618v96,125,234,135,330,4v92,-125,82,-497,-3,-616v-94,-132,-237,-141,-332,-6"},"r":{"d":"424,-900v-149,0,-169,191,-169,344r0,556r-147,0r0,-1062r133,0r0,161v34,-75,64,-125,93,-149v77,-63,166,-38,247,22r-50,167v-37,-26,-72,-39,-107,-39","w":559,"k":{"\u2019":-61,".":92,",":92}},"s":{"d":"775,-315v1,206,-147,340,-360,340v-209,0,-330,-114,-363,-342r146,-28v15,137,85,219,225,221v117,3,199,-62,201,-168v0,-42,-15,-75,-45,-98v-55,-41,-347,-113,-380,-150v-72,-45,-122,-128,-122,-240v-1,-186,133,-312,328,-306v206,6,316,99,337,298r-144,24v-13,-116,-76,-174,-189,-174v-111,0,-190,43,-190,137v0,39,15,70,45,93v47,35,372,127,397,158v70,44,114,123,114,235","w":840},"t":{"d":"288,-301v1,104,3,147,84,147v17,0,38,-2,65,-7r20,159v-131,40,-270,5,-299,-98v-10,-36,-17,-106,-17,-211r0,-611r-108,0r0,-140r108,0r0,-263r147,-108r0,371r149,0r0,140r-149,0r0,621","w":467},"u":{"d":"679,-156v-59,103,-136,177,-276,180v-139,3,-243,-87,-273,-196v-16,-57,-25,-134,-25,-232r0,-658r147,0r0,589v4,182,-6,243,78,309v87,69,212,30,275,-54v38,-51,58,-142,58,-275r0,-569r148,0r0,1062r-132,0r0,-156"},"v":{"d":"352,0r-331,-1062r156,0r187,636v21,72,40,143,56,214v13,-56,31,-123,54,-202r194,-648r152,0r-330,1062r-138,0","w":840,"k":{".":123,",":123}},"w":{"d":"268,0r-266,-1062r153,0r189,841r184,-841r152,0r174,819r199,-819r144,0r-273,1062r-153,0r-139,-636r-33,-181r-176,817r-155,0","w":1212,"k":{".":92,",":92}},"x":{"d":"12,0r318,-552r-294,-510r184,0r134,249v25,46,45,86,61,119r213,-368r176,0r-301,500r324,562r-181,0r-226,-419r-229,419r-179,0","w":840},"y":{"d":"104,409r-16,-169v95,35,184,10,212,-62v5,-9,24,-68,58,-176r-331,-1064r159,0r182,615v23,77,44,159,63,246v65,-302,165,-574,246,-861r148,0r-331,1080v-43,140,-79,232,-102,280v-50,104,-157,167,-288,111","w":840,"k":{".":123,",":123}},"z":{"d":"33,0r0,-146r555,-776v-179,11,-340,4,-522,6r0,-146r712,0r0,119r-472,674r-91,123v193,-17,387,-6,589,-9r0,155r-771,0","w":840},"{":{"d":"183,-530v141,82,170,195,171,450v0,147,2,233,7,258v13,83,58,99,160,96r0,157v-122,4,-203,-13,-245,-84v-67,-115,-56,-185,-60,-408v-2,-124,-7,-209,-18,-253v-20,-79,-66,-130,-152,-135r0,-163v85,-3,129,-60,152,-136v18,-59,15,-424,25,-493v21,-152,74,-256,252,-250r46,0r0,157v-149,-2,-168,38,-167,205v0,184,-4,301,-12,350v-22,135,-62,189,-159,249","w":561},"|":{"d":"156,431r0,-1922r129,0r0,1922r-129,0","w":436},"}":{"d":"375,-530v-146,-93,-172,-188,-172,-450v0,-147,-2,-234,-6,-259v-13,-83,-59,-97,-160,-95r0,-157v122,-4,203,13,245,84v67,115,56,185,60,408v2,123,7,207,18,252v20,79,65,131,152,135r0,163v-86,5,-128,59,-152,137v-18,59,-15,422,-25,491v-21,152,-73,259,-252,252r-46,0r0,-157v149,2,166,-40,166,-206v0,-185,4,-302,13,-353v21,-125,68,-197,159,-245","w":561},"~":{"d":"286,-693v-109,5,-139,54,-214,136r0,-205v58,-80,134,-120,228,-120v135,0,274,134,399,134v101,0,159,-73,212,-137r0,212v-68,76,-144,114,-227,114v-138,0,-279,-140,-398,-134","w":981},"\u00c4":{"d":"-2,0r462,-1466r171,0r492,1466r-182,0r-140,-444r-502,0r-132,444r-169,0xm345,-602r407,0r-125,-406v-39,-125,-67,-226,-85,-304v-42,252,-131,479,-197,710xm310,-1642r0,-205r154,0r0,205r-154,0xm616,-1642r0,-205r154,0r0,205r-154,0","w":1120},"\u00c5":{"d":"-2,0r462,-1466r171,0r492,1466r-182,0r-140,-444r-502,0r-132,444r-169,0xm345,-602r407,0r-125,-406v-39,-125,-67,-226,-85,-304v-42,252,-131,479,-197,710xm562,-1522v-86,0,-148,-89,-148,-187v0,-90,65,-180,148,-179v83,0,147,90,147,183v0,95,-62,183,-147,183xm564,-1815v-49,0,-87,53,-87,107v0,57,36,111,86,111v49,0,87,-54,87,-109v0,-56,-37,-109,-86,-109","w":1120},"\u00c7":{"d":"632,-141v208,0,319,-161,351,-373r160,49v-35,165,-99,285,-185,369v-149,146,-434,161,-608,40v-167,-116,-270,-386,-270,-687v0,-309,103,-543,280,-663v174,-118,434,-114,587,24v82,74,142,178,175,318r-156,45v-53,-204,-160,-306,-321,-306v-187,0,-289,102,-349,253v-35,87,-52,196,-52,329v0,201,35,351,106,451v71,100,165,151,282,151xm636,221v-6,-57,-52,-65,-129,-67r43,-177r110,0r-28,107v82,10,141,65,141,150v0,114,-105,187,-233,187v-47,0,-88,-4,-122,-12r9,-117v100,9,200,11,209,-71","w":1212},"\u00c9":{"d":"133,0r0,-1466r869,0r0,173r-710,0r0,449r665,0r0,172r-665,0r0,499r738,0r0,173r-897,0xm462,-1566r109,-280r193,0r-180,280r-122,0","w":1120},"\u00d1":{"d":"125,0r0,-1466r163,0r632,1151r0,-1151r152,0r0,1466r-163,0r-631,-1152r0,1152r-153,0xm508,-1663v-44,0,-64,41,-63,95r-109,0v-5,-124,59,-228,166,-228v35,0,81,18,139,54v32,20,58,30,77,30v49,0,52,-31,60,-87r107,0v-1,130,-53,222,-162,228v-43,13,-167,-92,-215,-92","w":1212},"\u00d6":{"d":"660,25v-353,4,-575,-361,-575,-739v0,-250,58,-440,165,-576v167,-213,468,-270,701,-112v178,121,284,363,284,670v0,406,-211,753,-575,757xm249,-711v0,181,41,320,119,421v152,199,429,193,584,-2v128,-160,153,-555,58,-782v-55,-132,-179,-251,-348,-251v-120,0,-218,50,-296,150v-78,100,-117,255,-117,464xm412,-1642r0,-205r154,0r0,205r-154,0xm718,-1642r0,-205r154,0r0,205r-154,0","w":1307},"\u00dc":{"d":"1075,-619v7,390,-106,644,-471,644v-159,0,-277,-47,-356,-142v-79,-95,-119,-262,-119,-502r0,-847r159,0r0,846v2,230,15,340,132,424v115,82,346,50,418,-50v48,-67,77,-189,77,-374r0,-846r160,0r0,847xm362,-1642r0,-205r154,0r0,205r-154,0xm668,-1642r0,-205r154,0r0,205r-154,0","w":1212},"\u00e1":{"d":"813,-445v4,269,-10,303,47,445r-154,0v-15,-37,-25,-80,-30,-131v-83,86,-176,152,-320,155v-180,4,-298,-121,-298,-303v0,-128,61,-222,142,-274v90,-58,381,-73,464,-121v14,-176,-49,-265,-207,-263v-157,2,-197,59,-229,202r-145,-24v41,-219,148,-323,396,-327v164,-2,279,65,313,179v30,102,19,316,21,462xm215,-284v-1,103,71,168,177,167v113,-1,201,-69,240,-151v26,-55,34,-164,32,-265v-62,43,-288,64,-371,105v-47,23,-78,75,-78,144xm353,-1194r109,-280r193,0r-180,280r-122,0"},"\u00e0":{"d":"813,-445v4,269,-10,303,47,445r-154,0v-15,-37,-25,-80,-30,-131v-83,86,-176,152,-320,155v-180,4,-298,-121,-298,-303v0,-128,61,-222,142,-274v90,-58,381,-73,464,-121v14,-176,-49,-265,-207,-263v-157,2,-197,59,-229,202r-145,-24v41,-219,148,-323,396,-327v164,-2,279,65,313,179v30,102,19,316,21,462xm215,-284v-1,103,71,168,177,167v113,-1,201,-69,240,-151v26,-55,34,-164,32,-265v-62,43,-288,64,-371,105v-47,23,-78,75,-78,144xm567,-1194r-119,0r-189,-280r198,0"},"\u00e2":{"d":"813,-445v4,269,-10,303,47,445r-154,0v-15,-37,-25,-80,-30,-131v-83,86,-176,152,-320,155v-180,4,-298,-121,-298,-303v0,-128,61,-222,142,-274v90,-58,381,-73,464,-121v14,-176,-49,-265,-207,-263v-157,2,-197,59,-229,202r-145,-24v41,-219,148,-323,396,-327v164,-2,279,65,313,179v30,102,19,316,21,462xm215,-284v-1,103,71,168,177,167v113,-1,201,-69,240,-151v26,-55,34,-164,32,-265v-62,43,-288,64,-371,105v-47,23,-78,75,-78,144xm471,-1364r-92,170r-169,0r177,-280r158,0r184,280r-167,0"},"\u00e4":{"d":"813,-445v4,269,-10,303,47,445r-154,0v-15,-37,-25,-80,-30,-131v-83,86,-176,152,-320,155v-180,4,-298,-121,-298,-303v0,-128,61,-222,142,-274v90,-58,381,-73,464,-121v14,-176,-49,-265,-207,-263v-157,2,-197,59,-229,202r-145,-24v41,-219,148,-323,396,-327v164,-2,279,65,313,179v30,102,19,316,21,462xm215,-284v-1,103,71,168,177,167v113,-1,201,-69,240,-151v26,-55,34,-164,32,-265v-62,43,-288,64,-371,105v-47,23,-78,75,-78,144xm224,-1270r0,-205r154,0r0,205r-154,0xm530,-1270r0,-205r154,0r0,205r-154,0"},"\u00e3":{"d":"813,-445v4,269,-10,303,47,445r-154,0v-15,-37,-25,-80,-30,-131v-83,86,-176,152,-320,155v-180,4,-298,-121,-298,-303v0,-128,61,-222,142,-274v90,-58,381,-73,464,-121v14,-176,-49,-265,-207,-263v-157,2,-197,59,-229,202r-145,-24v41,-219,148,-323,396,-327v164,-2,279,65,313,179v30,102,19,316,21,462xm215,-284v-1,103,71,168,177,167v113,-1,201,-69,240,-151v26,-55,34,-164,32,-265v-62,43,-288,64,-371,105v-47,23,-78,75,-78,144xm354,-1290v-44,0,-64,41,-63,95r-109,0v-5,-124,59,-228,166,-228v35,0,81,18,139,54v32,20,58,30,77,30v49,0,52,-31,60,-87r107,0v-1,130,-53,222,-162,228v-43,13,-167,-92,-215,-92"},"\u00e5":{"d":"813,-445v4,269,-10,303,47,445r-154,0v-15,-37,-25,-80,-30,-131v-83,86,-176,152,-320,155v-180,4,-298,-121,-298,-303v0,-128,61,-222,142,-274v90,-58,381,-73,464,-121v14,-176,-49,-265,-207,-263v-157,2,-197,59,-229,202r-145,-24v41,-219,148,-323,396,-327v164,-2,279,65,313,179v30,102,19,316,21,462xm215,-284v-1,103,71,168,177,167v113,-1,201,-69,240,-151v26,-55,34,-164,32,-265v-62,43,-288,64,-371,105v-47,23,-78,75,-78,144xm451,-1195v-86,0,-148,-89,-148,-187v0,-90,65,-180,148,-179v83,0,147,90,147,183v0,95,-62,183,-147,183xm453,-1488v-49,0,-87,53,-87,107v0,57,36,111,86,111v49,0,87,-54,87,-109v0,-56,-37,-109,-86,-109"},"\u00e7":{"d":"460,-124v138,0,204,-114,219,-265r145,23v-25,221,-150,390,-367,390v-114,0,-203,-50,-281,-140v-143,-167,-139,-664,0,-832v124,-151,366,-187,514,-54v62,56,102,140,119,252r-143,27v-23,-121,-78,-215,-198,-215v-73,0,-129,35,-180,96v-93,111,-91,510,-4,621v49,62,105,97,176,97xm498,221v-6,-57,-52,-65,-129,-67r43,-177r110,0r-28,107v82,10,141,65,141,150v0,114,-105,187,-233,187v-47,0,-88,-4,-122,-12r9,-117v100,9,200,11,209,-71","w":840},"\u00e9":{"d":"472,24v-276,0,-414,-233,-414,-546v0,-183,41,-322,116,-420v144,-188,429,-192,574,-2v79,104,120,263,112,459r-650,0v6,119,34,209,83,270v49,61,109,91,180,91v111,0,188,-73,231,-218r152,23v-44,202,-162,343,-384,343xm705,-633v-7,-179,-91,-305,-240,-305v-149,0,-243,143,-246,305r486,0xm355,-1194r109,-280r193,0r-180,280r-122,0"},"\u00e8":{"d":"472,24v-276,0,-414,-233,-414,-546v0,-183,41,-322,116,-420v144,-188,429,-192,574,-2v79,104,120,263,112,459r-650,0v6,119,34,209,83,270v49,61,109,91,180,91v111,0,188,-73,231,-218r152,23v-44,202,-162,343,-384,343xm705,-633v-7,-179,-91,-305,-240,-305v-149,0,-243,143,-246,305r486,0xm585,-1194r-119,0r-189,-280r198,0"},"\u00ea":{"d":"472,24v-276,0,-414,-233,-414,-546v0,-183,41,-322,116,-420v144,-188,429,-192,574,-2v79,104,120,263,112,459r-650,0v6,119,34,209,83,270v49,61,109,91,180,91v111,0,188,-73,231,-218r152,23v-44,202,-162,343,-384,343xm705,-633v-7,-179,-91,-305,-240,-305v-149,0,-243,143,-246,305r486,0xm490,-1364r-92,170r-169,0r177,-280r158,0r184,280r-167,0"},"\u00eb":{"d":"472,24v-276,0,-414,-233,-414,-546v0,-183,41,-322,116,-420v144,-188,429,-192,574,-2v79,104,120,263,112,459r-650,0v6,119,34,209,83,270v49,61,109,91,180,91v111,0,188,-73,231,-218r152,23v-44,202,-162,343,-384,343xm705,-633v-7,-179,-91,-305,-240,-305v-149,0,-243,143,-246,305r486,0xm238,-1270r0,-205r154,0r0,205r-154,0xm544,-1270r0,-205r154,0r0,205r-154,0"},"\u00ed":{"d":"166,0r0,-1062r147,0r0,1062r-147,0xm129,-1194r109,-280r193,0r-180,280r-122,0","w":467},"\u00ec":{"d":"166,0r0,-1062r147,0r0,1062r-147,0xm328,-1194r-119,0r-189,-280r198,0","w":467},"\u00ee":{"d":"166,0r0,-1062r147,0r0,1062r-147,0xm247,-1364r-92,170r-169,0r177,-280r158,0r184,280r-167,0","w":467},"\u00ef":{"d":"166,0r0,-1062r147,0r0,1062r-147,0xm4,-1270r0,-205r154,0r0,205r-154,0xm310,-1270r0,-205r154,0r0,205r-154,0","w":467},"\u00f1":{"d":"487,-930v-175,0,-232,135,-232,350r0,580r-147,0r0,-1062r133,0r0,151v56,-103,136,-175,277,-175v234,0,298,159,298,433r0,653r-148,0r0,-646v-1,-137,-13,-202,-82,-254v-28,-21,-62,-30,-99,-30xm381,-1290v-44,0,-64,41,-63,95r-109,0v-5,-124,59,-228,166,-228v35,0,81,18,139,54v32,20,58,30,77,30v49,0,52,-31,60,-87r107,0v-1,130,-53,222,-162,228v-43,13,-167,-92,-215,-92"},"\u00f3":{"d":"461,-1086v264,0,408,237,408,544v0,191,-40,331,-115,426v-145,185,-431,180,-584,0v-146,-171,-152,-663,-2,-830v81,-90,175,-140,293,-140xm278,-836v-92,122,-93,493,1,612v100,127,265,130,365,-2v93,-122,93,-490,-1,-610v-100,-127,-265,-132,-365,0xm353,-1194r109,-280r193,0r-180,280r-122,0"},"\u00f2":{"d":"461,-1086v264,0,408,237,408,544v0,191,-40,331,-115,426v-145,185,-431,180,-584,0v-146,-171,-152,-663,-2,-830v81,-90,175,-140,293,-140xm278,-836v-92,122,-93,493,1,612v100,127,265,130,365,-2v93,-122,93,-490,-1,-610v-100,-127,-265,-132,-365,0xm575,-1194r-119,0r-189,-280r198,0"},"\u00f4":{"d":"461,-1086v264,0,408,237,408,544v0,191,-40,331,-115,426v-145,185,-431,180,-584,0v-146,-171,-152,-663,-2,-830v81,-90,175,-140,293,-140xm278,-836v-92,122,-93,493,1,612v100,127,265,130,365,-2v93,-122,93,-490,-1,-610v-100,-127,-265,-132,-365,0xm461,-1364r-92,170r-169,0r177,-280r158,0r184,280r-167,0"},"\u00f6":{"d":"461,-1086v264,0,408,237,408,544v0,191,-40,331,-115,426v-145,185,-431,180,-584,0v-146,-171,-152,-663,-2,-830v81,-90,175,-140,293,-140xm278,-836v-92,122,-93,493,1,612v100,127,265,130,365,-2v93,-122,93,-490,-1,-610v-100,-127,-265,-132,-365,0xm224,-1270r0,-205r154,0r0,205r-154,0xm530,-1270r0,-205r154,0r0,205r-154,0"},"\u00f5":{"d":"461,-1086v264,0,408,237,408,544v0,191,-40,331,-115,426v-145,185,-431,180,-584,0v-146,-171,-152,-663,-2,-830v81,-90,175,-140,293,-140xm278,-836v-92,122,-93,493,1,612v100,127,265,130,365,-2v93,-122,93,-490,-1,-610v-100,-127,-265,-132,-365,0xm349,-1290v-44,0,-64,41,-63,95r-109,0v-5,-124,59,-228,166,-228v35,0,81,18,139,54v32,20,58,30,77,30v49,0,52,-31,60,-87r107,0v-1,130,-53,222,-162,228v-43,13,-167,-92,-215,-92"},"\u00fa":{"d":"679,-156v-59,103,-136,177,-276,180v-139,3,-243,-87,-273,-196v-16,-57,-25,-134,-25,-232r0,-658r147,0r0,589v4,182,-6,243,78,309v87,69,212,30,275,-54v38,-51,58,-142,58,-275r0,-569r148,0r0,1062r-132,0r0,-156xm353,-1194r109,-280r193,0r-180,280r-122,0"},"\u00f9":{"d":"679,-156v-59,103,-136,177,-276,180v-139,3,-243,-87,-273,-196v-16,-57,-25,-134,-25,-232r0,-658r147,0r0,589v4,182,-6,243,78,309v87,69,212,30,275,-54v38,-51,58,-142,58,-275r0,-569r148,0r0,1062r-132,0r0,-156xm521,-1194r-119,0r-189,-280r198,0"},"\u00fb":{"d":"679,-156v-59,103,-136,177,-276,180v-139,3,-243,-87,-273,-196v-16,-57,-25,-134,-25,-232r0,-658r147,0r0,589v4,182,-6,243,78,309v87,69,212,30,275,-54v38,-51,58,-142,58,-275r0,-569r148,0r0,1062r-132,0r0,-156xm467,-1364r-92,170r-169,0r177,-280r158,0r184,280r-167,0"},"\u00fc":{"d":"679,-156v-59,103,-136,177,-276,180v-139,3,-243,-87,-273,-196v-16,-57,-25,-134,-25,-232r0,-658r147,0r0,589v4,182,-6,243,78,309v87,69,212,30,275,-54v38,-51,58,-142,58,-275r0,-569r148,0r0,1062r-132,0r0,-156xm232,-1270r0,-205r154,0r0,205r-154,0xm538,-1270r0,-205r154,0r0,205r-154,0"},"\u2020":{"d":"385,346r0,-1212r-328,0r0,-160r328,0r0,-406r147,0r0,406r330,0r0,160r-330,0r0,1212r-147,0"},"\u00b0":{"d":"405,-936v-149,0,-277,-128,-277,-278v0,-149,129,-277,277,-277v150,0,278,127,278,277v0,149,-129,278,-278,278xm406,-1383v-91,0,-169,78,-169,169v0,91,78,169,169,169v90,0,168,-79,168,-169v0,-90,-78,-169,-168,-169","w":819},"\u00a2":{"d":"299,-21v-137,-84,-214,-270,-214,-509v0,-233,60,-402,191,-492v84,-58,160,-76,277,-57r93,-387r90,32r-92,387v101,51,162,150,185,297r-143,27v-14,-75,-40,-132,-78,-171r-183,766v163,41,261,-104,274,-261r147,20v-27,217,-158,389,-369,397v-26,0,-54,-5,-84,-14r-96,395r-92,-32xm520,-940v-101,-13,-156,19,-214,95v-48,64,-70,168,-70,307v0,179,34,300,102,361"},"\u00a3":{"d":"488,-1343v-122,-3,-212,114,-212,245v0,74,16,170,47,289r258,0r0,148r-233,0v32,93,14,177,-18,273v-22,65,-61,130,-112,197v43,-15,83,-22,118,-22v90,0,290,66,344,66v40,0,92,-19,157,-56r48,165v-82,43,-148,64,-197,64v-120,0,-242,-92,-361,-92v-88,0,-171,31,-250,94r-57,-173v138,-85,222,-291,175,-516r-161,0r0,-148r126,0v-28,-118,-42,-206,-42,-264v0,-237,151,-420,372,-418v217,2,341,161,364,379r-147,27v-11,-139,-91,-255,-219,-258"},"\u00a7":{"d":"799,103v3,188,-141,331,-330,328v-214,-4,-334,-149,-355,-361r149,-26v29,147,67,225,209,235v144,10,231,-170,139,-281v-41,-49,-129,-127,-269,-232v-103,-77,-169,-137,-200,-180v-52,-72,-78,-149,-78,-230v-1,-137,80,-247,184,-283v-57,-69,-102,-142,-105,-248v-4,-175,130,-320,305,-316v208,4,318,137,337,347r-153,19v-22,-137,-53,-212,-178,-218v-108,-5,-201,105,-156,217v8,19,22,37,34,58v36,61,402,315,450,388v44,67,73,136,73,216v0,151,-62,226,-187,286v76,71,128,153,131,281xm320,-858v-73,54,-122,94,-122,194v0,42,13,81,38,120v50,80,280,224,358,300v100,-55,160,-188,78,-307v-46,-67,-287,-238,-352,-307"},"\u2022":{"d":"300,-464v-118,0,-208,-124,-208,-254v0,-131,90,-253,208,-253v118,0,207,123,207,253v0,131,-89,253,-207,254","w":588},"\u00b6":{"d":"5,-1044v5,-258,127,-422,388,-422r518,0r0,173r-117,0r0,1700r-140,0r0,-1700r-182,0r0,1700r-135,0r0,-1045v-204,-12,-337,-178,-332,-406","w":901},"\u00df":{"d":"638,-1187v2,-87,-74,-156,-163,-156v-65,0,-115,24,-149,72v-34,48,-51,141,-51,280r0,991r-147,0r0,-999v1,-233,33,-351,160,-438v55,-37,120,-54,191,-54v168,0,303,123,303,285v0,134,-124,313,-124,407v0,89,36,95,117,162v82,68,138,122,163,167v25,45,38,97,38,157v0,182,-127,341,-299,338v-153,-3,-253,-111,-298,-241r127,-72v49,110,104,165,166,165v113,0,192,-149,134,-258v-13,-23,-46,-56,-99,-100v-85,-71,-142,-126,-165,-165v-66,-111,-30,-211,25,-322v49,-100,71,-174,71,-219","w":1026},"\u00ae":{"d":"623,18v-359,0,-619,-382,-619,-754v0,-290,139,-543,318,-660v96,-62,196,-95,301,-95v359,0,619,383,619,755v0,289,-139,544,-318,660v-96,62,-196,94,-301,94xm1139,-736v0,-317,-219,-630,-516,-630v-294,0,-516,313,-516,630v0,317,218,629,516,629v293,0,516,-312,516,-629xm832,-1033v86,140,-4,347,-157,351v83,47,102,99,155,204r80,159r-130,0v-43,-92,-128,-276,-169,-315v-32,-31,-90,-31,-152,-30r0,345r-108,0r0,-812v125,3,317,-12,398,22v33,15,61,40,83,76xm751,-900v0,-94,-53,-121,-170,-121r-122,0r0,245r131,0v106,0,161,-31,161,-124","w":1237},"\u00a9":{"d":"623,18v-359,0,-619,-382,-619,-754v0,-290,139,-543,318,-660v96,-62,196,-95,301,-95v359,0,619,383,619,755v0,289,-139,544,-318,660v-96,62,-196,94,-301,94xm1139,-736v0,-317,-219,-630,-516,-630v-294,0,-516,313,-516,630v0,317,218,629,516,629v293,0,516,-312,516,-629xm617,-421v110,0,186,-87,205,-193r100,36v-26,153,-134,274,-297,274v-211,0,-325,-187,-325,-430v0,-249,111,-426,332,-426v151,0,248,102,278,236r-98,29v-28,-87,-85,-153,-184,-153v-148,0,-217,142,-217,321v0,172,65,306,206,306","w":1237},"\u2122":{"d":"402,-651r0,-694r-217,0r0,-121r546,0r0,121r-218,0r0,694r-111,0xm806,-651r0,-815r164,0r169,651r163,-651r160,0r0,815r-101,0r0,-684r-173,684r-100,0r-180,-694r0,694r-102,0","w":1679},"\u00b4":{"d":"182,-1194r109,-280r193,0r-180,280r-122,0","w":559},"\u00a8":{"d":"50,-1270r0,-205r154,0r0,205r-154,0xm356,-1270r0,-205r154,0r0,205r-154,0","w":559},"\u2260":{"d":"495,-417r-194,445r-136,0r195,-445r-282,0r0,-168r356,0r122,-277r-478,0r0,-168r551,0r196,-444r134,0r-195,444r282,0r0,168r-356,0r-121,277r477,0r0,168r-551,0","w":1124},"\u00c6":{"d":"1,0r578,-1466r987,0r0,173r-605,0r0,451r562,0r0,172r-562,0r0,497r627,0r0,173r-786,0r0,-423r-465,0r-164,423r-172,0xm405,-595r397,0r0,-698r-120,0","w":1679},"\u00d8":{"d":"660,-1491v177,0,257,58,369,159r137,-188r82,84r-145,198v90,167,126,271,129,504v3,309,-109,550,-288,671v-88,59,-184,88,-289,88v-174,0,-254,-56,-364,-154r-138,188r-81,-84r144,-197v-94,-185,-131,-264,-134,-505v-4,-309,109,-557,286,-677v86,-58,183,-87,292,-87xm930,-1197v-89,-83,-132,-128,-270,-128v-119,0,-216,51,-296,149v-135,164,-160,589,-45,814xm388,-262v75,75,141,121,267,121v117,0,211,-53,293,-151v138,-165,155,-576,50,-802","w":1307},"\u221e":{"d":"154,-716v0,-142,110,-267,246,-267v102,0,198,57,289,171v70,-88,125,-146,164,-174v117,-85,256,-74,365,18v61,51,92,132,92,245v0,157,-42,237,-140,294v-105,61,-221,54,-317,-16v-39,-29,-94,-87,-164,-175v-91,114,-187,171,-289,171v-136,0,-246,-124,-246,-267xm1199,-713v0,-164,-141,-272,-275,-190v-40,24,-94,88,-166,186v58,90,111,152,159,185v130,89,282,-15,282,-181xm265,-719v0,87,57,156,137,156v67,0,140,-51,218,-153v-53,-67,-97,-108,-128,-128v-105,-69,-227,-4,-227,125","w":1460},"\u00b1":{"d":"477,-260r0,-403r-399,0r0,-167r399,0r0,-399r170,0r0,399r399,0r0,167r-399,0r0,403r-170,0xm1046,0r-968,0r0,-168r968,0r0,168","w":1124},"\u2264":{"d":"77,-762r0,-168r971,-410r0,180r-770,315r770,319r0,179xm1046,-106r-968,0r0,-167r968,0r0,167","w":1124},"\u2265":{"d":"1048,-762r-971,415r0,-179r769,-319r-769,-315r0,-180r971,410r0,168xm1046,-106r-968,0r0,-167r968,0r0,167","w":1124},"\u00a5":{"d":"389,0r0,-325r-341,0r0,-139r341,0r0,-143r-341,0r0,-148r280,0r-333,-711r164,0r238,516v27,60,48,111,62,154v12,-35,35,-89,68,-163r224,-507r175,0r-332,711r280,0r0,148r-338,0r0,143r338,0r0,139r-338,0r0,325r-147,0"},"\u00b5":{"d":"591,25v-130,0,-184,-42,-253,-132r0,514r-178,0r0,-1469r178,0v4,222,-18,625,26,768v27,89,109,155,219,156v112,1,204,-72,232,-158v44,-137,21,-550,26,-766r177,0r0,1062r-161,0r0,-126v-64,101,-129,151,-266,151","w":1180},"\u2202":{"d":"653,-1363v-125,0,-179,97,-227,225r-135,-60v47,-105,103,-180,168,-225v106,-75,221,-95,329,-29v98,60,138,152,162,278v83,426,-48,918,-297,1092v-99,70,-194,107,-289,107v-192,0,-308,-142,-308,-347v0,-151,51,-280,153,-387v131,-138,348,-210,649,-215v-7,-190,-11,-304,-92,-392v-30,-33,-70,-47,-113,-47xm236,-303v0,102,76,192,170,191v50,0,104,-18,160,-55v174,-116,260,-345,288,-629v-305,20,-428,59,-544,244v-51,81,-74,165,-74,249","w":1012},"\u2211":{"d":"139,-1491r1237,0r0,164r-988,0r607,775r-649,822r1040,0r0,161r-1264,0r0,-187r620,-788r-603,-772r0,-175","w":1460},"\u220f":{"d":"161,-1491r1362,0r0,1922r-191,0r0,-1748r-978,0r0,1748r-193,0r0,-1922","w":1686},"\u222b":{"d":"208,64v29,0,40,-25,39,-61v0,-28,-3,-68,-9,-120v-25,-210,-48,-487,-37,-831r17,-531v12,-156,34,-285,124,-351v31,-23,63,-33,93,-33v60,0,125,52,125,107v0,58,-38,104,-92,104v-34,8,-82,-56,-116,-56v-29,0,-41,26,-40,64v0,28,3,76,9,145v47,618,43,536,21,1253v-5,197,-35,330,-90,399v-36,45,-81,67,-134,67v-69,1,-118,-52,-118,-121v0,-57,36,-99,90,-99v47,-9,85,64,118,64","w":561},"\u00aa":{"d":"316,-1491v170,1,241,73,244,242v3,154,-21,391,32,485r-121,0v-11,-27,-17,-56,-18,-89v-67,71,-137,107,-210,107v-119,1,-201,-92,-201,-218v0,-114,56,-185,148,-203r173,-34v40,-9,66,-16,79,-20v2,-117,-32,-153,-128,-153v-81,0,-127,42,-137,125r-113,-34v14,-127,107,-209,252,-208xm191,-1034v-60,61,-12,173,78,168v83,-4,146,-61,164,-131v5,-15,7,-51,7,-107v-31,17,-215,35,-249,70","w":621},"\u00ba":{"d":"37,-1111v0,-203,82,-380,269,-380v184,0,269,177,269,376v0,198,-83,375,-269,375v-176,0,-269,-165,-269,-371xm454,-1116v0,-139,-39,-242,-148,-242v-112,0,-147,102,-147,244v0,139,38,242,148,242v109,0,147,-104,147,-244","w":612},"\u2126":{"d":"362,-780v-1,294,136,509,342,600r0,180r-577,0r0,-168r369,8v-155,-94,-236,-190,-299,-356v-33,-86,-47,-181,-47,-286v0,-414,241,-694,658,-701v386,-7,654,301,647,702v-5,322,-138,507,-344,641r364,-6r0,166r-575,0r0,-177v173,-81,266,-214,322,-402v19,-63,25,-129,25,-198v0,-297,-133,-563,-443,-563v-127,0,-226,40,-296,120v-98,112,-146,259,-146,440","w":1573},"\u00e6":{"d":"1044,-124v126,0,198,-102,221,-225r154,24v-48,202,-163,349,-384,349v-165,0,-249,-80,-324,-198v-109,132,-230,198,-362,198v-175,0,-296,-129,-296,-303v0,-127,68,-226,151,-276v79,-47,336,-72,441,-114v7,-173,-25,-272,-192,-268v-163,4,-202,55,-233,204r-143,-21v43,-220,139,-329,380,-332v155,-2,247,44,298,143v103,-151,320,-191,475,-84v129,89,206,306,191,542r-629,0v2,180,24,250,120,319v40,29,85,42,132,42xm1271,-633v-11,-180,-78,-304,-235,-304v-156,0,-238,133,-244,304r479,0xm209,-286v-3,100,68,168,169,168v131,0,235,-92,258,-203v8,-33,12,-104,11,-212v-43,23,-131,49,-263,73v-115,21,-171,66,-175,174","w":1493},"\u00f8":{"d":"518,-1086v109,0,165,34,243,87r81,-128r79,70r-88,138v73,120,96,212,96,388v0,185,-41,322,-116,416v-123,153,-364,189,-524,59r-86,135r-77,-71r89,-141v-150,-187,-126,-647,13,-811v79,-93,173,-142,290,-142xm678,-867v-109,-105,-246,-86,-338,31v-86,109,-98,411,-33,556xm739,-770r-367,583v99,101,248,73,331,-37v80,-105,101,-393,36,-546","w":1026},"\u00bf":{"d":"604,-1062r0,205r-168,0r0,-205r168,0xm517,429v-218,5,-392,-175,-384,-399v7,-187,67,-242,181,-374v115,-133,132,-136,139,-357r142,0v4,253,-49,328,-190,482v-80,87,-115,115,-121,236v-7,136,106,269,232,264v154,-6,221,-126,241,-296r151,21v-22,251,-147,418,-391,423","w":1026},"\u00a1":{"d":"364,-1062r0,205r-169,0r0,-205r169,0xm326,-697r45,776r0,325r-183,0r0,-325r42,-776r96,0","w":559},"\u00ac":{"d":"886,-424r-140,0r0,-438r-654,0r0,-168r794,0r0,606","w":981},"\u221a":{"d":"1050,-1869r74,0r-312,1947r-496,-1021r-198,91r-34,-64r301,-151r405,823","w":1124},"\u0192":{"d":"35,405r28,-155v89,20,143,43,193,-6v18,-17,28,-60,37,-124r145,-1042r-164,0r19,-140r165,0v36,-207,28,-430,253,-430v43,0,102,13,176,38r-29,153v-90,-23,-144,-44,-195,4v-28,27,-43,166,-54,235r167,0r-20,140r-168,0r-156,1092v-28,167,-58,261,-213,261v-52,0,-113,-9,-184,-26"},"\u2248":{"d":"312,-874v-130,0,-168,53,-261,136r0,-205v94,-108,236,-140,403,-103v82,18,245,118,362,117v105,-1,200,-73,258,-137r0,212v-76,70,-147,107,-277,114v-165,8,-331,-134,-485,-134xm312,-512v-130,0,-168,53,-261,136r0,-205v94,-108,236,-140,403,-103v82,18,245,117,362,117v105,0,200,-73,258,-137r0,212v-76,70,-147,108,-277,114v-164,8,-330,-134,-485,-134","w":1124},"\u2206":{"d":"1226,0r-1200,0r628,-1387xm990,-82r-399,-967r-440,967r839,0","w":1253},"\u00ab":{"d":"276,-528r213,456r-121,0r-261,-456r261,-456r122,0xm593,-528r216,456r-124,0r-257,-456r257,-456r124,0"},"\u00bb":{"d":"646,-528r-214,-456r121,0r261,456r-261,456r-120,0xm328,-528r-216,-456r124,0r257,456r-257,456r-124,0"},"\u2026":{"d":"196,0r0,-205r168,0r0,205r-168,0xm756,0r0,-205r168,0r0,205r-168,0xm1316,0r0,-205r168,0r0,205r-168,0","w":1679},"\u00c0":{"d":"-2,0r462,-1466r171,0r492,1466r-182,0r-140,-444r-502,0r-132,444r-169,0xm345,-602r407,0r-125,-406v-39,-125,-67,-226,-85,-304v-42,252,-131,479,-197,710xm654,-1566r-119,0r-189,-280r198,0","w":1120},"\u00c3":{"d":"-2,0r462,-1466r171,0r492,1466r-182,0r-140,-444r-502,0r-132,444r-169,0xm345,-602r407,0r-125,-406v-39,-125,-67,-226,-85,-304v-42,252,-131,479,-197,710xm432,-1663v-44,0,-64,41,-63,95r-109,0v-5,-124,59,-228,166,-228v35,0,81,18,139,54v32,20,58,30,77,30v49,0,52,-31,60,-87r107,0v-1,130,-53,222,-162,228v-43,13,-167,-92,-215,-92","w":1120},"\u00d5":{"d":"660,25v-353,4,-575,-361,-575,-739v0,-250,58,-440,165,-576v167,-213,468,-270,701,-112v178,121,284,363,284,670v0,406,-211,753,-575,757xm249,-711v0,181,41,320,119,421v152,199,429,193,584,-2v128,-160,153,-555,58,-782v-55,-132,-179,-251,-348,-251v-120,0,-218,50,-296,150v-78,100,-117,255,-117,464xm552,-1663v-44,0,-64,41,-63,95r-109,0v-5,-124,59,-228,166,-228v35,0,81,18,139,54v32,20,58,30,77,30v49,0,52,-31,60,-87r107,0v-1,130,-53,222,-162,228v-43,13,-167,-92,-215,-92","w":1307},"\u0152":{"d":"593,-1491v169,0,263,94,326,223r0,-198r682,0r0,173r-533,0r0,448r491,0r0,172r-491,0r0,500r558,0r0,173r-707,0r0,-212v-64,135,-154,237,-326,237v-141,0,-253,-57,-337,-172v-100,-137,-150,-334,-150,-589v0,-303,81,-561,238,-680v68,-52,152,-75,249,-75xm816,-1192v-129,-183,-323,-182,-452,0v-117,165,-116,753,1,918v129,181,322,185,451,0v115,-166,117,-752,0,-918","w":1679},"\u0153":{"d":"1138,24v-159,0,-274,-86,-333,-199v-72,113,-165,199,-326,199v-268,0,-409,-235,-409,-544v0,-235,67,-413,199,-504v62,-42,133,-62,214,-62v154,1,272,90,322,203v62,-112,165,-203,318,-203v118,0,215,49,291,148v76,99,113,251,111,455r-642,0v-2,195,93,359,259,359v128,0,198,-97,225,-222r147,26v-41,202,-159,344,-376,344xm473,-938v-176,0,-252,203,-252,405v0,129,23,226,65,293v92,146,266,154,371,10v93,-127,100,-484,0,-606v-53,-66,-112,-102,-184,-102xm1370,-631v-8,-174,-84,-307,-237,-307v-149,0,-240,140,-245,307r482,0","w":1585},"\u2013":{"d":"-6,-458r0,-145r934,0r0,145r-934,0"},"\u2014":{"d":"0,-458r0,-145r1679,0r0,145r-1679,0","w":1679},"\u201c":{"d":"481,-1195r0,209r-159,0v0,-128,-6,-302,34,-374v24,-44,56,-81,101,-106r37,71v-65,36,-88,91,-91,200r78,0xm226,-1195r0,209r-158,0v0,-127,-5,-302,34,-374v24,-44,56,-81,101,-106r37,71v-65,36,-88,90,-91,200r77,0","w":559},"\u201d":{"d":"71,-1256r0,-210r159,0v0,128,6,303,-34,375v-24,44,-57,80,-102,105r-36,-70v57,-29,87,-96,90,-200r-77,0xm325,-1256r0,-210r159,0v0,128,5,303,-34,375v-24,44,-56,80,-101,105r-37,-70v63,-35,88,-94,91,-200r-78,0","w":559},"\u2018":{"d":"260,-1195r0,209r-158,0v0,-127,-5,-302,34,-374v24,-44,56,-81,101,-106r37,71v-65,36,-88,90,-91,200r77,0","w":373,"k":{"\u2018":29}},"\u2019":{"d":"98,-1256r0,-210r159,0v0,128,6,303,-34,375v-24,44,-57,80,-102,105r-36,-70v57,-29,87,-96,90,-200r-77,0","w":373,"k":{"\u2019":29,"s":29," ":61}},"\u00f7":{"d":"459,-922r0,-205r205,0r0,205r-205,0xm1046,-639r-968,0r0,-168r968,0r0,168xm459,-319r0,-205r205,0r0,205r-205,0","w":1124},"\u25ca":{"d":"549,-1422r418,713r-418,709r-111,0r-391,-709r391,-713r111,0xm495,-1325r-340,616r340,615r359,-615","w":1012},"\u00ff":{"d":"104,409r-16,-169v95,35,184,10,212,-62v5,-9,24,-68,58,-176r-331,-1064r159,0r182,615v23,77,44,159,63,246v65,-302,165,-574,246,-861r148,0r-331,1080v-43,140,-79,232,-102,280v-50,104,-157,167,-288,111xm186,-1270r0,-205r154,0r0,205r-154,0xm492,-1270r0,-205r154,0r0,205r-154,0","w":840},"\u0178":{"d":"468,0r0,-621r-463,-845r194,0r236,442v47,87,88,170,123,248v35,-77,79,-163,131,-259r233,-431r185,0r-480,845r0,621r-159,0xm319,-1642r0,-205r154,0r0,205r-154,0xm625,-1642r0,-205r154,0r0,205r-154,0","w":1120},"\u2044":{"d":"-373,57r903,-1548r128,0r-902,1548r-129,0","w":281},"\u2215":{"d":"-373,57r903,-1548r128,0r-902,1548r-129,0","w":281},"\u20ac":{"d":"96,-936v42,-312,235,-555,557,-555v96,0,181,27,256,82r-35,184v-134,-138,-349,-129,-482,5v-70,70,-114,164,-130,284r559,0r-22,135r-551,0r0,131r528,0r-22,135r-488,0v30,223,150,394,375,394v95,0,173,-33,233,-99r0,207v-67,39,-144,58,-231,58v-297,0,-477,-187,-541,-560r-125,0r23,-135r86,0v-3,-35,-2,-90,-2,-131r-107,0r23,-135r96,0"},"\u2039":{"d":"238,-527r217,455r-122,0r-258,-455r258,-457r122,0","w":559},"\u203a":{"d":"320,-530r-217,-454r122,0r258,454r-258,458r-122,0","w":559},"\ufb01":{"d":"430,-1325v-123,5,-128,52,-132,194r0,69r169,0r0,139r-169,0r0,923r-148,0r0,-923r-131,0r0,-139r131,0r0,-103v-2,-201,62,-326,233,-326v54,0,104,8,150,23r-24,152v-29,-6,-55,-9,-79,-9xm578,-1259r0,-207r147,0r0,207r-147,0xm578,0r0,-1062r147,0r0,1062r-147,0","w":840},"\ufb02":{"d":"429,-1325v-123,5,-128,52,-132,194r0,69r169,0r0,139r-169,0r0,923r-148,0r0,-923r-131,0r0,-139r131,0r0,-103v-2,-201,62,-326,233,-326v54,0,104,8,150,23r-24,152v-29,-6,-55,-9,-79,-9xm576,0r0,-1466r147,0r0,1466r-147,0","w":840},"\u2021":{"d":"387,346r0,-370r-330,0r0,-161r330,0r0,-725r-330,0r0,-161r330,0r0,-375r147,0r0,375r331,0r0,161r-331,0r0,725r331,0r0,161r-331,0r0,370r-147,0"},"\u2219":{"d":"155,-619r0,-205r168,0r0,205r-168,0","w":467},"\u201a":{"d":"98,0r0,-209r159,0v0,128,6,302,-34,374v-24,44,-57,81,-102,106r-36,-71v57,-29,87,-96,90,-200r-77,0","w":373},"\u201e":{"d":"71,0r0,-209r159,0v0,128,6,302,-34,374v-24,44,-57,81,-102,106r-36,-71v57,-29,87,-96,90,-200r-77,0xm325,0r0,-209r159,0v0,127,5,302,-34,374v-24,44,-56,81,-101,106r-37,-71v63,-35,88,-94,91,-200r-78,0","w":559},"\u2030":{"d":"262,54r493,-1545r108,0r-493,1545r-108,0xm97,-800v-81,-107,-83,-479,-1,-588v88,-117,250,-115,338,0v81,105,83,485,2,590v-88,115,-251,115,-339,-2xm187,-1306v-40,65,-43,354,-3,419v39,63,121,73,162,7v40,-65,41,-355,2,-420v-40,-67,-120,-72,-161,-6xm692,-38v-81,-107,-84,-480,-2,-588v88,-116,252,-113,340,1v81,105,82,485,1,590v-88,115,-251,114,-339,-3xm782,-544v-41,65,-44,355,-4,420v41,66,124,73,166,0v35,-60,36,-354,-1,-413v-41,-65,-120,-73,-161,-7xm1245,-38v-81,-107,-83,-480,-1,-588v88,-116,250,-113,338,1v81,105,83,485,2,590v-88,115,-251,114,-339,-3xm1335,-544v-41,65,-44,355,-3,420v42,67,123,73,166,0v35,-60,35,-354,-2,-413v-41,-66,-120,-72,-161,-7","w":1679},"\u00c2":{"d":"-2,0r462,-1466r171,0r492,1466r-182,0r-140,-444r-502,0r-132,444r-169,0xm345,-602r407,0r-125,-406v-39,-125,-67,-226,-85,-304v-42,252,-131,479,-197,710xm546,-1737r-92,170r-169,0r177,-280r158,0r184,280r-167,0","w":1120},"\u00ca":{"d":"133,0r0,-1466r869,0r0,173r-710,0r0,449r665,0r0,172r-665,0r0,499r738,0r0,173r-897,0xm573,-1737r-92,170r-169,0r177,-280r158,0r184,280r-167,0","w":1120},"\u00c1":{"d":"-2,0r462,-1466r171,0r492,1466r-182,0r-140,-444r-502,0r-132,444r-169,0xm345,-602r407,0r-125,-406v-39,-125,-67,-226,-85,-304v-42,252,-131,479,-197,710xm391,-1566r109,-280r193,0r-180,280r-122,0","w":1120},"\u00cb":{"d":"133,0r0,-1466r869,0r0,173r-710,0r0,449r665,0r0,172r-665,0r0,499r738,0r0,173r-897,0xm334,-1642r0,-205r154,0r0,205r-154,0xm640,-1642r0,-205r154,0r0,205r-154,0","w":1120},"\u00c8":{"d":"133,0r0,-1466r869,0r0,173r-710,0r0,449r665,0r0,172r-665,0r0,499r738,0r0,173r-897,0xm653,-1566r-119,0r-189,-280r198,0","w":1120},"\u00cd":{"d":"160,0r0,-1466r159,0r0,1466r-159,0xm150,-1566r109,-280r193,0r-180,280r-122,0","w":467},"\u00ce":{"d":"160,0r0,-1466r159,0r0,1466r-159,0xm237,-1737r-92,170r-169,0r177,-280r158,0r184,280r-167,0","w":467},"\u00cf":{"d":"160,0r0,-1466r159,0r0,1466r-159,0xm10,-1642r0,-205r154,0r0,205r-154,0xm316,-1642r0,-205r154,0r0,205r-154,0","w":467},"\u00cc":{"d":"160,0r0,-1466r159,0r0,1466r-159,0xm357,-1566r-119,0r-189,-280r198,0","w":467},"\u00d3":{"d":"660,25v-353,4,-575,-361,-575,-739v0,-250,58,-440,165,-576v167,-213,468,-270,701,-112v178,121,284,363,284,670v0,406,-211,753,-575,757xm249,-711v0,181,41,320,119,421v152,199,429,193,584,-2v128,-160,153,-555,58,-782v-55,-132,-179,-251,-348,-251v-120,0,-218,50,-296,150v-78,100,-117,255,-117,464xm521,-1566r109,-280r193,0r-180,280r-122,0","w":1307},"\u00d4":{"d":"660,25v-353,4,-575,-361,-575,-739v0,-250,58,-440,165,-576v167,-213,468,-270,701,-112v178,121,284,363,284,670v0,406,-211,753,-575,757xm249,-711v0,181,41,320,119,421v152,199,429,193,584,-2v128,-160,153,-555,58,-782v-55,-132,-179,-251,-348,-251v-120,0,-218,50,-296,150v-78,100,-117,255,-117,464xm660,-1737r-92,170r-169,0r177,-280r158,0r184,280r-167,0","w":1307},"\u00d2":{"d":"660,25v-353,4,-575,-361,-575,-739v0,-250,58,-440,165,-576v167,-213,468,-270,701,-112v178,121,284,363,284,670v0,406,-211,753,-575,757xm249,-711v0,181,41,320,119,421v152,199,429,193,584,-2v128,-160,153,-555,58,-782v-55,-132,-179,-251,-348,-251v-120,0,-218,50,-296,150v-78,100,-117,255,-117,464xm768,-1566r-119,0r-189,-280r198,0","w":1307},"\u00da":{"d":"1075,-619v7,390,-106,644,-471,644v-159,0,-277,-47,-356,-142v-79,-95,-119,-262,-119,-502r0,-847r159,0r0,846v2,230,15,340,132,424v115,82,346,50,418,-50v48,-67,77,-189,77,-374r0,-846r160,0r0,847xm475,-1566r109,-280r193,0r-180,280r-122,0","w":1212},"\u00db":{"d":"1075,-619v7,390,-106,644,-471,644v-159,0,-277,-47,-356,-142v-79,-95,-119,-262,-119,-502r0,-847r159,0r0,846v2,230,15,340,132,424v115,82,346,50,418,-50v48,-67,77,-189,77,-374r0,-846r160,0r0,847xm605,-1737r-92,170r-169,0r177,-280r158,0r184,280r-167,0","w":1212},"\u00d9":{"d":"1075,-619v7,390,-106,644,-471,644v-159,0,-277,-47,-356,-142v-79,-95,-119,-262,-119,-502r0,-847r159,0r0,846v2,230,15,340,132,424v115,82,346,50,418,-50v48,-67,77,-189,77,-374r0,-846r160,0r0,847xm703,-1566r-119,0r-189,-280r198,0","w":1212},"\u0131":{"d":"166,0r0,-1062r147,0r0,1062r-147,0","w":467},"\u02c6":{"d":"281,-1364r-92,170r-169,0r177,-280r158,0r184,280r-167,0","w":559},"\u02dc":{"d":"178,-1314v-44,0,-64,41,-63,95r-109,0v-5,-124,59,-228,166,-228v35,0,81,18,139,54v32,20,58,30,77,30v49,0,52,-31,60,-87r107,0v-1,130,-53,222,-162,228v-43,13,-167,-92,-215,-92","w":559},"\u02c9":{"d":"24,-1227r0,-148r512,0r0,148r-512,0","w":559},"\u02d8":{"d":"275,-1329v94,0,131,-48,146,-135r101,0v-13,154,-93,259,-243,259v-150,0,-229,-106,-242,-259r101,0v15,90,61,135,137,135","w":559},"\u02d9":{"d":"188,-1194r0,-224r183,0r0,224r-183,0","w":559},"\u02da":{"d":"281,-1151v-86,0,-148,-89,-148,-187v0,-90,65,-180,148,-179v83,0,147,90,147,183v0,95,-62,183,-147,183xm283,-1444v-49,0,-87,53,-87,107v0,57,36,111,86,111v49,0,87,-54,87,-109v0,-56,-37,-109,-86,-109","w":559},"\u00b8":{"d":"306,221v-6,-57,-52,-65,-129,-67r43,-177r110,0r-28,107v82,10,141,65,141,150v0,114,-105,187,-233,187v-47,0,-88,-4,-122,-12r9,-117v100,9,200,11,209,-71","w":559},"\u02dd":{"d":"48,-1194r99,-280r192,0r-173,280r-118,0xm332,-1194r104,-280r190,0r-170,280r-124,0","w":559},"\u02db":{"d":"330,425v-115,-2,-180,-94,-180,-223v0,-57,11,-132,34,-226r101,0v-50,125,-51,316,87,316v41,0,87,-15,137,-46r0,119v-64,40,-124,60,-179,60","w":559},"\u02c7":{"d":"294,-1304r91,-170r167,0r-184,280r-158,0r-177,-280r169,0","w":559},"\u0141":{"d":"116,-565r-119,123r0,-167r119,-124r0,-733r159,0r0,568r163,-166r0,167r-163,166r0,558r597,0r0,173r-756,0r0,-565"},"\u0142":{"d":"105,-574r-106,110r0,-158r106,-110r0,-734r148,0r0,582r110,-115r0,157r-110,115r0,727r-148,0r0,-574","w":373},"\u0160":{"d":"1033,-415v0,272,-178,441,-464,441v-299,0,-490,-200,-493,-497r150,-16v16,158,66,238,176,297v53,27,112,41,178,41v174,0,299,-91,299,-250v0,-97,-47,-154,-115,-193v-68,-40,-421,-131,-490,-188v-84,-68,-151,-164,-152,-307v-2,-241,176,-408,425,-404v279,5,439,166,450,438r-153,14v-15,-182,-105,-278,-292,-281v-161,-2,-277,74,-277,217v0,59,21,102,52,138v54,62,409,142,484,184v131,73,222,179,222,366xm542,-1677r91,-170r167,0r-184,280r-158,0r-177,-280r169,0","w":1120},"\u0161":{"d":"775,-315v1,206,-147,340,-360,340v-209,0,-330,-114,-363,-342r146,-28v15,137,85,219,225,221v117,3,199,-62,201,-168v0,-42,-15,-75,-45,-98v-55,-41,-347,-113,-380,-150v-72,-45,-122,-128,-122,-240v-1,-186,133,-312,328,-306v206,6,316,99,337,298r-144,24v-13,-116,-76,-174,-189,-174v-111,0,-190,43,-190,137v0,39,15,70,45,93v47,35,372,127,397,158v70,44,114,123,114,235xm407,-1304r91,-170r167,0r-184,280r-158,0r-177,-280r169,0","w":840},"\u017d":{"d":"36,0r0,-180r616,-939v43,-65,84,-123,125,-174r-672,0r0,-173r861,0r0,173r-674,1017r-73,103r767,0r0,173r-950,0xm540,-1677r91,-170r167,0r-184,280r-158,0r-177,-280r169,0","w":1026},"\u017e":{"d":"33,0r0,-146r555,-776v-179,11,-340,4,-522,6r0,-146r712,0r0,119r-472,674r-91,123v193,-17,387,-6,589,-9r0,155r-771,0xm411,-1304r91,-170r167,0r-184,280r-158,0r-177,-280r169,0","w":840},"\u00a6":{"d":"285,-1491r0,790r-129,0r0,-790r129,0xm285,-360r0,791r-129,0r0,-791r129,0","w":436},"\u00d0":{"d":"126,0r0,-667r-132,0r0,-132r132,0r0,-667v207,6,497,-26,649,27v244,86,342,354,345,699v2,254,-68,490,-186,606v-94,93,-178,134,-374,134r-434,0xm541,-173v349,14,406,-247,415,-568v7,-261,-65,-449,-217,-524v-90,-45,-310,-25,-454,-28r0,494r332,0r0,132r-332,0r0,494r256,0","w":1212},"\u00f0":{"d":"250,-1466r177,0v40,36,74,70,103,102r175,-102r38,102r-142,83v175,245,262,498,262,758v0,174,-40,308,-115,405v-117,152,-330,191,-494,81v-132,-89,-197,-244,-197,-479v0,-178,37,-311,107,-406v105,-142,291,-186,437,-81v-31,-77,-70,-148,-116,-213r-226,127r-36,-103r197,-109v-53,-60,-110,-115,-170,-165xm638,-225v90,-124,93,-473,-2,-597v-98,-128,-263,-134,-358,-2v-85,117,-91,489,2,606v100,125,262,124,358,-7"},"\u00dd":{"d":"468,0r0,-621r-463,-845r194,0r236,442v47,87,88,170,123,248v35,-77,79,-163,131,-259r233,-431r185,0r-480,845r0,621r-159,0xm414,-1566r109,-280r193,0r-180,280r-122,0","w":1120},"\u00fd":{"d":"104,409r-16,-169v95,35,184,10,212,-62v5,-9,24,-68,58,-176r-331,-1064r159,0r182,615v23,77,44,159,63,246v65,-302,165,-574,246,-861r148,0r-331,1080v-43,140,-79,232,-102,280v-50,104,-157,167,-288,111xm311,-1194r109,-280r193,0r-180,280r-122,0","w":840},"\u00de":{"d":"1048,-746v-5,282,-138,456,-451,448r-308,0r0,298r-159,0r0,-1466r159,0r0,298v169,3,419,-13,531,29v139,52,231,199,228,393xm600,-471v191,0,280,-82,283,-267v1,-107,-47,-204,-115,-234v-97,-44,-332,-17,-479,-23r0,524r311,0","w":1120},"\u00fe":{"d":"485,24v-120,0,-161,-50,-230,-134r0,517r-147,0r0,-1873r147,0r0,516v71,-87,113,-136,239,-136v267,0,370,253,370,546v0,180,-38,319,-114,417v-76,98,-164,147,-265,147xm314,-838v-88,125,-93,495,-4,616v94,127,237,126,332,-3v87,-119,90,-501,2,-620v-96,-130,-233,-130,-330,7"},"\u2212":{"d":"886,-639r-794,0r0,-168r794,0r0,168","w":981},"\u00d7":{"d":"130,-409r259,-315r-258,-314r100,-122r258,314r256,-313r99,121r-257,313r258,314r-100,122r-258,-314r-258,315","w":981},"\u00b9":{"d":"86,-1297v74,-29,173,-118,214,-187r89,0r0,751r-119,0r0,-554v-56,54,-117,92,-184,113r0,-123","w":559},"\u00b2":{"d":"287,-1484v146,-2,238,70,240,205v0,56,-20,107,-50,159v-26,45,-210,201,-263,266r317,0r0,121r-511,0v8,-87,79,-190,212,-308v80,-71,128,-118,144,-141v54,-76,11,-190,-90,-184v-86,5,-102,35,-125,114r-124,-16v31,-141,93,-213,250,-216","w":559},"\u00b3":{"d":"529,-946v1,134,-107,231,-247,231v-147,0,-232,-71,-256,-214r120,-15v20,71,49,110,126,112v73,2,128,-59,128,-133v0,-93,-75,-120,-174,-107r18,-110v74,3,127,-34,128,-102v0,-55,-41,-91,-98,-89v-75,2,-94,35,-117,102r-117,-23v45,-130,82,-187,236,-190v135,-3,224,63,224,186v0,83,-47,140,-113,161v95,29,142,92,142,191","w":559},"\u00bd":{"d":"86,-1297v74,-29,173,-118,214,-187r89,0r0,751r-119,0r0,-554v-56,54,-117,92,-184,113r0,-123xm183,57r903,-1548r128,0r-902,1548r-129,0xm1127,-720v146,-2,238,70,240,205v0,56,-20,107,-50,159v-26,45,-210,201,-263,266r317,0r0,121r-511,0v8,-87,79,-190,212,-308v80,-71,128,-118,144,-141v54,-76,11,-190,-90,-184v-86,5,-102,35,-125,114r-124,-16v31,-141,93,-213,250,-216","w":1401},"\u00bc":{"d":"1172,31r0,-154r-313,0r0,-123r332,-474r100,0r0,489r85,0r0,108r-85,0r0,154r-119,0xm1172,-231r0,-263r-188,263r188,0xm86,-1297v74,-29,173,-118,214,-187r89,0r0,751r-119,0r0,-554v-56,54,-117,92,-184,113r0,-123xm203,57r903,-1548r128,0r-902,1548r-129,0","w":1401},"\u00be":{"d":"1168,31r0,-154r-313,0r0,-123r332,-474r100,0r0,489r85,0r0,108r-85,0r0,154r-119,0xm1168,-231r0,-263r-188,263r188,0xm529,-946v1,134,-107,231,-247,231v-147,0,-232,-71,-256,-214r120,-15v20,71,49,110,126,112v73,2,128,-59,128,-133v0,-93,-75,-120,-174,-107r18,-110v74,3,127,-34,128,-102v0,-55,-41,-91,-98,-89v-75,2,-94,35,-117,102r-117,-23v45,-130,82,-187,236,-190v135,-3,224,63,224,186v0,83,-47,140,-113,161v95,29,142,92,142,191xm203,57r903,-1548r128,0r-902,1548r-129,0","w":1401},"\u20a3":{"d":"138,-268r-138,0r0,-131r138,0r0,-1067r811,0r0,173r-652,0r0,454r564,0r0,173r-564,0r0,267r291,0r0,131r-291,0r0,268r-159,0r0,-268","w":1032},"\u011e":{"d":"700,-150v133,1,283,-78,349,-152r0,-273r-353,0r0,-172r509,-1r0,544v-132,127,-279,229,-499,229v-265,0,-436,-147,-532,-345v-106,-220,-104,-602,0,-824v98,-210,247,-347,522,-347v299,0,437,167,490,435r-143,48v-36,-150,-77,-225,-189,-282v-117,-59,-289,-41,-388,28v-133,93,-209,286,-209,525v0,196,41,343,123,441v82,98,189,146,320,146xm654,-1691v94,0,131,-48,146,-135r101,0v-13,154,-93,259,-243,259v-150,0,-229,-106,-242,-259r101,0v15,90,61,135,137,135","w":1307},"\u011f":{"d":"429,-1086v123,0,197,66,253,152r0,-128r136,0r0,918v-3,289,-23,407,-171,514v-128,93,-380,76,-479,-30v-58,-63,-90,-145,-88,-252r144,26v13,111,78,168,199,168v137,0,207,-69,233,-185v9,-37,13,-116,13,-236v-56,79,-124,139,-241,139v-251,0,-377,-260,-377,-539v0,-213,71,-402,189,-487v56,-40,119,-60,189,-60xm272,-840v-88,118,-84,482,0,595v92,124,245,123,339,2v88,-113,88,-483,-2,-597v-96,-121,-241,-129,-337,0xm430,-1329v94,0,131,-48,146,-135r101,0v-13,154,-93,259,-243,259v-150,0,-229,-106,-242,-259r101,0v15,90,61,135,137,135"},"\u0130":{"d":"160,0r0,-1466r159,0r0,1466r-159,0xm149,-1567r0,-224r183,0r0,224r-183,0","w":467},"\u015e":{"d":"1033,-415v0,272,-178,441,-464,441v-299,0,-490,-200,-493,-497r150,-16v16,158,66,238,176,297v53,27,112,41,178,41v174,0,299,-91,299,-250v0,-97,-47,-154,-115,-193v-68,-40,-421,-131,-490,-188v-84,-68,-151,-164,-152,-307v-2,-241,176,-408,425,-404v279,5,439,166,450,438r-153,14v-15,-182,-105,-278,-292,-281v-161,-2,-277,74,-277,217v0,59,21,102,52,138v54,62,409,142,484,184v131,73,222,179,222,366xm569,221v-6,-57,-52,-65,-129,-67r43,-177r110,0r-28,107v82,10,141,65,141,150v0,114,-105,187,-233,187v-47,0,-88,-4,-122,-12r9,-117v100,9,200,11,209,-71","w":1120},"\u015f":{"d":"775,-315v1,206,-147,340,-360,340v-209,0,-330,-114,-363,-342r146,-28v15,137,85,219,225,221v117,3,199,-62,201,-168v0,-42,-15,-75,-45,-98v-55,-41,-347,-113,-380,-150v-72,-45,-122,-128,-122,-240v-1,-186,133,-312,328,-306v206,6,316,99,337,298r-144,24v-13,-116,-76,-174,-189,-174v-111,0,-190,43,-190,137v0,39,15,70,45,93v47,35,372,127,397,158v70,44,114,123,114,235xm418,221v-6,-57,-52,-65,-129,-67r43,-177r110,0r-28,107v82,10,141,65,141,150v0,114,-105,187,-233,187v-47,0,-88,-4,-122,-12r9,-117v100,9,200,11,209,-71","w":840},"\u0106":{"d":"632,-141v208,0,319,-161,351,-373r160,49v-35,165,-99,285,-185,369v-149,146,-434,161,-608,40v-167,-116,-270,-386,-270,-687v0,-309,103,-543,280,-663v174,-118,434,-114,587,24v82,74,142,178,175,318r-156,45v-53,-204,-160,-306,-321,-306v-187,0,-289,102,-349,253v-35,87,-52,196,-52,329v0,201,35,351,106,451v71,100,165,151,282,151xm485,-1566r109,-280r193,0r-180,280r-122,0","w":1212},"\u0107":{"d":"460,-124v138,0,204,-114,219,-265r145,23v-25,221,-150,390,-367,390v-114,0,-203,-50,-281,-140v-143,-167,-139,-664,0,-832v124,-151,366,-187,514,-54v62,56,102,140,119,252r-143,27v-23,-121,-78,-215,-198,-215v-73,0,-129,35,-180,96v-93,111,-91,510,-4,621v49,62,105,97,176,97xm323,-1194r109,-280r193,0r-180,280r-122,0","w":840},"\u010c":{"d":"632,-141v208,0,319,-161,351,-373r160,49v-35,165,-99,285,-185,369v-149,146,-434,161,-608,40v-167,-116,-270,-386,-270,-687v0,-309,103,-543,280,-663v174,-118,434,-114,587,24v82,74,142,178,175,318r-156,45v-53,-204,-160,-306,-321,-306v-187,0,-289,102,-349,253v-35,87,-52,196,-52,329v0,201,35,351,106,451v71,100,165,151,282,151xm625,-1677r91,-170r167,0r-184,280r-158,0r-177,-280r169,0","w":1212},"\u010d":{"d":"460,-124v138,0,204,-114,219,-265r145,23v-25,221,-150,390,-367,390v-114,0,-203,-50,-281,-140v-143,-167,-139,-664,0,-832v124,-151,366,-187,514,-54v62,56,102,140,119,252r-143,27v-23,-121,-78,-215,-198,-215v-73,0,-129,35,-180,96v-93,111,-91,510,-4,621v49,62,105,97,176,97xm471,-1304r91,-170r167,0r-184,280r-158,0r-177,-280r169,0","w":840},"\u0111":{"d":"427,-1086v112,0,193,66,239,146r0,-284r-283,0r0,-104r283,0r0,-138r148,0r0,138r118,0r0,104r-118,0r0,1224r-138,0r0,-134v-45,88,-123,158,-239,158v-103,0,-188,-52,-267,-146v-123,-145,-143,-509,-62,-716v56,-142,152,-248,319,-248xm276,-840v-83,119,-85,499,4,616v96,126,234,129,330,4v92,-120,81,-502,0,-616v-90,-127,-242,-136,-334,-4","w":928},"\u00af":{"d":"-12,-1722r1048,0r0,103r-1048,0r0,-103","w":1024},"\u00b7":{"d":"196,-637r0,-205r168,0r0,205r-168,0","w":557},"\u0102":{"d":"-2,0r462,-1466r171,0r492,1466r-182,0r-140,-444r-502,0r-132,444r-169,0xm345,-602r407,0r-125,-406v-39,-125,-67,-226,-85,-304v-42,252,-131,479,-197,710xm540,-1692v94,0,131,-48,146,-135r101,0v-13,154,-93,259,-243,259v-150,0,-229,-106,-242,-259r101,0v15,90,61,135,137,135","w":1120},"\u0103":{"d":"813,-445v4,269,-10,303,47,445r-154,0v-15,-37,-25,-80,-30,-131v-83,86,-176,152,-320,155v-180,4,-298,-121,-298,-303v0,-128,61,-222,142,-274v90,-58,381,-73,464,-121v14,-176,-49,-265,-207,-263v-157,2,-197,59,-229,202r-145,-24v41,-219,148,-323,396,-327v164,-2,279,65,313,179v30,102,19,316,21,462xm215,-284v-1,103,71,168,177,167v113,-1,201,-69,240,-151v26,-55,34,-164,32,-265v-62,43,-288,64,-371,105v-47,23,-78,75,-78,144xm448,-1329v94,0,131,-48,146,-135r101,0v-13,154,-93,259,-243,259v-150,0,-229,-106,-242,-259r101,0v15,90,61,135,137,135"},"\u0104":{"d":"-2,0r462,-1466r171,0r492,1466r-182,0r-140,-444r-502,0r-132,444r-169,0xm345,-602r407,0r-125,-406v-39,-125,-67,-226,-85,-304v-42,252,-131,479,-197,710xm1121,425v-115,-2,-180,-94,-180,-223v0,-57,11,-132,34,-226r101,0v-50,125,-51,316,87,316v41,0,87,-15,137,-46r0,119v-64,40,-124,60,-179,60","w":1120,"k":{"\u0164":123,"\u0162":123,"\u2019":123,"w":29,"v":29,"Y":123,"W":61,"V":123,"T":123," ":92}},"\u0105":{"d":"813,-445v4,269,-10,303,47,445r-154,0v-15,-37,-25,-80,-30,-131v-83,86,-176,152,-320,155v-180,4,-298,-121,-298,-303v0,-128,61,-222,142,-274v90,-58,381,-73,464,-121v14,-176,-49,-265,-207,-263v-157,2,-197,59,-229,202r-145,-24v41,-219,148,-323,396,-327v164,-2,279,65,313,179v30,102,19,316,21,462xm215,-284v-1,103,71,168,177,167v113,-1,201,-69,240,-151v26,-55,34,-164,32,-265v-62,43,-288,64,-371,105v-47,23,-78,75,-78,144xm883,425v-115,-2,-180,-94,-180,-223v0,-57,11,-132,34,-226r101,0v-50,125,-51,316,87,316v41,0,87,-15,137,-46r0,119v-64,40,-124,60,-179,60"},"\u010e":{"d":"126,0r0,-1466v207,6,496,-26,649,27v244,85,342,354,345,698v2,300,-94,557,-260,669v-161,109,-474,62,-734,72xm541,-173v349,13,407,-245,415,-570v7,-257,-65,-446,-216,-521v-90,-45,-310,-26,-455,-29r0,1120r256,0xm582,-1677r91,-170r167,0r-184,280r-158,0r-177,-280r169,0","w":1212},"\u010f":{"d":"885,-1283r0,-184r151,0r0,184v0,107,-41,183,-123,227r-37,-69v52,-29,80,-81,84,-158r-75,0xm424,-1086v112,0,193,66,239,146r0,-526r148,0r0,1466r-138,0r0,-134v-45,88,-123,158,-239,158v-103,0,-187,-52,-266,-146v-123,-145,-144,-509,-63,-716v56,-142,152,-248,319,-248xm273,-840v-83,119,-84,499,5,616v96,126,233,129,329,4v92,-120,81,-502,0,-616v-90,-127,-242,-136,-334,-4","w":1032},"\u0110":{"d":"126,0r0,-667r-132,0r0,-132r132,0r0,-667v207,6,497,-26,649,27v244,86,342,354,345,699v2,254,-68,490,-186,606v-94,93,-178,134,-374,134r-434,0xm541,-173v349,14,406,-247,415,-568v7,-261,-65,-449,-217,-524v-90,-45,-310,-25,-454,-28r0,494r332,0r0,132r-332,0r0,494r256,0","w":1212},"\u0118":{"d":"133,0r0,-1466r869,0r0,173r-710,0r0,449r665,0r0,172r-665,0r0,499r738,0r0,173r-897,0xm767,425v-115,-2,-180,-94,-180,-223v0,-57,11,-132,34,-226r101,0v-50,125,-51,316,87,316v41,0,87,-15,137,-46r0,119v-64,40,-124,60,-179,60","w":1120},"\u0119":{"d":"472,24v-276,0,-414,-233,-414,-546v0,-183,41,-322,116,-420v144,-188,429,-192,574,-2v79,104,120,263,112,459r-650,0v6,119,34,209,83,270v49,61,109,91,180,91v111,0,188,-73,231,-218r152,23v-44,202,-162,343,-384,343xm705,-633v-7,-179,-91,-305,-240,-305v-149,0,-243,143,-246,305r486,0xm558,425v-115,-2,-180,-94,-180,-223v0,-57,11,-132,34,-226r101,0v-50,125,-51,316,87,316v41,0,87,-15,137,-46r0,119v-64,40,-124,60,-179,60"},"\u011a":{"d":"133,0r0,-1466r869,0r0,173r-710,0r0,449r665,0r0,172r-665,0r0,499r738,0r0,173r-897,0xm588,-1677r91,-170r167,0r-184,280r-158,0r-177,-280r169,0","w":1120},"\u011b":{"d":"472,24v-276,0,-414,-233,-414,-546v0,-183,41,-322,116,-420v144,-188,429,-192,574,-2v79,104,120,263,112,459r-650,0v6,119,34,209,83,270v49,61,109,91,180,91v111,0,188,-73,231,-218r152,23v-44,202,-162,343,-384,343xm705,-633v-7,-179,-91,-305,-240,-305v-149,0,-243,143,-246,305r486,0xm460,-1304r91,-170r167,0r-184,280r-158,0r-177,-280r169,0"},"\u0139":{"d":"120,0r0,-1466r159,0r0,1293r592,0r0,173r-751,0xm418,-1566r109,-280r193,0r-180,280r-122,0","k":{"\u0164":123,"\u0162":123,"\u2019":92,"y":61,"Y":123,"W":123,"V":123,"T":123," ":61}},"\u013a":{"d":"104,0r0,-1466r147,0r0,1466r-147,0xm106,-1566r109,-280r193,0r-180,280r-122,0","w":373},"\u013d":{"d":"577,-1295r0,-184r151,0r0,184v0,107,-41,183,-123,227r-37,-69v52,-29,80,-81,84,-158r-75,0xm120,0r0,-1466r159,0r0,1293r592,0r0,173r-751,0"},"\u013e":{"d":"337,-1295r0,-184r151,0r0,184v0,107,-41,183,-123,227r-37,-69v52,-29,80,-81,84,-158r-75,0xm104,0r0,-1466r147,0r0,1466r-147,0","w":489},"\u013f":{"d":"120,0r0,-1466r159,0r0,1293r592,0r0,173r-751,0xm436,-637r0,-205r168,0r0,205r-168,0"},"\u0140":{"d":"104,0r0,-1466r147,0r0,1466r-147,0xm336,-637r0,-205r168,0r0,205r-168,0","w":661},"\u0143":{"d":"125,0r0,-1466r163,0r632,1151r0,-1151r152,0r0,1466r-163,0r-631,-1152r0,1152r-153,0xm492,-1566r109,-280r193,0r-180,280r-122,0","w":1212},"\u0144":{"d":"487,-930v-175,0,-232,135,-232,350r0,580r-147,0r0,-1062r133,0r0,151v56,-103,136,-175,277,-175v234,0,298,159,298,433r0,653r-148,0r0,-646v-1,-137,-13,-202,-82,-254v-28,-21,-62,-30,-99,-30xm377,-1194r109,-280r193,0r-180,280r-122,0"},"\u0147":{"d":"125,0r0,-1466r163,0r632,1151r0,-1151r152,0r0,1466r-163,0r-631,-1152r0,1152r-153,0xm599,-1677r91,-170r167,0r-184,280r-158,0r-177,-280r169,0","w":1212},"\u0148":{"d":"487,-930v-175,0,-232,135,-232,350r0,580r-147,0r0,-1062r133,0r0,151v56,-103,136,-175,277,-175v234,0,298,159,298,433r0,653r-148,0r0,-646v-1,-137,-13,-202,-82,-254v-28,-21,-62,-30,-99,-30xm473,-1304r91,-170r167,0r-184,280r-158,0r-177,-280r169,0"},"\u0150":{"d":"660,25v-353,4,-575,-361,-575,-739v0,-250,58,-440,165,-576v167,-213,468,-270,701,-112v178,121,284,363,284,670v0,406,-211,753,-575,757xm249,-711v0,181,41,320,119,421v152,199,429,193,584,-2v128,-160,153,-555,58,-782v-55,-132,-179,-251,-348,-251v-120,0,-218,50,-296,150v-78,100,-117,255,-117,464xm420,-1566r99,-280r192,0r-173,280r-118,0xm704,-1566r104,-280r190,0r-170,280r-124,0","w":1307},"\u0151":{"d":"461,-1086v264,0,408,237,408,544v0,191,-40,331,-115,426v-145,185,-431,180,-584,0v-146,-171,-152,-663,-2,-830v81,-90,175,-140,293,-140xm278,-836v-92,122,-93,493,1,612v100,127,265,130,365,-2v93,-122,93,-490,-1,-610v-100,-127,-265,-132,-365,0xm220,-1194r99,-280r192,0r-173,280r-118,0xm504,-1194r104,-280r190,0r-170,280r-124,0"},"\u0154":{"d":"1090,-1067v-1,232,-130,367,-338,400v115,66,167,155,227,268r210,399r-200,0r-160,-305v-62,-119,-109,-200,-141,-241v-61,-76,-92,-105,-216,-105r-184,0r0,651r-159,0r0,-1466r533,0v218,1,301,42,377,178v35,63,51,137,51,221xm926,-1066v0,-154,-96,-238,-258,-238r-380,0r0,485r342,0v196,5,296,-74,296,-247xm465,-1566r109,-280r193,0r-180,280r-122,0","w":1212,"k":{"\u0164":29,"\u0162":29,"Y":29,"W":29,"V":29,"T":29}},"\u0155":{"d":"424,-900v-149,0,-169,191,-169,344r0,556r-147,0r0,-1062r133,0r0,161v34,-75,64,-125,93,-149v77,-63,166,-38,247,22r-50,167v-37,-26,-72,-39,-107,-39xm250,-1194r109,-280r193,0r-180,280r-122,0","w":559,"k":{"\u2019":-61,".":92,",":92}},"\u0158":{"d":"1090,-1067v-1,232,-130,367,-338,400v115,66,167,155,227,268r210,399r-200,0r-160,-305v-62,-119,-109,-200,-141,-241v-61,-76,-92,-105,-216,-105r-184,0r0,651r-159,0r0,-1466r533,0v218,1,301,42,377,178v35,63,51,137,51,221xm926,-1066v0,-154,-96,-238,-258,-238r-380,0r0,485r342,0v196,5,296,-74,296,-247xm573,-1677r91,-170r167,0r-184,280r-158,0r-177,-280r169,0","w":1212,"k":{"\u0164":29,"\u0162":29,"Y":29,"W":29,"V":29,"T":29}},"\u0159":{"d":"424,-900v-149,0,-169,191,-169,344r0,556r-147,0r0,-1062r133,0r0,161v34,-75,64,-125,93,-149v77,-63,166,-38,247,22r-50,167v-37,-26,-72,-39,-107,-39xm346,-1304r91,-170r167,0r-184,280r-158,0r-177,-280r169,0","w":559,"k":{"\u2019":-61,".":92,",":92}},"\u015a":{"d":"1033,-415v0,272,-178,441,-464,441v-299,0,-490,-200,-493,-497r150,-16v16,158,66,238,176,297v53,27,112,41,178,41v174,0,299,-91,299,-250v0,-97,-47,-154,-115,-193v-68,-40,-421,-131,-490,-188v-84,-68,-151,-164,-152,-307v-2,-241,176,-408,425,-404v279,5,439,166,450,438r-153,14v-15,-182,-105,-278,-292,-281v-161,-2,-277,74,-277,217v0,59,21,102,52,138v54,62,409,142,484,184v131,73,222,179,222,366xm421,-1566r109,-280r193,0r-180,280r-122,0","w":1120},"\u015b":{"d":"775,-315v1,206,-147,340,-360,340v-209,0,-330,-114,-363,-342r146,-28v15,137,85,219,225,221v117,3,199,-62,201,-168v0,-42,-15,-75,-45,-98v-55,-41,-347,-113,-380,-150v-72,-45,-122,-128,-122,-240v-1,-186,133,-312,328,-306v206,6,316,99,337,298r-144,24v-13,-116,-76,-174,-189,-174v-111,0,-190,43,-190,137v0,39,15,70,45,93v47,35,372,127,397,158v70,44,114,123,114,235xm293,-1194r109,-280r193,0r-180,280r-122,0","w":840},"\u0162":{"d":"438,0r0,-1293r-396,0r0,-173r953,0r0,173r-398,0r0,1293r-159,0xm556,221v-6,-57,-52,-65,-129,-67r43,-177r110,0r-28,107v82,10,141,65,141,150v0,114,-105,187,-233,187v-47,0,-88,-4,-122,-12r9,-117v100,9,200,11,209,-71","w":1026,"k":{"\u0150":29,"\u0119":186,"\u0105":186,"\u0104":123,"y":92,"w":92,"u":61,"s":143,"r":61,"o":186,"i":37,"e":186,"c":186,"a":186,"O":29,"A":123,";":186,":":186,".":186,"-":92,",":186," ":29}},"\u0163":{"d":"288,-301v1,104,3,147,84,147v17,0,38,-2,65,-7r20,159v-131,40,-270,5,-299,-98v-10,-36,-17,-106,-17,-211r0,-611r-108,0r0,-140r108,0r0,-263r147,-108r0,371r149,0r0,140r-149,0r0,621xm366,221v-6,-57,-52,-65,-129,-67r43,-177r110,0r-28,107v82,10,141,65,141,150v0,114,-105,187,-233,187v-47,0,-88,-4,-122,-12r9,-117v100,9,200,11,209,-71","w":467},"\u0164":{"d":"438,0r0,-1293r-396,0r0,-173r953,0r0,173r-398,0r0,1293r-159,0xm523,-1677r91,-170r167,0r-184,280r-158,0r-177,-280r169,0","w":1026,"k":{"\u0150":29,"\u0119":186,"\u0105":186,"\u0104":123,"y":92,"w":92,"u":61,"s":143,"r":61,"o":186,"i":37,"e":186,"c":186,"a":186,"O":29,"A":123,";":186,":":186,".":186,"-":92,",":186," ":29}},"\u0165":{"d":"477,-1295r0,-184r151,0r0,184v0,107,-41,183,-123,227r-37,-69v52,-29,80,-81,84,-158r-75,0xm288,-301v1,104,3,147,84,147v17,0,38,-2,65,-7r20,159v-131,40,-270,5,-299,-98v-10,-36,-17,-106,-17,-211r0,-611r-108,0r0,-140r108,0r0,-263r147,-108r0,371r149,0r0,140r-149,0r0,621","w":629},"\u016e":{"d":"1075,-619v7,390,-106,644,-471,644v-159,0,-277,-47,-356,-142v-79,-95,-119,-262,-119,-502r0,-847r159,0r0,846v2,230,15,340,132,424v115,82,346,50,418,-50v48,-67,77,-189,77,-374r0,-846r160,0r0,847xm601,-1567v-86,0,-148,-89,-148,-187v0,-90,65,-180,148,-179v83,0,147,90,147,183v0,95,-62,183,-147,183xm603,-1860v-49,0,-87,53,-87,107v0,57,36,111,86,111v49,0,87,-54,87,-109v0,-56,-37,-109,-86,-109","w":1212},"\u016f":{"d":"679,-156v-59,103,-136,177,-276,180v-139,3,-243,-87,-273,-196v-16,-57,-25,-134,-25,-232r0,-658r147,0r0,589v4,182,-6,243,78,309v87,69,212,30,275,-54v38,-51,58,-142,58,-275r0,-569r148,0r0,1062r-132,0r0,-156xm459,-1155v-86,0,-148,-89,-148,-187v0,-90,65,-180,148,-179v83,0,147,90,147,183v0,95,-62,183,-147,183xm461,-1448v-49,0,-87,53,-87,107v0,57,36,111,86,111v49,0,87,-54,87,-109v0,-56,-37,-109,-86,-109"},"\u0170":{"d":"1075,-619v7,390,-106,644,-471,644v-159,0,-277,-47,-356,-142v-79,-95,-119,-262,-119,-502r0,-847r159,0r0,846v2,230,15,340,132,424v115,82,346,50,418,-50v48,-67,77,-189,77,-374r0,-846r160,0r0,847xm380,-1566r99,-280r192,0r-173,280r-118,0xm664,-1566r104,-280r190,0r-170,280r-124,0","w":1212},"\u0171":{"d":"679,-156v-59,103,-136,177,-276,180v-139,3,-243,-87,-273,-196v-16,-57,-25,-134,-25,-232r0,-658r147,0r0,589v4,182,-6,243,78,309v87,69,212,30,275,-54v38,-51,58,-142,58,-275r0,-569r148,0r0,1062r-132,0r0,-156xm223,-1194r99,-280r192,0r-173,280r-118,0xm507,-1194r104,-280r190,0r-170,280r-124,0"},"\u0179":{"d":"36,0r0,-180r616,-939v43,-65,84,-123,125,-174r-672,0r0,-173r861,0r0,173r-674,1017r-73,103r767,0r0,173r-950,0xm438,-1566r109,-280r193,0r-180,280r-122,0","w":1026},"\u017a":{"d":"33,0r0,-146r555,-776v-179,11,-340,4,-522,6r0,-146r712,0r0,119r-472,674r-91,123v193,-17,387,-6,589,-9r0,155r-771,0xm282,-1194r109,-280r193,0r-180,280r-122,0","w":840},"\u017b":{"d":"36,0r0,-180r616,-939v43,-65,84,-123,125,-174r-672,0r0,-173r861,0r0,173r-674,1017r-73,103r767,0r0,173r-950,0xm447,-1565r0,-224r183,0r0,224r-183,0","w":1026},"\u017c":{"d":"33,0r0,-146r555,-776v-179,11,-340,4,-522,6r0,-146r712,0r0,119r-472,674r-91,123v193,-17,387,-6,589,-9r0,155r-771,0xm315,-1194r0,-224r183,0r0,224r-183,0","w":840},"\u0393":{"d":"132,-1467r729,0r0,174r-570,0r0,1293r-159,0r0,-1467","w":897},"\u0398":{"d":"1148,-731v0,405,-135,771,-530,771v-173,0,-302,-72,-398,-210v-179,-258,-180,-849,-4,-1117v93,-141,224,-216,406,-216v238,0,365,133,450,327v50,114,76,262,76,445xm622,-1345v-121,0,-209,55,-276,157v-124,187,-121,728,0,913v67,102,151,157,266,157v245,0,368,-209,368,-627v0,-189,-32,-335,-95,-441v-63,-106,-151,-159,-263,-159xm391,-829r449,0r0,167r-449,0r0,-167","w":1229},"\u03a6":{"d":"601,-1503r159,0r0,194v351,15,527,210,527,585v0,377,-176,572,-527,587r0,312r-159,0r0,-312v-353,-15,-530,-211,-530,-587v0,-375,177,-570,530,-585r0,-194xm601,-1155v-239,3,-358,147,-358,432v0,273,119,417,358,434r0,-866xm760,-289v252,-5,356,-173,356,-435v0,-282,-119,-426,-356,-431r0,866","w":1357},"\u03b1":{"d":"446,28v-275,0,-390,-257,-390,-538v0,-173,35,-312,106,-415v71,-103,168,-155,289,-155v134,0,233,66,296,197r36,-180r160,0v-80,346,-78,742,11,1063r-165,0v-17,-75,-30,-139,-38,-192v-75,147,-176,220,-305,220xm479,-942v-190,0,-251,199,-251,411v0,131,22,234,66,309v44,75,105,112,185,112v168,0,252,-141,252,-422v0,-135,-22,-237,-67,-306v-45,-69,-107,-104,-185,-104","w":1013},"\u03b4":{"d":"59,-516v0,-282,122,-517,365,-533v-64,-57,-158,-153,-281,-288r0,-129r658,0r0,145r-461,0v78,105,322,298,402,391v81,93,135,220,135,402v0,304,-132,551,-404,551v-276,0,-414,-241,-414,-539xm725,-516v0,-209,-80,-393,-258,-393v-172,0,-256,194,-256,395v0,198,90,389,260,389v175,0,254,-185,254,-391"},"\u03b5":{"d":"354,-930v-83,0,-139,65,-139,146v0,121,87,173,236,166r0,145v-157,-6,-248,50,-248,176v0,94,67,173,157,172v74,0,145,-44,213,-131r107,111v-89,106,-160,165,-334,168v-176,4,-295,-137,-295,-312v0,-124,48,-211,144,-260v-81,-53,-121,-132,-121,-235v-2,-169,115,-301,288,-301v112,0,208,48,287,143r-106,104v-68,-61,-131,-92,-189,-92","w":729},"\u03c3":{"d":"468,-1080v53,-1,154,16,237,16r380,0r0,152r-279,0v78,91,117,218,117,383v0,310,-141,555,-431,557v-294,1,-436,-248,-436,-556v0,-306,145,-546,412,-552xm487,-108v206,0,266,-193,266,-429v0,-127,-21,-229,-65,-305v-44,-76,-108,-113,-192,-113v-181,0,-271,147,-271,442v0,216,72,405,262,405","w":1117},"\u03c4":{"d":"614,-915r-211,0r0,915r-147,0r0,-915r-229,0r0,-146r587,0r0,146","w":641},"\u03c6":{"d":"1030,-584v0,308,-156,543,-405,609r0,383r-148,0r0,-383v-255,-23,-418,-292,-418,-582v0,-152,35,-279,103,-379v68,-100,151,-149,248,-147r-29,155v-113,47,-170,168,-170,363v-1,217,96,387,266,432r0,-660v4,-210,24,-292,197,-292v119,0,208,53,267,160v59,107,89,220,89,341xm709,-938v-79,0,-84,69,-84,174r0,625v164,-39,254,-238,254,-455v0,-107,-17,-191,-51,-252v-34,-61,-73,-92,-119,-92","w":1090},"\u2017":{"d":"1042,284r-1059,0r0,-84r1059,0r0,84xm1042,442r-1059,0r0,-84r1059,0r0,84","w":1024},"\u203c":{"d":"197,-364r-45,-777r0,-325r183,0r0,325r-42,777r-96,0xm159,0r0,-205r169,0r0,205r-169,0xm633,-364r-45,-777r0,-325r183,0r0,325r-42,777r-96,0xm595,0r0,-205r169,0r0,205r-169,0"},"\u207f":{"d":"431,-1206v-1,-100,-18,-157,-109,-157v-93,0,-139,65,-139,196r0,362r-116,0r0,-665r106,0r0,69v45,-55,102,-83,171,-83v153,0,203,103,203,274r0,405r-116,0r0,-401","w":612},"\u20a7":{"d":"1169,16v-140,0,-204,-65,-204,-224r0,-711r-84,0v-29,137,-103,246,-217,291v-73,29,-247,31,-375,30r0,598r-159,0r0,-1466r379,0v241,1,372,159,380,402r76,0r0,-310r149,1r0,309r262,0v94,-41,224,-36,310,9v97,51,170,141,169,292r-154,-1v-7,-113,-65,-170,-174,-170v-87,0,-166,46,-166,126v0,38,16,68,48,92v32,24,90,47,172,72v195,60,298,117,307,331v8,200,-169,340,-358,339v-123,0,-218,-52,-284,-157r-1,131v-30,11,-55,16,-76,16xm727,-1031v0,-172,-82,-273,-270,-264r-168,0r0,528r108,0v224,7,330,-66,330,-264xm1408,-179v111,108,332,32,332,-115v0,-31,-13,-58,-33,-84v-40,-50,-310,-123,-363,-161v-69,-50,-129,-126,-129,-240v0,-55,9,-101,26,-139r-127,-1r-1,686v-5,73,58,98,117,72v-22,-55,-34,-114,-35,-177r149,1v3,71,26,121,64,158","w":1952},"\u2190":{"d":"79,-543v166,-77,270,-179,413,-333r76,0v-85,167,-85,169,-195,309r1595,0r0,101r-1595,0v69,72,135,175,198,309r-78,0v-148,-163,-239,-251,-414,-341r0,-45","w":2048},"\u2191":{"d":"532,-1339v88,175,178,267,340,414r0,77v-134,-63,-237,-128,-309,-197r0,1474r-101,0r0,-1474v-140,109,-143,110,-309,195r0,-76v156,-145,254,-246,333,-413r46,0","w":1024},"\u2192":{"d":"1968,-498v-174,89,-267,179,-414,341r-77,0v63,-134,128,-237,197,-309r-1595,0r0,-101r1595,0v-109,-141,-110,-142,-195,-309r76,0v145,156,246,254,413,333r0,45","w":2048},"\u2193":{"d":"486,429v-78,-165,-178,-270,-333,-413r0,-76v167,84,169,86,309,195r0,-1474r101,0r0,1474v72,-69,175,-134,309,-197r0,77v-163,148,-251,238,-340,414r-46,0","w":1024},"\u2194":{"d":"1562,-878v146,166,233,251,406,338r0,45v-172,85,-260,174,-406,337r-80,0v46,-115,111,-218,194,-311r-1305,0v83,93,148,196,194,311r-80,0v-146,-164,-233,-251,-406,-337r0,-45v172,-86,260,-173,406,-338r80,0v-46,115,-111,218,-194,311r1305,0v-83,-93,-148,-196,-194,-311r80,0","w":2048},"\u2195":{"d":"152,-1056v164,-146,251,-234,337,-407r45,0v86,172,173,261,337,407r0,80v-114,-46,-218,-111,-311,-195r0,1306v93,-84,197,-149,311,-194r0,79v-165,146,-250,234,-337,407r-45,0v-85,-172,-174,-262,-337,-407r0,-79v114,45,218,110,311,194r0,-1306v-93,84,-197,149,-311,195r0,-80","w":1024},"\u21a8":{"d":"152,-1056v164,-146,251,-234,337,-407r45,0v86,172,173,261,337,407r0,80v-114,-46,-218,-111,-311,-195r0,1306v93,-84,197,-149,311,-194r0,79v-165,146,-250,234,-337,407r-45,0v-85,-172,-174,-262,-337,-407r0,-79v114,45,218,110,311,194r0,-1306v-93,84,-197,149,-311,195r0,-80xm154,522r717,0r0,98r-717,0r0,-98","w":1024},"\u221f":{"d":"362,-1279r100,0r0,1179r1181,0r0,100r-1281,0r0,-1279","w":2005},"\u2229":{"d":"302,0r-110,0r0,-560v1,-286,-12,-352,50,-509v68,-172,252,-315,495,-315v245,0,433,144,498,324v58,162,45,215,46,500r0,560r-109,0r0,-566v-1,-248,6,-319,-42,-458v-60,-176,-303,-314,-538,-228v-161,59,-259,163,-279,360v-21,210,-8,633,-11,892","w":1479},"\u2261":{"d":"887,-1085r-794,0r0,-167r794,0r0,167xm887,-639r-794,0r0,-168r794,0r0,168xm887,-194r-794,0r0,-168r794,0r0,168","w":979},"\u2302":{"d":"153,0r0,-634r461,-519r462,519r0,634r-923,0xm234,-81r761,0r0,-519r-381,-427r-380,427r0,519","w":1229},"\u2310":{"d":"92,-424r0,-606r794,0r0,168r-654,0r0,438r-140,0","w":981},"\u2320":{"d":"976,-1628v3,74,-79,113,-145,77v-29,-16,-69,-124,-119,-71v-30,33,-21,72,-21,166r0,1971r-145,0r0,-1811v0,-146,30,-256,90,-330v60,-74,127,-111,202,-111v78,0,135,42,138,109","w":1237},"\u2321":{"d":"261,406v-3,-75,82,-117,146,-76v31,12,64,119,118,71v27,-36,21,-72,21,-167r0,-1971r145,0r0,1811v0,146,-29,256,-89,330v-60,74,-128,111,-203,111v-78,0,-136,-42,-138,-109","w":1237},"\u2500":{"d":"1473,-534r-1496,0r0,-175r1496,0r0,175","w":1451},"\u2502":{"d":"448,621r0,-2485r175,0r0,2485r-175,0","w":1261},"\u250c":{"d":"1474,-709r0,175r-661,0r0,1155r-175,0r0,-1330r836,0","w":1451},"\u2510":{"d":"637,-534r-660,0r0,-175r835,0r0,1330r-175,0r0,-1155","w":1451},"\u2514":{"d":"638,-534r0,-1330r175,0r0,1155r661,0r0,175r-836,0","w":1451},"\u2518":{"d":"812,-534r-835,0r0,-175r660,0r0,-1155r175,0r0,1330","w":1451},"\u251c":{"d":"638,621r0,-2485r175,0r0,1155r661,0r0,175r-661,0r0,1155r-175,0","w":1451},"\u2524":{"d":"637,621r0,-1155r-660,0r0,-175r660,0r0,-1155r175,0r0,2485r-175,0","w":1451},"\u252c":{"d":"637,-534r-660,0r0,-175r1496,0r0,175r-661,0r0,1155r-175,0r0,-1155","w":1451},"\u2534":{"d":"1473,-534r-1496,0r0,-175r660,0r0,-1155r175,0r0,1155r661,0r0,175","w":1451},"\u253c":{"d":"637,-534r-660,0r0,-175r660,0r0,-1155r175,0r0,1155r661,0r0,175r-661,0r0,1155r-175,0r0,-1155","w":1451},"\u2550":{"d":"1496,-724r-1496,0r0,-175r1496,0r0,175xm1496,-344r-1496,0r0,-175r1496,0r0,175","w":1451},"\u2551":{"d":"380,621r0,-2485r175,0r0,2485r-175,0xm0,621r0,-2485r175,0r0,2485r-175,0","w":1451},"\u2552":{"d":"0,621r0,-1520r836,0r0,175r-661,0r0,205r661,0r0,175r-661,0r0,965r-175,0","w":1451},"\u2553":{"d":"0,621r0,-1330r1026,0r0,175r-471,0r0,1155r-175,0r0,-1140r-205,0r0,1140r-175,0","w":1451},"\u2554":{"d":"175,621r-175,0r0,-1520r1025,0r0,175r-850,0r0,1345xm555,-344r0,965r-175,0r0,-1140r645,0r0,175r-470,0","w":1451},"\u2555":{"d":"660,-344r-660,0r0,-175r660,0r0,-205r-660,0r0,-175r835,0r0,1520r-175,0r0,-965","w":1451},"\u2556":{"d":"470,621r1,-1155r-471,0r0,-175r1025,0r0,1330r-175,0r0,-1155r-205,0r0,1155r-175,0","w":1451},"\u2557":{"d":"850,621r0,-1345r-850,0r0,-175r1025,0r0,1520r-175,0xm470,-344r-470,0r0,-175r645,0r0,1140r-175,0r0,-965","w":1451},"\u2558":{"d":"0,-344r0,-1520r175,0r0,965r661,0r0,175r-661,0r0,205r661,0r0,175r-836,0","w":1451},"\u2559":{"d":"1026,-534r-1026,0r0,-1330r175,0r0,1155r205,0r0,-1155r175,0r0,1155r471,0r0,175","w":1451},"\u255a":{"d":"175,-1864r0,1345r850,0r0,175r-1025,0r0,-1520r175,0xm555,-899r470,0r0,175r-645,0r0,-1140r175,0r0,965","w":1451},"\u255b":{"d":"835,-344r-835,0r0,-175r660,0r0,-205r-660,0r0,-175r660,0r0,-965r175,0r0,1520","w":1451},"\u255c":{"d":"1025,-534r-1025,0r0,-175r470,0r0,-1155r175,0r0,1155r205,0r0,-1155r175,0r0,1330","w":1451},"\u255d":{"d":"850,-1864r175,0r0,1520r-1025,0r0,-175r850,0r0,-1345xm470,-899r0,-965r175,0r0,1140r-645,0r0,-175r470,0","w":1451},"\u255e":{"d":"0,621r0,-2485r175,0r0,965r661,0r0,175r-661,0r0,205r661,0r0,175r-661,0r0,965r-175,0","w":1451},"\u255f":{"d":"380,621r0,-2485r175,0r0,1155r471,0r0,175r-471,0r0,1155r-175,0xm0,621r0,-2485r175,0r0,2485r-175,0","w":1451},"\u2560":{"d":"0,621r0,-2485r175,0r0,2485r-175,0xm380,-724r0,-1140r175,0r0,965r471,0r0,175r-646,0xm380,621r0,-1140r646,0r0,175r-471,0r0,965r-175,0","w":1451},"\u2561":{"d":"660,-344r-660,0r0,-175r661,0r-1,-205r-660,0r0,-175r660,0r0,-965r175,0r0,2485r-175,0r0,-965","w":1451},"\u2562":{"d":"470,621r1,-1155r-471,0r0,-175r470,0r0,-1155r175,0r0,2485r-175,0xm850,621r0,-2485r175,0r0,2485r-175,0","w":1451},"\u2563":{"d":"850,621r0,-2485r175,0r0,2485r-175,0xm645,-1864r0,1140r-645,0r0,-175r470,0r0,-965r175,0xm470,-344r-470,0r0,-175r645,0r0,1140r-175,0r0,-965","w":1451},"\u2564":{"d":"1496,-724r-1496,0r0,-175r1496,0r0,175xm660,-344r-660,0r0,-175r1496,0r0,175r-661,0r0,965r-175,0r0,-965","w":1451},"\u2565":{"d":"470,621r1,-1155r-471,0r0,-175r1496,0r0,175r-471,0r0,1155r-175,0r0,-1140r-205,0r0,1140r-175,0","w":1451},"\u2566":{"d":"1496,-724r-1496,0r0,-175r1496,0r0,175xm470,-344r-470,0r0,-175r645,0r0,1140r-175,0r0,-965xm850,621r0,-1140r646,0r0,175r-471,0r0,965r-175,0","w":1451},"\u2567":{"d":"1496,-724r-1496,0r0,-175r660,0r0,-965r175,0r0,965r661,0r0,175xm1496,-344r-1496,0r0,-175r1496,0r0,175","w":1451},"\u2568":{"d":"1496,-534r-1496,0r0,-175r470,0r0,-1155r175,0r0,1155r205,0r0,-1155r175,0r0,1155r471,0r0,175","w":1451},"\u2569":{"d":"645,-724r-645,0r0,-175r470,0r0,-965r175,0r0,1140xm1496,-724r-646,0r0,-1140r175,0r0,965r471,0r0,175xm1496,-344r-1496,0r0,-175r1496,0r0,175","w":1451},"\u256a":{"d":"660,-344r-660,0r0,-175r660,0r0,-205r-660,0r0,-175r660,0r0,-965r175,0r0,965r661,0r0,175r-661,0r0,205r661,0r0,175r-661,0r0,965r-175,0r0,-965","w":1451},"\u256b":{"d":"470,621r1,-1155r-471,0r0,-175r470,0r0,-1155r175,0r0,1155r205,0r0,-1155r175,0r0,1155r471,0r0,175r-471,0r0,1155r-175,0r0,-1155r-205,0r0,1155r-175,0","w":1451},"\u256c":{"d":"1026,-899r470,0r0,175r-645,0r0,-1140r175,0r0,965xm470,-899r0,-965r175,0r0,1140r-645,0r0,-175r470,0xm470,-344r-470,0r0,-175r645,0r0,1140r-175,0r0,-965xm1026,-344r0,965r-175,0r0,-1140r645,0r0,175r-470,0","w":1451},"\u2580":{"d":"1496,-621r-1496,0r0,-1243r1496,0r0,1243","w":1451},"\u2584":{"d":"1496,621r-1496,0r0,-1242r1496,0r0,1242","w":1451},"\u2588":{"d":"0,621r0,-2485r1496,0r0,2485r-1496,0","w":1451},"\u258c":{"d":"0,621r0,-2485r748,0r0,2485r-748,0","w":1451},"\u2590":{"d":"0,621r0,-2485r748,0r0,2485r-748,0","w":1451},"\u2591":{"d":"102,-1864r125,0r0,125r-125,0r0,-125xm600,-1864r125,0r0,125r-125,0r0,-125xm1099,-1864r125,0r0,125r-125,0r0,-125xm351,-1615r125,0r0,125r-125,0r0,-125xm850,-1615r124,0r0,125r-124,0r0,-125xm1348,-1615r125,0r0,125r-125,0r0,-125xm1099,-1366r125,0r0,125r-125,0r0,-125xm600,-1366r125,0r0,125r-125,0r0,-125xm102,-1366r125,0r0,125r-125,0r0,-125xm1348,-1116r125,0r0,124r-125,0r0,-124xm850,-1116r124,0r0,124r-124,0r0,-124xm351,-1116r125,0r0,124r-125,0r0,-124xm102,-867r125,0r0,125r-125,0r0,-125xm600,-867r125,0r0,125r-125,0r0,-125xm1099,-867r125,0r0,125r-125,0r0,-125xm1348,-618r125,0r0,125r-125,0r0,-125xm850,-618r124,0r0,125r-124,0r0,-125xm351,-618r125,0r0,125r-125,0r0,-125xm102,-369r125,0r0,125r-125,0r0,-125xm600,-369r125,0r0,125r-125,0r0,-125xm1099,-369r125,0r0,125r-125,0r0,-125xm351,-119r125,0r0,124r-125,0r0,-124xm850,-119r124,0r0,124r-124,0r0,-124xm1348,-119r125,0r0,124r-125,0r0,-124xm1099,130r125,0r0,125r-125,0r0,-125xm600,130r125,0r0,125r-125,0r0,-125xm102,130r125,0r0,125r-125,0r0,-125xm351,379r125,0r0,125r-125,0r0,-125xm850,379r124,0r0,125r-124,0r0,-125xm1348,379r125,0r0,125r-125,0r0,-125","w":1451},"\u2592":{"d":"103,-1864r124,0r0,125r-124,0r0,-125xm352,-1864r124,0r0,125r-124,0r0,-125xm601,-1864r125,0r0,125r-125,0r0,-125xm850,-1864r125,0r0,125r-125,0r0,-125xm1100,-1864r124,0r0,125r-124,0r0,-125xm1349,-1864r124,0r0,125r-124,0r0,-125xm-22,-1615r125,0r0,125r-125,0r0,-125xm227,-1615r125,0r0,125r-125,0r0,-125xm476,-1615r125,0r0,125r-125,0r0,-125xm726,-1615r124,0r0,125r-124,0r0,-125xm975,-1615r125,0r0,125r-125,0r0,-125xm1224,-1615r125,0r0,125r-125,0r0,-125xm103,-1366r124,0r0,125r-124,0r0,-125xm352,-1366r124,0r0,125r-124,0r0,-125xm601,-1366r125,0r0,125r-125,0r0,-125xm850,-1366r125,0r0,125r-125,0r0,-125xm1100,-1366r124,0r0,125r-124,0r0,-125xm1349,-1366r124,0r0,125r-124,0r0,-125xm227,-1116r125,0r0,124r-125,0r0,-124xm476,-1116r125,0r0,124r-125,0r0,-124xm726,-1116r124,0r0,124r-124,0r0,-124xm975,-1116r125,0r0,124r-125,0r0,-124xm1224,-1116r125,0r0,124r-125,0r0,-124xm-22,-1116r125,0r0,124r-125,0r0,-124xm103,-867r124,0r0,125r-124,0r0,-125xm352,-867r124,0r0,125r-124,0r0,-125xm601,-867r125,0r0,125r-125,0r0,-125xm850,-867r125,0r0,125r-125,0r0,-125xm1100,-867r124,0r0,125r-124,0r0,-125xm1349,-867r124,0r0,125r-124,0r0,-125xm-22,-618r125,0r0,125r-125,0r0,-125xm476,-618r125,0r0,125r-125,0r0,-125xm726,-618r124,0r0,125r-124,0r0,-125xm975,-618r125,0r0,125r-125,0r0,-125xm1224,-618r125,0r0,125r-125,0r0,-125xm227,-618r125,0r0,125r-125,0r0,-125xm1349,-369r124,0r0,125r-124,0r0,-125xm1100,-369r124,0r0,125r-124,0r0,-125xm850,-369r125,0r0,125r-125,0r0,-125xm601,-369r125,0r0,125r-125,0r0,-125xm352,-369r124,0r0,125r-124,0r0,-125xm103,-369r124,0r0,125r-124,0r0,-125xm-22,-119r125,0r0,124r-125,0r0,-124xm227,-119r125,0r0,124r-125,0r0,-124xm476,-119r125,0r0,124r-125,0r0,-124xm726,-119r124,0r0,124r-124,0r0,-124xm975,-119r125,0r0,124r-125,0r0,-124xm1224,-119r125,0r0,124r-125,0r0,-124xm1349,130r124,0r0,125r-124,0r0,-125xm1100,130r124,0r0,125r-124,0r0,-125xm850,130r125,0r0,125r-125,0r0,-125xm601,130r125,0r0,125r-125,0r0,-125xm352,130r124,0r0,125r-124,0r0,-125xm103,130r124,0r0,125r-124,0r0,-125xm-22,379r125,0r0,125r-125,0r0,-125xm227,379r125,0r0,125r-125,0r0,-125xm476,379r125,0r0,125r-125,0r0,-125xm726,379r124,0r0,125r-124,0r0,-125xm975,379r125,0r0,125r-125,0r0,-125xm1224,379r125,0r0,125r-125,0r0,-125","w":1451},"\u2593":{"d":"1494,-1490r0,374r-124,0r0,124r124,0r0,374r-124,0r0,125r124,0r0,374r-124,0r0,124r124,0r0,374r-124,0r0,125r124,0r0,124r-1495,0r0,-373r125,0r0,-125r-125,0r0,-374r125,0r0,-125r-125,0r0,-373r125,0r0,-125r-125,0r0,-374r125,0r0,-125r-125,0r0,-373r125,0r0,-125r124,0r0,125r125,0r0,-125r124,0r0,125r125,0r0,-125r125,0r0,125r124,0r0,-125r125,0r0,125r125,0r0,-125r124,0r0,125r125,0r0,-125r124,0r0,249r-124,0r0,125r124,0xm124,-1615r0,125r124,0r0,-125r-124,0xm373,-1615r0,125r124,0r0,-125r-124,0xm622,-1615r0,125r125,0r0,-125r-125,0xm871,-1615r0,125r125,0r0,-125r-125,0xm1121,-1615r0,125r124,0r0,-125r-124,0xm1370,-1366r-125,0r0,125r125,0r0,-125xm1121,-1366r-125,0r0,125r125,0r0,-125xm871,-1366r-124,0r0,125r124,0r0,-125xm622,-1366r-125,0r0,125r125,0r0,-125xm373,-1366r-125,0r0,125r125,0r0,-125xm124,-1116r0,124r124,0r0,-124r-124,0xm373,-1116r0,124r124,0r0,-124r-124,0xm622,-1116r0,124r125,0r0,-124r-125,0xm871,-1116r0,124r125,0r0,-124r-125,0xm1121,-1116r0,124r124,0r0,-124r-124,0xm373,-867r-125,0r0,125r125,0r0,-125xm497,-867r0,125r125,0r0,-125r-125,0xm747,-867r0,125r124,0r0,-125r-124,0xm996,-867r0,125r125,0r0,-125r-125,0xm1245,-867r0,125r125,0r0,-125r-125,0xm124,-618r0,125r124,0r0,-125r-124,0xm622,-618r0,125r125,0r0,-125r-125,0xm497,-493r0,-125r-124,0r0,125r124,0xm871,-618r0,125r125,0r0,-125r-125,0xm1121,-618r0,125r124,0r0,-125r-124,0xm1370,-244r0,-125r-125,0r0,125r125,0xm1121,-244r0,-125r-125,0r0,125r125,0xm871,-244r0,-125r-124,0r0,125r124,0xm622,-244r0,-125r-125,0r0,125r125,0xm373,-244r0,-125r-125,0r0,125r125,0xm124,-119r0,124r124,0r0,-124r-124,0xm373,-119r0,124r124,0r0,-124r-124,0xm622,-119r0,124r125,0r0,-124r-125,0xm871,-119r0,124r125,0r0,-124r-125,0xm1121,-119r0,124r124,0r0,-124r-124,0xm1370,255r0,-125r-125,0r0,125r125,0xm1121,255r0,-125r-125,0r0,125r125,0xm871,255r0,-125r-124,0r0,125r124,0xm622,255r0,-125r-125,0r0,125r125,0xm373,255r0,-125r-125,0r0,125r125,0xm124,379r0,125r124,0r0,-125r-124,0xm373,379r0,125r124,0r0,-125r-124,0xm622,379r0,125r125,0r0,-125r-125,0xm871,379r0,125r125,0r0,-125r-125,0xm1121,379r0,125r124,0r0,-125r-124,0","w":1493},"\u25a0":{"d":"0,-944r944,0r0,944r-944,0r0,-944","w":1237},"\u25ac":{"d":"0,-703r2047,0r0,386r-2047,0r0,-386","w":2048},"\u25b2":{"d":"0,0r710,-1419r710,1419r-1420,0","w":2027},"\u25ba":{"d":"0,-1417r1451,724r-1451,724r0,-1448","w":2027},"\u25bc":{"d":"1420,-1388r-710,1419r-710,-1419r1420,0","w":2027},"\u25c4":{"d":"1739,-1417r0,1448r-1451,-724","w":2027},"\u25cb":{"d":"0,-578v6,-253,190,-440,441,-440v250,0,434,188,440,440v6,237,-204,441,-440,441v-238,0,-447,-204,-441,-441xm805,-578v-5,-207,-156,-364,-364,-364v-209,0,-360,156,-365,364v-6,196,169,365,365,365v196,0,370,-169,364,-365","w":1237},"\u25d8":{"d":"0,0r0,-980r980,0r0,980r-980,0xm692,-490v0,-109,-93,-202,-202,-202v-109,0,-202,93,-202,202v0,108,95,202,202,202v109,0,202,-94,202,-202","w":1237},"\u25d9":{"d":"0,0r0,-1155r1155,0r0,1155r-1155,0xm1018,-577v-6,-253,-188,-441,-441,-441v-251,0,-434,188,-440,441v-6,236,204,440,440,440v237,0,447,-204,441,-440xm213,-577v5,-210,156,-365,365,-365v207,0,359,155,364,365v5,196,-168,364,-364,364v-197,0,-370,-168,-365,-364","w":1237},"\u263a":{"d":"408,-518v0,-365,273,-638,638,-638v363,0,638,273,638,638v0,365,-273,637,-638,637v-366,0,-638,-271,-638,-637xm1591,-518v0,-312,-234,-545,-545,-545v-310,0,-545,233,-545,545v0,312,233,544,545,544v312,0,545,-231,545,-544xm720,-650v0,-44,38,-81,81,-81v44,0,81,37,81,81v0,43,-37,81,-81,81v-43,0,-81,-38,-81,-81xm1209,-650v0,-44,37,-81,81,-81v44,0,81,37,81,81v0,43,-37,81,-81,81v-43,0,-81,-38,-81,-81xm1340,-313v-59,111,-143,195,-294,195v-151,0,-235,-85,-294,-195r62,-36v53,96,130,144,232,144v102,0,179,-48,231,-144","w":2091},"\u263b":{"d":"440,-518v0,-365,273,-638,638,-638v363,0,638,273,638,638v0,365,-273,637,-638,637v-366,0,-638,-271,-638,-637xm914,-650v0,-44,-37,-81,-81,-81v-43,0,-81,37,-81,81v0,43,38,81,81,81v44,0,81,-38,81,-81xm1403,-650v0,-44,-37,-81,-81,-81v-44,0,-81,37,-81,81v0,43,38,81,81,81v44,0,81,-38,81,-81xm784,-313v59,111,142,195,294,195v150,0,236,-85,294,-195r-63,-36v-52,96,-129,144,-231,144v-102,0,-179,-48,-232,-144","w":2155},"\u263c":{"d":"536,-1145v118,-80,194,-122,350,-139r0,-337r76,0r0,337v160,13,242,56,349,141r290,-284r52,53r-286,286v86,110,134,205,143,358r336,0r0,69r-335,0v-13,126,-60,242,-143,347r285,291r-57,50r-283,-282v-123,88,-182,120,-351,141r0,337r-76,0r0,-337v-159,-22,-239,-58,-345,-138r-294,278r-51,-51r285,-286v-82,-106,-127,-196,-145,-354r-336,0r0,-69r336,0v15,-160,60,-244,144,-349r-284,-287r48,-57xm1434,-699v0,-293,-220,-512,-513,-512v-292,0,-512,219,-512,512v0,294,218,513,512,513v294,0,513,-219,513,-513","w":1877},"\u2640":{"d":"1291,-983v6,275,-229,517,-495,522r0,402r459,0r0,59r-459,0r0,439r-59,0r0,-439r-460,0r0,-59r460,0r0,-402v-270,-15,-493,-233,-493,-522v0,-301,222,-524,524,-524v300,0,515,223,523,524xm1237,-982v-7,-269,-201,-469,-470,-469v-268,0,-462,201,-469,469v-6,253,217,470,469,470v253,0,477,-217,470,-470","w":1536},"\u2642":{"d":"111,-262v-6,-335,329,-616,692,-496r360,-771r-537,265r-24,-53r614,-303r36,16r163,666r-57,15r-142,-581r-358,768v172,83,300,248,300,474v0,301,-222,524,-524,524v-300,0,-518,-223,-523,-524xm1104,-262v-7,-269,-201,-469,-470,-469v-268,0,-462,201,-469,469v-6,253,217,470,469,470v253,0,477,-217,470,-470","w":1536},"\u2660":{"d":"220,-275v-116,4,-220,-104,-220,-219v0,-49,11,-94,32,-133v30,-55,84,-111,157,-174v152,-130,250,-220,298,-430v53,195,118,259,273,403v91,85,150,149,175,194v25,45,37,90,37,136v0,122,-99,223,-218,223v-104,0,-189,-63,-255,-190v-1,284,114,409,377,428r7,37r-792,0r7,-37v256,-1,391,-157,383,-428v-51,107,-126,185,-261,190","w":1088},"\u2663":{"d":"1288,-557v0,199,-206,352,-402,253v-100,-51,-140,-97,-204,-207v6,210,59,318,185,405v41,27,116,51,223,72r8,34r-848,0r8,-34v217,-45,269,-73,352,-220v45,-80,56,-155,50,-257v-64,135,-166,231,-327,238v-151,6,-278,-127,-278,-280v0,-141,112,-276,242,-275v40,0,94,17,163,51v-43,-76,-64,-95,-67,-182v-5,-151,124,-272,277,-272v150,0,278,121,278,268v0,59,-23,121,-69,186v92,-40,80,-50,162,-53v136,-4,247,129,247,273","w":1344},"\u2665":{"d":"830,-1231v139,-5,260,115,260,250v0,61,-16,123,-44,188v-61,143,-342,465,-401,583v-41,81,-77,157,-98,234v-74,-245,-136,-302,-311,-543v-127,-174,-158,-187,-216,-331v-76,-189,52,-385,238,-380v154,5,246,108,289,251v38,-143,131,-246,283,-252","w":1216},"\u2666":{"d":"458,24v-109,-186,-267,-395,-458,-628v117,-135,355,-438,457,-627v101,177,336,487,461,627v-96,101,-375,468,-460,628","w":1045},"\u266a":{"d":"37,-186v0,-144,122,-248,275,-248v52,0,110,15,174,46r0,-975v216,0,306,0,404,91v82,76,105,231,97,400r-99,0v17,-200,-115,-268,-303,-263r0,835v-1,162,-36,239,-142,296v-52,27,-109,41,-170,41v-140,0,-236,-88,-236,-223","w":1024},"\u266b":{"d":"85,-94v0,-144,122,-248,275,-248v52,0,110,15,174,46r0,-975r796,-248r0,1108v-1,165,-33,232,-138,291v-50,28,-108,41,-171,41v-139,0,-239,-90,-239,-224v0,-139,126,-250,276,-245v81,3,92,13,170,43r0,-724r-595,185r0,836v10,230,-109,327,-312,336v-139,6,-236,-88,-236,-222","w":1536},"\u0132":{"d":"160,0r0,-1466r159,0r0,1466r-159,0xm513,-416r143,-24v4,112,23,188,52,230v48,69,158,82,228,30v77,-57,79,-131,79,-276r0,-1010r159,0r0,999v0,180,-29,307,-88,381v-59,74,-143,111,-250,111v-245,0,-321,-180,-323,-441","w":1307},"\u0133":{"d":"108,-1259r0,-207r147,0r0,207r-147,0xm108,0r0,-1062r147,0r0,1062r-147,0xm479,-1257r0,-209r147,0r0,209r-147,0xm292,412r28,-153v61,21,110,23,138,-23v15,-24,21,-85,21,-182r0,-1116r147,0r0,1120v0,145,-21,242,-56,295v-54,81,-172,95,-278,59","w":746},"\u0149":{"d":"92,-1260r0,-205r168,0v-2,136,12,306,-35,391v-25,44,-57,80,-102,104r-41,-77v68,-39,91,-99,93,-213r-83,0xm735,-930v-175,0,-232,135,-232,350r0,580r-147,0r0,-1062r133,0r0,151v56,-103,136,-175,277,-175v234,0,298,159,298,433r0,653r-148,0r0,-646v-1,-137,-13,-202,-82,-254v-28,-21,-62,-30,-99,-30","w":1173},"\u2032":{"d":"109,-947r-38,-274r0,-245r168,0r0,245r-39,274r-91,0","w":322},"\u2033":{"d":"117,-947r-41,-279r0,-240r168,0r0,240r-37,279r-90,0xm388,-947r-39,-279r0,-240r168,0r0,240r-40,279r-89,0","w":596},"\u2105":{"d":"365,-1376v-110,0,-147,129,-147,270v0,90,13,158,38,206v25,48,60,72,105,72v75,0,118,-61,130,-184r116,19v-13,155,-97,281,-248,281v-186,0,-262,-177,-262,-399v0,-212,85,-380,266,-380v131,0,209,81,235,242r-115,24v-16,-101,-55,-151,-118,-151xm232,57r903,-1548r128,0r-902,1548r-129,0xm1182,17v-183,0,-273,-166,-273,-390v0,-221,87,-389,273,-389v183,0,273,166,273,389v0,224,-88,390,-273,390xm1182,-647v-174,2,-184,349,-109,477v28,48,65,71,109,71v174,-2,184,-348,109,-477v-28,-48,-65,-71,-109,-71","w":1553},"\u2113":{"d":"404,24v-140,0,-199,-89,-199,-241r0,-225r-79,98r-98,-78r177,-235r0,-455v0,-148,20,-248,60,-300v40,-52,97,-79,171,-79v137,0,223,107,223,235v0,64,-20,141,-61,230v-41,89,-115,210,-224,361r0,415v3,85,-4,132,56,132v35,0,101,-36,199,-107r0,162v-69,58,