/*!
 * The following copyright notice may not be removed under any circumstances.
 * 
 * Copyright:
 * © 2006 Microsoft Corporation. All Rights Reserved.
 * 
 * Description:
 * Trebuchet, designed by Vincent Connare in 1996, is a humanist sans serif
 * designed for easy screen readability. Trebuchet takes its inspiration from the
 * sans serifs of the 1930s which had large x heights and round features intended
 * to promote readability on signs. The typeface name is credited to a puzzle heard
 * at Microsoft, where the question was asked, "could you build a Trebuchet (a form
 * of medieval catapult) to launch a person from the main campus to the consumer
 * campus, and how?" The Trebuchet fonts are intended to be the vehicle that fires
 * your messages across the Internet. "Launch your message with a Trebuchet page".
 * 
 * Manufacturer:
 * Microsoft Corporation
 * 
 * Designer:
 * Vincent Connare
 * 
 * Vendor URL:
 * http://www.microsoft.com
 * 
 * License information:
 * http://www.microsoft.com/typography/fonts/
 */
Cufon.registerFont({"w":1074,"face":{"font-family":"Trebuchet MS","font-weight":400,"font-stretch":"normal","units-per-em":"2048","panose-1":"2 11 6 3 2 2 2 2 2 4","ascent":"1638","descent":"-410","x-height":"20","bbox":"-176 -1931 2216.01 537","underline-thickness":"127","underline-position":"-198","unicode-range":"U+0020-U+FB02"},"glyphs":{" ":{"w":617,"k":{"Y":37,"T":37,"A":113}},"!":{"d":"413,-382r-71,0v-84,-543,-80,-645,-77,-1109r226,0v2,463,8,561,-78,1109xm234,-131v0,-80,70,-150,150,-150v80,0,150,70,150,150v0,80,-70,151,-150,151v-80,0,-150,-71,-150,-151","w":752},"\"":{"d":"229,-1086r-133,0r-24,-381r184,0xm559,-1086r-133,0r-24,-381r184,0","w":665},"#":{"d":"879,-947r-99,393r161,0r0,128r-194,0r-124,446r-127,0r124,-446r-297,0r-124,446r-130,0r123,-446r-155,0r0,-128r188,0r99,-393r-172,0r0,-128r205,0r102,-412r131,0r-103,412r297,0r103,-412r127,0r-103,412r175,0r0,128r-207,0xm455,-947r-99,393r297,0r99,-393r-297,0"},"$":{"d":"961,-355v0,205,-165,342,-364,370r0,231r-139,0r0,-221v-79,-2,-272,-59,-318,-92r72,-184v58,44,194,96,290,96v187,0,316,-161,238,-337v-45,-102,-83,-101,-217,-166v-119,-57,-275,-128,-327,-221v-37,-66,-60,-141,-60,-231v0,-197,143,-344,322,-372r0,-160r139,0r0,153v143,6,240,32,291,78r-59,174v-49,-37,-186,-83,-274,-83v-168,0,-265,154,-198,309v46,109,180,145,304,207v186,93,300,198,300,449"},"%":{"d":"218,20r-127,0r883,-1511r126,0xm618,-1143v0,191,-104,339,-279,339v-185,0,-278,-119,-278,-358v0,-183,114,-331,287,-329v181,2,270,147,270,348xm345,-1389v-110,0,-158,111,-158,237v0,129,39,246,143,246v108,0,162,-82,162,-245v0,-159,-49,-238,-147,-238xm1158,-319v0,191,-104,339,-279,339v-185,0,-278,-119,-278,-358v0,-183,114,-331,287,-329v181,2,270,147,270,348xm885,-565v-110,0,-158,111,-158,237v0,129,39,246,143,246v108,0,162,-82,162,-245v0,-159,-49,-238,-147,-238","w":1229},"&":{"d":"1030,-388v3,163,22,238,165,238v36,0,78,-12,127,-37r27,177v-70,20,-150,30,-240,30v-62,0,-122,-24,-180,-71v-97,47,-213,71,-350,71v-284,1,-441,-182,-437,-473v2,-188,54,-268,161,-377v-94,-93,-141,-190,-141,-291v1,-216,188,-370,425,-370v137,0,243,30,318,91r-83,154v-76,-63,-144,-95,-204,-95v-177,0,-266,80,-266,240v0,87,39,160,116,220r372,0r0,-183r190,-73r0,259r249,0r0,160r-249,0r0,330xm851,-199v-24,-148,-5,-351,-11,-519r-403,0v-63,81,-95,167,-95,256v0,208,102,312,305,312v91,0,159,-16,204,-49","w":1446},"'":{"d":"229,-1086r-133,0r-24,-381r184,0","w":327},"(":{"d":"618,428v-261,-176,-425,-556,-425,-987v0,-340,201,-811,425,-916r0,83v-132,191,-198,469,-198,835v0,435,66,728,198,880r0,105","w":752},")":{"d":"193,-1475v224,105,425,576,425,916v0,431,-164,811,-425,987r0,-105v132,-152,198,-445,198,-880v0,-366,-66,-644,-198,-835r0,-83","w":752},"*":{"d":"597,-1127r-173,3r158,105r47,62r-122,104r-54,-70r-82,-159r-91,162r-43,64r-131,-101r50,-69r158,-83r-176,-27r-90,-32r72,-150r96,37r125,95r-63,-205r0,-79r176,0r0,76r-60,211r158,-107r74,-27r57,161","w":752},"+":{"d":"611,-706r349,0r0,141r-349,0r0,345r-141,0r0,-345r-348,0r0,-141r348,0r0,-343r141,0r0,343"},",":{"d":"373,-277v74,0,146,82,142,160v-14,257,-101,330,-291,480r-51,-72v115,-94,172,-174,172,-240v0,-29,-10,-59,-30,-88v-57,-27,-86,-67,-86,-118v-1,-73,67,-122,144,-122","w":752},"-":{"d":"159,-506r0,-175r428,0r0,175r-428,0","w":752},"\u2010":{"d":"159,-506r0,-175r428,0r0,175r-428,0","w":752},".":{"d":"204,-131v0,-80,70,-150,150,-150v80,0,150,70,150,150v0,80,-70,151,-150,151v-80,0,-150,-71,-150,-151","w":752},"\/":{"d":"350,0r-161,0r531,-1471r159,0"},"0":{"d":"64,-777v0,-211,43,-382,128,-515v85,-133,205,-199,360,-199v153,0,269,55,346,166v77,111,115,304,115,580v0,237,-40,425,-121,561v-81,136,-199,204,-354,204v-155,0,-274,-55,-354,-165v-80,-110,-120,-321,-120,-632xm264,-759v0,406,87,609,260,609v99,0,172,-45,219,-135v47,-90,70,-248,70,-473v0,-155,-9,-269,-27,-342v-32,-128,-97,-221,-239,-221v-189,0,-283,187,-283,562"},"1":{"d":"200,-1124v141,-69,348,-229,438,-347r60,0r0,1471r-200,0r0,-1123r-298,186r0,-187"},"2":{"d":"433,-1491v263,0,449,123,449,373v0,110,-53,249,-158,416r-329,522r574,0r0,180r-900,0r0,-40r459,-703v96,-147,144,-272,144,-375v0,-135,-76,-203,-229,-203v-113,-1,-218,70,-255,150r-129,-106v45,-132,192,-214,374,-214"},"3":{"d":"941,-406v0,283,-197,426,-491,426v-131,0,-273,-60,-341,-124r96,-154v65,72,148,108,248,108v185,0,278,-91,278,-272v0,-172,-128,-288,-312,-279r0,-162v174,3,264,-72,263,-224v0,-156,-80,-234,-239,-234v-87,0,-156,29,-207,87r-89,-136v62,-81,166,-121,311,-121v237,0,434,142,434,365v0,160,-109,303,-226,342v156,49,275,181,275,378"},"4":{"d":"882,-399r0,399r-190,0r0,-399r-667,0r0,-114r787,-958r70,0r0,918r148,0r0,154r-148,0xm692,-1072r-430,519r430,0r0,-519"},"5":{"d":"542,-1000v280,0,419,181,419,469v0,367,-164,551,-491,551v-137,0,-250,-38,-340,-114r77,-167v91,74,178,111,262,111v188,0,282,-117,282,-352v0,-219,-93,-328,-278,-328v-89,0,-170,38,-241,115r-68,-47r0,-709r729,0r0,170r-539,0r0,356v49,-37,112,-55,188,-55"},"6":{"d":"989,-452v0,268,-171,477,-423,477v-321,0,-482,-213,-482,-639v0,-334,321,-826,588,-877r97,107v-99,25,-436,426,-439,547v55,-53,132,-80,231,-80v265,-1,428,189,428,465xm784,-442v0,-167,-85,-305,-236,-305v-169,0,-254,96,-254,289v0,209,86,313,257,313v153,0,233,-134,233,-297"},"7":{"d":"428,0r-222,0v104,-333,408,-980,569,-1281r-691,0r0,-190r950,0r0,78r-129,254r-136,283r-139,314v-45,107,-85,206,-119,297v-34,91,-62,173,-83,245"},"8":{"d":"89,-406v0,-175,131,-358,264,-409v-107,-55,-208,-178,-211,-323v-3,-220,172,-353,396,-353v239,0,397,127,397,354v0,138,-113,292,-209,342v176,99,264,228,264,389v0,273,-180,426,-457,426v-296,0,-444,-142,-444,-426xm734,-1142v0,-110,-84,-179,-196,-179v-131,0,-196,60,-196,181v0,89,85,177,256,263v91,-85,136,-174,136,-265xm533,-150v146,0,257,-110,257,-256v0,-54,-17,-104,-50,-152v-33,-48,-110,-105,-231,-170v-147,79,-220,187,-220,322v0,142,102,256,244,256"},"9":{"d":"74,-1014v0,-268,171,-477,423,-477v321,0,482,213,482,639v0,334,-321,826,-588,877r-97,-107v97,-25,438,-425,439,-546v-55,53,-132,79,-231,79v-265,1,-428,-189,-428,-465xm279,-1024v0,167,85,305,236,305v169,0,254,-96,254,-289v0,-209,-86,-313,-257,-313v-153,0,-233,134,-233,297"},":":{"d":"204,-941v0,-80,70,-150,150,-150v80,0,150,70,150,150v0,80,-70,151,-150,151v-80,0,-150,-71,-150,-151xm204,-131v0,-80,70,-150,150,-150v80,0,150,70,150,150v0,80,-70,151,-150,151v-80,0,-150,-71,-150,-151","w":752},";":{"d":"204,-941v0,-80,70,-150,150,-150v80,0,150,70,150,150v0,80,-70,151,-150,151v-80,0,-150,-71,-150,-151xm373,-277v74,0,146,82,142,160v-14,257,-101,330,-291,480r-51,-72v115,-94,172,-174,172,-240v0,-29,-10,-59,-30,-88v-57,-27,-86,-67,-86,-118v-1,-73,67,-122,144,-122","w":752},"<":{"d":"889,-218r-739,-358r0,-123r739,-354r0,161r-571,255r571,258r0,161"},"=":{"d":"960,-876r0,141r-838,0r0,-141r838,0xm960,-536r0,141r-838,0r0,-141r838,0"},">":{"d":"889,-576r-739,358r0,-161r571,-258r-571,-255r0,-161r739,354r0,123"},"?":{"d":"341,-1491v192,0,353,122,349,312v-2,112,-43,196,-104,261r-146,156v-75,104,-109,188,-74,333r-132,0v-46,-123,-39,-168,-8,-284v24,-88,209,-269,246,-340v20,-38,32,-74,32,-109v0,-117,-71,-176,-213,-176v-68,0,-127,24,-178,73r-73,-143v67,-55,168,-83,301,-83xm174,-131v0,-80,70,-150,150,-150v80,0,150,70,150,150v0,80,-70,151,-150,151v-80,0,-150,-71,-150,-151","w":752},"@":{"d":"242,-581v0,346,221,593,563,593v154,0,278,-43,371,-128v31,11,76,31,135,58v-128,128,-297,192,-506,192v-421,0,-705,-294,-705,-715v0,-422,287,-744,705,-744v398,0,673,266,673,664v0,210,-123,407,-326,407v-106,0,-183,-23,-230,-70v-57,52,-124,78,-201,78v-137,0,-241,-82,-239,-216v3,-190,187,-259,400,-258v-10,-98,-49,-147,-118,-147v-70,0,-125,19,-166,56r-48,-99v55,-41,121,-61,200,-61v185,0,278,106,278,319r0,239v170,128,308,18,308,-251v0,-301,-229,-539,-531,-539v-340,0,-563,275,-563,622xm636,-467v0,72,60,126,133,124v42,0,80,-17,113,-50r0,-234v-148,-9,-246,35,-246,160","w":1578},"A":{"d":"982,0r-101,-309r-545,0r-108,309r-224,0r595,-1485r53,0r552,1485r-222,0xm616,-1101r-227,645r435,0","w":1208,"k":{"\u2019":228,"y":84,"w":94,"v":113,"Y":218,"W":180,"V":180,"T":199," ":113}},"B":{"d":"1079,-423v3,269,-229,423,-511,423r-418,0r0,-1465v178,-9,306,-13,385,-13v267,-2,451,112,455,361v2,137,-131,269,-244,291v214,53,330,157,333,403xm350,-1305r0,421v42,4,94,6,156,6v189,0,284,-77,284,-231v0,-135,-87,-203,-261,-203v-67,0,-126,2,-179,7xm869,-455v-5,-213,-123,-278,-358,-279r-161,5r0,559v289,34,525,-6,519,-285","w":1159},"C":{"d":"80,-728v0,-405,245,-762,631,-762v159,0,284,26,374,79r-67,171v-64,-47,-165,-70,-302,-70v-281,0,-426,285,-426,594v0,300,155,561,428,561v137,0,243,-49,317,-146r110,153v-116,115,-265,173,-448,173v-401,2,-617,-333,-617,-753","w":1225},"D":{"d":"511,-1475v406,-5,665,277,665,683v0,528,-244,792,-731,792r-295,0r0,-1465v188,-7,308,-10,361,-10xm516,-180v306,-4,450,-259,450,-595v0,-347,-156,-520,-467,-520v-19,0,-68,3,-149,10r0,1095v45,7,100,10,166,10","w":1256},"E":{"d":"350,-1285r0,407r484,0r0,170r-484,0r0,528r664,0r0,180r-864,0r0,-1465r875,0r0,180r-675,0","w":1097},"F":{"d":"350,-1285r0,407r515,0r0,170r-515,0r0,708r-200,0r0,-1465r905,0r0,180r-705,0","w":1075,"k":{"A":217,".":369,",":369}},"G":{"d":"80,-727v0,-440,275,-763,712,-763v153,0,277,42,373,127r-83,165v-101,-75,-199,-112,-296,-112v-319,-2,-496,258,-496,591v0,320,177,566,486,564v107,0,193,-32,259,-96r0,-343r-203,0r0,-170r403,0r0,638v-96,87,-321,151,-501,151v-416,0,-654,-322,-654,-752","w":1385},"H":{"d":"990,0r0,-708r-640,0r0,708r-200,0r0,-1465r200,0r0,587r640,0r0,-587r200,0r0,1465r-200,0","w":1340},"I":{"d":"185,0r0,-1465r200,0r0,1465r-200,0","w":570},"J":{"d":"826,-547v-6,377,-84,562,-442,567v-192,3,-327,-129,-335,-313r175,0v16,89,69,133,159,133v89,0,153,-20,189,-58v36,-38,54,-145,54,-321r0,-926r200,0r0,918","w":976},"K":{"d":"958,0r-413,-674r-195,277r0,397r-200,0r0,-1465r200,0r0,797r544,-797r223,0r-438,635r500,830r-221,0","w":1179,"k":{"w":64,"u":64,"o":64,"n":64,"i":64,"e":64}},"L":{"d":"150,0r0,-1465r200,0r0,1285r662,0r0,180r-862,0","w":1037,"k":{"\u2019":207,"y":170,"Y":265,"W":256,"V":284,"T":209," ":76}},"M":{"d":"1253,0r-174,-941r-320,961r-50,0r-329,-961r-170,941r-190,0r274,-1465r91,0r349,1069r322,-1069r90,0r297,1465r-190,0","w":1453},"N":{"d":"1097,20r-757,-1071r0,1051r-190,0r0,-1465r80,0r737,1013r0,-1013r190,0r0,1485r-60,0","w":1307},"O":{"d":"670,25v-391,1,-590,-358,-590,-770v0,-392,213,-746,590,-746v425,0,630,303,630,746v0,450,-202,768,-630,770xm670,-155v303,0,420,-257,420,-590v0,-377,-140,-566,-420,-566v-124,0,-217,52,-283,152v-129,194,-125,633,3,835v70,110,159,169,280,169","w":1380},"P":{"d":"350,-564r0,564r-200,0r0,-1465v151,-7,243,-10,274,-10v425,0,638,142,638,427v0,329,-188,494,-564,494v-23,0,-72,-3,-148,-10xm350,-1285r0,541v85,7,129,10,134,10v248,0,372,-98,372,-293v0,-179,-132,-268,-397,-268v-27,0,-63,3,-109,10","w":1142,"k":{"r":96,"o":96,"i":96,"h":96,"e":96,"a":96,"A":228,".":400,",":400," ":37}},"Q":{"d":"670,-1491v425,0,630,303,630,746v0,337,-101,568,-302,693v73,107,195,160,366,160r156,0r-30,195v-349,0,-578,-97,-687,-291v-469,91,-723,-301,-723,-757v0,-392,213,-746,590,-746xm670,-155v303,0,420,-259,420,-590v0,-377,-140,-566,-420,-566v-124,0,-217,52,-283,152v-129,194,-125,633,3,835v70,110,159,169,280,169","w":1384},"R":{"d":"1054,-1060v0,182,-138,356,-287,386r425,674r-229,0r-391,-629v-45,0,-115,-3,-212,-10r0,639r-200,0r0,-1465r366,-15v352,0,528,140,528,420xm844,-1064v0,-229,-238,-247,-484,-221r0,476v48,7,95,10,140,10v226,-3,344,-50,344,-265","w":1192,"k":{"u":59,"o":83,"e":83,"Y":131,"W":131,"V":94,"T":84}},"S":{"d":"904,-370v-2,238,-222,395,-487,395v-130,0,-241,-31,-333,-92r73,-184v61,47,190,94,289,96v146,3,266,-90,259,-227v-8,-164,-76,-198,-238,-276v-119,-57,-275,-128,-327,-221v-37,-66,-60,-141,-60,-231v0,-222,184,-380,414,-380v162,0,275,26,338,79r-59,174v-49,-37,-186,-83,-274,-83v-168,0,-270,157,-198,309v45,96,87,103,212,164v120,59,277,131,331,227v38,67,60,149,60,250","w":985},"T":{"d":"684,-1285r0,1285r-200,0r0,-1285r-466,0r0,-180r1153,0r0,180r-487,0","w":1189,"k":{"y":236,"w":283,"u":265,"s":246,"r":225,"o":255,"i":85,"e":255,"c":255,"a":255,"O":113,"A":199,";":227,":":227,".":340,"-":198,",":340," ":37}},"U":{"d":"662,25v-318,0,-513,-161,-512,-472r0,-1018r200,0r0,1003v-2,178,129,307,310,307v194,0,318,-120,318,-312r0,-998r200,0r0,1019v2,301,-209,471,-516,471","w":1328},"V":{"d":"660,20r-101,0r-546,-1485r222,0r377,1079r363,-1079r215,0","w":1203,"k":{"y":76,"u":133,"r":123,"o":132,"i":37,"e":132,"a":161,"A":209,";":123,":":123,".":300,"-":151,",":300}},"W":{"d":"1276,20r-63,0r-349,-1010r-326,1010r-63,0r-462,-1485r208,0r294,1023r322,-1023r70,0r318,1021r299,-1021r208,0","w":1745,"k":{"y":37,"u":84,"r":103,"o":94,"i":28,"e":94,"a":114,"A":180,";":37,":":37,".":189,"-":141,",":189}},"X":{"d":"915,0r-364,-588r-336,588r-202,0r432,-760r-397,-706r197,1r313,554r345,-554r201,0r-455,709r478,756r-212,0","w":1140},"Y":{"d":"685,-656r0,656r-200,0r0,-656r-472,-809r206,0r365,640r365,-640r206,0","w":1168,"k":{"v":122,"u":151,"q":245,"p":190,"o":235,"i":114,"e":215,"a":190,"A":218,";":179,":":179,".":330,"-":250,",":330," ":37}},"Z":{"d":"100,0r0,-50r630,-1235r-620,0r0,-180r895,0r0,50r-632,1235r654,0r0,180r-927,0","w":1127},"[":{"d":"202,420r0,-1930r463,0r0,170r-263,0r0,1590r263,0r0,170r-463,0","w":752},"\\":{"d":"512,0r-515,-1471r142,0r516,1471r-143,0","w":728},"]":{"d":"550,420r-463,0r0,-170r263,0r0,-1590r-263,0r0,-170r463,0r0,1930","w":752},"^":{"d":"763,-907r-244,-448r-248,452r-122,0r318,-568r107,0r316,564r-127,0"},"_":{"d":"-8,254r0,-129r1085,0r0,129r-1085,0"},"`":{"d":"559,-1285r-226,-333r197,0r169,333r-140,0"},"a":{"d":"996,19v-150,-1,-218,-35,-256,-142v-76,95,-192,143,-349,143v-167,0,-314,-146,-311,-319v4,-275,344,-458,642,-362v0,-173,-77,-260,-232,-260v-119,0,-210,32,-274,96r-80,-159v64,-55,215,-108,332,-107v312,2,444,132,444,443r0,384v0,94,28,157,84,188r0,95xm596,-546v-169,-6,-326,100,-326,249v0,111,66,167,197,167v96,0,181,-46,255,-137r0,-259v-60,-13,-102,-20,-126,-20","w":1076},"b":{"d":"558,20v-99,0,-214,-46,-261,-97r-67,97r-95,0r0,-1530r190,0r0,518v34,-49,160,-99,248,-99v294,0,493,239,493,536v0,338,-185,575,-508,575xm504,-931v-44,0,-163,57,-179,84r0,618v-2,22,149,97,179,89v272,-4,359,-122,362,-405v2,-233,-136,-386,-362,-386","w":1141},"c":{"d":"65,-525v0,-338,215,-566,555,-566v105,0,267,61,323,107r-94,134v-39,-39,-163,-82,-247,-81v-219,2,-337,173,-337,406v0,239,122,384,351,385v85,0,171,-33,258,-99r75,160v-102,66,-228,99,-379,99v-300,1,-505,-229,-505,-545","w":1014},"d":{"d":"75,-509v0,-294,212,-582,487,-582v111,0,195,26,252,78r0,-497r190,0r0,1509r-190,0r0,-79v-66,66,-162,99,-288,99v-280,1,-451,-231,-451,-528xm627,-140v56,0,172,-49,187,-89r0,-594v-48,-72,-114,-108,-197,-108v-210,-2,-342,185,-342,404v0,258,117,387,352,387","w":1141},"e":{"d":"567,-1091v328,-5,542,237,470,574r-772,0v-4,223,123,376,337,377v109,0,199,-32,272,-95r80,137v-75,71,-237,118,-389,118v-292,0,-500,-239,-500,-543v0,-310,210,-564,502,-568xm863,-655v1,-163,-120,-276,-287,-276v-165,0,-295,123,-306,276r593,0","w":1117},"f":{"d":"221,-1071v-5,-253,133,-438,368,-439v55,0,115,10,178,30r-53,140v-39,-13,-75,-20,-108,-20v-137,0,-224,137,-195,289r218,0r0,160r-218,0r0,911r-190,0r0,-911r-156,0r0,-160r156,0","w":757,"k":{"\u2019":48}},"g":{"d":"968,90v0,287,-396,394,-687,293v-76,-26,-138,-55,-185,-90r103,-152v111,74,213,111,306,111v139,0,278,-45,278,-155v0,-87,-63,-130,-188,-130v-42,0,-200,32,-247,32v-152,0,-228,-57,-228,-172v0,-86,102,-139,186,-158v-151,-71,-226,-193,-226,-368v0,-221,184,-392,406,-392v105,0,188,22,247,65r95,-114r124,117r-114,86v105,136,95,397,-28,520v-70,70,-156,113,-265,126v-86,10,-158,6,-232,37v-31,13,-47,29,-47,49v0,27,33,41,98,41v50,0,219,-31,269,-31v198,0,335,97,335,285xm714,-698v0,-126,-92,-240,-215,-240v-130,0,-224,111,-224,240v0,142,84,259,224,259v140,0,215,-114,215,-259","w":1028},"h":{"d":"622,-1091v235,0,363,174,363,418r0,673r-190,0r0,-673v1,-152,-78,-259,-225,-258v-99,0,-204,72,-245,135r0,796r-190,0r0,-1510r190,0r0,557v45,-75,177,-138,297,-138","w":1119},"i":{"d":"214,-1359v0,-64,53,-117,117,-117v63,0,118,54,118,117v0,64,-54,118,-118,118v-63,0,-117,-55,-117,-118xm227,0r0,-911r-147,0r0,-160r337,0r0,1071r-190,0","w":584},"j":{"d":"311,-1359v0,-64,53,-117,117,-117v63,0,118,54,118,117v0,64,-54,118,-118,118v-64,0,-117,-54,-117,-118xm18,250v236,-3,341,-45,341,-255r0,-906r-213,0r0,-160r403,0r0,1062v-4,318,-193,428,-531,429r0,-170","w":751},"k":{"d":"827,0r-336,-536r-166,171r0,365r-190,0r0,-1510r190,0r0,937r410,-498r222,0r-343,407r419,664r-206,0","w":1033},"l":{"d":"340,-335v-2,111,71,186,179,185r0,170v-246,0,-369,-108,-369,-323r0,-1207r190,0r0,1175","w":604},"m":{"d":"1217,-1091v225,0,348,145,348,375r0,716r-190,0r0,-678v0,-169,-73,-253,-219,-253v-92,0,-186,72,-211,139r0,792r-190,0r0,-761v0,-112,-98,-170,-217,-170v-82,0,-186,81,-213,141r0,790r-190,0r0,-1071r124,0r63,124v73,-96,165,-144,275,-144v153,0,261,48,322,143v38,-79,179,-143,298,-143","w":1700},"n":{"d":"570,-931v-97,0,-205,70,-245,135r0,796r-190,0r0,-1071r130,0r60,138v63,-105,165,-158,307,-158v235,0,352,143,352,428r0,663r-190,0r0,-623v-3,-206,-39,-308,-224,-308","w":1119},"o":{"d":"550,20v-315,0,-485,-234,-485,-558v0,-312,186,-553,485,-553v317,0,484,224,484,553v0,326,-173,558,-484,558xm550,-936v-194,0,-285,180,-285,398v0,269,95,403,285,403v197,0,284,-183,284,-403v0,-265,-95,-398,-284,-398","w":1099},"p":{"d":"570,20v-78,0,-216,-36,-245,-79r0,479r-190,0r0,-1491r190,0r0,88v72,-72,159,-108,261,-108v322,2,482,216,482,558v0,319,-176,553,-498,553xm515,-931v-62,0,-157,54,-190,91r0,624v23,37,124,76,189,76v236,0,354,-133,354,-400v0,-263,-97,-391,-353,-391","w":1141},"q":{"d":"75,-533v0,-324,201,-559,509,-558v93,0,180,34,261,101r51,-81r115,0r0,1491r-190,0r0,-483v-55,55,-148,83,-278,83v-307,0,-468,-229,-468,-553xm275,-533v0,231,117,392,333,393v91,0,162,-23,213,-70r0,-639v-55,-55,-123,-82,-205,-82v-221,-2,-341,171,-341,398","w":1141},"r":{"d":"717,-888v-185,-134,-377,70,-377,274r0,614r-190,0r0,-1071r190,0r0,171v99,-171,233,-223,456,-173","w":796,"k":{"\u2019":28,".":273,",":292}},"s":{"d":"764,-287v-1,205,-161,307,-381,307v-113,0,-219,-28,-318,-84r67,-180v106,69,191,104,256,104v117,0,176,-49,176,-148v0,-71,-57,-130,-170,-182v-141,-66,-181,-78,-256,-162v-41,-46,-65,-101,-66,-179v-1,-184,155,-282,347,-280v78,0,176,25,295,74r-54,176v-75,-60,-151,-90,-227,-90v-80,0,-160,41,-161,113v0,69,40,119,117,156v172,81,377,137,375,375","w":829},"t":{"d":"505,20v-172,0,-302,-153,-302,-333r0,-608r-124,0r0,-150r124,0r0,-224r190,-73r0,297r294,0r0,150r-294,0r0,532v1,165,41,249,192,249v49,0,99,-12,151,-37r28,167v-79,20,-165,30,-259,30","w":812},"u":{"d":"488,20v-238,0,-363,-146,-363,-388r0,-703r190,0r0,683v0,165,72,248,215,248v123,0,245,-88,275,-179r0,-752r190,0r0,1071r-190,0r0,-148v-36,79,-199,168,-317,168","w":1119},"v":{"d":"521,20r-50,0r-459,-1094r208,0r283,750r289,-750r199,0","w":1003,"k":{".":275,",":275}},"w":{"d":"1125,20r-50,0r-314,-729r-313,729r-50,0r-383,-1094r203,0r229,703r285,-703r50,0r294,703r246,-703r187,0","w":1524,"k":{".":217,",":217}},"x":{"d":"787,0r-292,-390r-261,390r-222,0r389,-548r-357,-523r214,0r240,368r269,-368r210,0r-389,523r426,548r-227,0","w":1026},"y":{"d":"124,250v136,4,289,-72,289,-191v0,-149,-66,-269,-111,-385r-290,-745r194,0r315,828r283,-828r194,0r-454,1253v-46,135,-234,241,-420,238r0,-170","w":1010,"k":{".":250,",":250}},"z":{"d":"338,-170r594,0r0,170r-892,0r0,-50r609,-851r-599,0r0,-170r876,0r0,54","w":972},"{":{"d":"431,-317v6,83,-63,283,-63,369v0,152,88,228,263,228r76,0r0,140r-139,0v-206,4,-391,-107,-395,-298v-2,-83,74,-348,74,-433v0,-132,-70,-203,-209,-212r0,-84v127,-8,209,-96,209,-229v0,-77,-74,-306,-74,-380v0,-182,191,-290,386,-286r148,0r0,133r-175,0v-109,0,-164,61,-164,184v0,78,63,254,63,330v0,105,-75,201,-225,288v111,44,216,128,225,250","w":752},"|":{"d":"462,276r0,-1681r146,0r0,1681r-146,0"},"}":{"d":"572,122v0,191,-190,302,-395,298r-139,0r0,-140r76,0v175,0,263,-76,263,-228v0,-87,-68,-286,-63,-369v8,-121,115,-207,225,-250v-150,-87,-225,-183,-225,-288v0,-76,63,-252,63,-330v0,-123,-55,-184,-164,-184r-175,0r0,-133r148,0v196,-4,386,104,386,286v0,74,-74,303,-74,380v0,133,82,221,209,229r0,84v-139,9,-209,80,-209,212v0,87,74,346,74,433","w":752},"~":{"d":"342,-716v91,-5,292,78,366,77v54,0,90,-26,108,-77r88,0v-35,138,-99,207,-192,207v-71,0,-305,-76,-355,-77v-47,0,-83,26,-108,77r-91,0v15,-97,82,-201,184,-207"},"\u00c4":{"d":"982,0r-101,-309r-545,0r-108,309r-224,0r595,-1485r53,0r552,1485r-222,0xm616,-1101r-227,645r435,0xm273,-1701v0,-61,52,-112,113,-112v61,0,112,51,112,112v0,61,-51,113,-112,113v-61,0,-113,-52,-113,-113xm746,-1701v0,-61,51,-112,112,-112v61,0,113,51,113,112v0,61,-52,113,-113,113v-61,0,-112,-52,-112,-113","w":1208},"\u00c5":{"d":"838,-1605v0,100,-71,183,-155,203r521,1402r-222,0r-101,-309r-549,0r-104,309r-224,0r562,-1404v-81,-22,-151,-102,-151,-201v0,-113,98,-209,212,-209v114,0,211,96,211,209xm525,-1605v0,54,48,100,102,100v54,0,101,-46,101,-100v0,-54,-47,-99,-101,-99v-54,0,-102,45,-102,99xm616,-1101r-227,645r435,0","w":1208},"\u00c7":{"d":"80,-728v0,-405,245,-762,631,-762v159,0,284,26,374,79r-67,171v-64,-47,-165,-70,-302,-70v-281,0,-426,285,-426,594v0,300,155,561,428,561v137,0,243,-49,317,-146r110,153v-116,115,-265,173,-448,173v-401,2,-617,-333,-617,-753xm535,61v123,-4,209,80,209,193v0,139,-122,203,-277,201r-24,-99v87,1,182,-28,182,-102v0,-49,-30,-74,-90,-74r0,-119","w":1225},"\u00c9":{"d":"350,-1285r0,407r484,0r0,170r-484,0r0,528r664,0r0,180r-864,0r0,-1465r875,0r0,180r-675,0xm802,-1918r-226,333r-140,0r169,-333r197,0","w":1097},"\u00d1":{"d":"1097,20r-757,-1071r0,1051r-190,0r0,-1465r80,0r737,1013r0,-1013r190,0r0,1485r-60,0xm294,-1585v15,-97,82,-206,184,-207v55,0,106,12,152,38v46,26,81,39,104,39v54,0,90,-26,108,-77r88,0v-35,138,-99,207,-192,207v-67,0,-195,-77,-245,-77v-47,0,-83,26,-108,77r-91,0","w":1307},"\u00d6":{"d":"670,25v-391,1,-590,-358,-590,-770v0,-392,213,-746,590,-746v425,0,630,303,630,746v0,450,-202,768,-630,770xm670,-155v303,0,420,-257,420,-590v0,-377,-140,-566,-420,-566v-124,0,-217,52,-283,152v-129,194,-125,633,3,835v70,110,159,169,280,169xm337,-1701v0,-61,52,-112,113,-112v61,0,112,51,112,112v0,61,-51,113,-112,113v-61,0,-113,-52,-113,-113xm810,-1701v0,-61,51,-112,112,-112v61,0,113,51,113,112v0,61,-52,113,-113,113v-61,0,-112,-52,-112,-113","w":1380},"\u00dc":{"d":"662,25v-318,0,-513,-161,-512,-472r0,-1018r200,0r0,1003v-2,178,129,307,310,307v194,0,318,-120,318,-312r0,-998r200,0r0,1019v2,301,-209,471,-516,471xm289,-1701v0,-61,52,-112,113,-112v61,0,112,51,112,112v0,61,-51,113,-112,113v-61,0,-113,-52,-113,-113xm762,-1701v0,-61,51,-112,112,-112v61,0,113,51,113,112v0,61,-52,113,-113,113v-61,0,-112,-52,-112,-113","w":1328},"\u00e1":{"d":"996,19v-150,-1,-218,-35,-256,-142v-76,95,-192,143,-349,143v-167,0,-314,-146,-311,-319v4,-275,344,-458,642,-362v0,-173,-77,-260,-232,-260v-119,0,-210,32,-274,96r-80,-159v64,-55,215,-108,332,-107v312,2,444,132,444,443r0,384v0,94,28,157,84,188r0,95xm596,-546v-169,-6,-326,100,-326,249v0,111,66,167,197,167v96,0,181,-46,255,-137r0,-259v-60,-13,-102,-20,-126,-20xm765,-1618r-226,333r-140,0r169,-333r197,0","w":1076},"\u00e0":{"d":"996,19v-150,-1,-218,-35,-256,-142v-76,95,-192,143,-349,143v-167,0,-314,-146,-311,-319v4,-275,344,-458,642,-362v0,-173,-77,-260,-232,-260v-119,0,-210,32,-274,96r-80,-159v64,-55,215,-108,332,-107v312,2,444,132,444,443r0,384v0,94,28,157,84,188r0,95xm596,-546v-169,-6,-326,100,-326,249v0,111,66,167,197,167v96,0,181,-46,255,-137r0,-259v-60,-13,-102,-20,-126,-20xm505,-1285r-226,-333r197,0r169,333r-140,0","w":1076},"\u00e2":{"d":"996,19v-150,-1,-218,-35,-256,-142v-76,95,-192,143,-349,143v-167,0,-314,-146,-311,-319v4,-275,344,-458,642,-362v0,-173,-77,-260,-232,-260v-119,0,-210,32,-274,96r-80,-159v64,-55,215,-108,332,-107v312,2,444,132,444,443r0,384v0,94,28,157,84,188r0,95xm596,-546v-169,-6,-326,100,-326,249v0,111,66,167,197,167v96,0,181,-46,255,-137r0,-259v-60,-13,-102,-20,-126,-20xm680,-1285r-163,-189r-178,189r-172,0r298,-338r107,0r305,338r-197,0","w":1076},"\u00e4":{"d":"996,19v-150,-1,-218,-35,-256,-142v-76,95,-192,143,-349,143v-167,0,-314,-146,-311,-319v4,-275,344,-458,642,-362v0,-173,-77,-260,-232,-260v-119,0,-210,32,-274,96r-80,-159v64,-55,215,-108,332,-107v312,2,444,132,444,443r0,384v0,94,28,157,84,188r0,95xm596,-546v-169,-6,-326,100,-326,249v0,111,66,167,197,167v96,0,181,-46,255,-137r0,-259v-60,-13,-102,-20,-126,-20xm163,-1401v0,-61,52,-112,113,-112v61,0,112,51,112,112v0,61,-51,113,-112,113v-61,0,-113,-52,-113,-113xm636,-1401v0,-61,51,-112,112,-112v61,0,113,51,113,112v0,61,-52,113,-113,113v-61,0,-112,-52,-112,-113","w":1076},"\u00e3":{"d":"996,19v-150,-1,-218,-35,-256,-142v-76,95,-192,143,-349,143v-167,0,-314,-146,-311,-319v4,-275,344,-458,642,-362v0,-173,-77,-260,-232,-260v-119,0,-210,32,-274,96r-80,-159v64,-55,215,-108,332,-107v312,2,444,132,444,443r0,384v0,94,28,157,84,188r0,95xm596,-546v-169,-6,-326,100,-326,249v0,111,66,167,197,167v96,0,181,-46,255,-137r0,-259v-60,-13,-102,-20,-126,-20xm197,-1285v15,-97,82,-206,184,-207v55,0,106,12,152,38v46,26,81,39,104,39v54,0,90,-26,108,-77r88,0v-35,138,-99,207,-192,207v-67,0,-195,-77,-245,-77v-47,0,-83,26,-108,77r-91,0","w":1076},"\u00e5":{"d":"996,19v-150,-1,-218,-35,-256,-142v-76,95,-192,143,-349,143v-167,0,-314,-146,-311,-319v4,-275,344,-458,642,-362v0,-173,-77,-260,-232,-260v-119,0,-210,32,-274,96r-80,-159v64,-55,215,-108,332,-107v312,2,444,132,444,443r0,384v0,94,28,157,84,188r0,95xm596,-546v-169,-6,-326,100,-326,249v0,111,66,167,197,167v96,0,181,-46,255,-137r0,-259v-60,-13,-102,-20,-126,-20xm302,-1495v0,-113,98,-209,212,-209v114,0,211,96,211,209v0,113,-98,210,-211,210v-114,0,-212,-97,-212,-210xm412,-1495v0,54,48,100,102,100v54,0,101,-46,101,-100v0,-54,-47,-99,-101,-99v-54,0,-102,45,-102,99","w":1076},"\u00e7":{"d":"65,-525v0,-338,215,-566,555,-566v105,0,267,61,323,107r-94,134v-39,-39,-163,-82,-247,-81v-219,2,-337,173,-337,406v0,239,122,384,351,385v85,0,171,-33,258,-99r75,160v-102,66,-228,99,-379,99v-300,1,-505,-229,-505,-545xm475,61v123,-4,209,80,209,193v0,139,-122,203,-277,201r-24,-99v87,1,182,-28,182,-102v0,-49,-30,-74,-90,-74r0,-119","w":1014},"\u00e9":{"d":"567,-1091v328,-5,542,237,470,574r-772,0v-4,223,123,376,337,377v109,0,199,-32,272,-95r80,137v-75,71,-237,118,-389,118v-292,0,-500,-239,-500,-543v0,-310,210,-564,502,-568xm863,-655v1,-163,-120,-276,-287,-276v-165,0,-295,123,-306,276r593,0xm824,-1618r-226,333r-140,0r169,-333r197,0","w":1117},"\u00e8":{"d":"567,-1091v328,-5,542,237,470,574r-772,0v-4,223,123,376,337,377v109,0,199,-32,272,-95r80,137v-75,71,-237,118,-389,118v-292,0,-500,-239,-500,-543v0,-310,210,-564,502,-568xm863,-655v1,-163,-120,-276,-287,-276v-165,0,-295,123,-306,276r593,0xm587,-1285r-226,-333r197,0r169,333r-140,0","w":1117},"\u00ea":{"d":"567,-1091v328,-5,542,237,470,574r-772,0v-4,223,123,376,337,377v109,0,199,-32,272,-95r80,137v-75,71,-237,118,-389,118v-292,0,-500,-239,-500,-543v0,-310,210,-564,502,-568xm863,-655v1,-163,-120,-276,-287,-276v-165,0,-295,123,-306,276r593,0xm729,-1285r-163,-189r-178,189r-172,0r298,-338r107,0r305,338r-197,0","w":1117},"\u00eb":{"d":"567,-1091v328,-5,542,237,470,574r-772,0v-4,223,123,376,337,377v109,0,199,-32,272,-95r80,137v-75,71,-237,118,-389,118v-292,0,-500,-239,-500,-543v0,-310,210,-564,502,-568xm863,-655v1,-163,-120,-276,-287,-276v-165,0,-295,123,-306,276r593,0xm214,-1401v0,-61,52,-112,113,-112v61,0,112,51,112,112v0,61,-51,113,-112,113v-61,0,-113,-52,-113,-113xm687,-1401v0,-61,51,-112,112,-112v61,0,113,51,113,112v0,61,-52,113,-113,113v-61,0,-112,-52,-112,-113","w":1117},"\u00ed":{"d":"227,0r0,-911r-147,0r0,-160r340,0r0,1071r-193,0xm540,-1618r-226,333r-140,0r169,-333r197,0","w":584},"\u00ec":{"d":"227,0r0,-911r-147,0r0,-160r340,0r0,1071r-193,0xm288,-1285r-226,-333r197,0r169,333r-140,0","w":584},"\u00ee":{"d":"227,0r0,-911r-147,0r0,-160r340,0r0,1071r-193,0xm443,-1285r-163,-189r-178,189r-172,0r298,-338r107,0r305,338r-197,0","w":584},"\u00ef":{"d":"227,0r0,-911r-147,0r0,-160r340,0r0,1071r-193,0xm-60,-1401v0,-61,52,-112,113,-112v61,0,112,51,112,112v0,61,-51,113,-112,113v-61,0,-113,-52,-113,-113xm413,-1401v0,-61,51,-112,112,-112v61,0,113,51,113,112v0,61,-52,113,-113,113v-61,0,-112,-52,-112,-113","w":584},"\u00f1":{"d":"570,-931v-97,0,-205,70,-245,135r0,796r-190,0r0,-1071r130,0r60,138v63,-105,165,-158,307,-158v235,0,352,143,352,428r0,663r-190,0r0,-623v-3,-206,-39,-308,-224,-308xm214,-1285v15,-97,82,-206,184,-207v55,0,106,12,152,38v46,26,81,39,104,39v54,0,90,-26,108,-77r88,0v-35,138,-99,207,-192,207v-67,0,-195,-77,-245,-77v-47,0,-83,26,-108,77r-91,0","w":1119},"\u00f3":{"d":"550,20v-315,0,-485,-234,-485,-558v0,-312,186,-553,485,-553v317,0,484,224,484,553v0,326,-173,558,-484,558xm550,-936v-194,0,-285,180,-285,398v0,269,95,403,285,403v197,0,284,-183,284,-403v0,-265,-95,-398,-284,-398xm774,-1618r-226,333r-140,0r169,-333r197,0","w":1099},"\u00f2":{"d":"550,20v-315,0,-485,-234,-485,-558v0,-312,186,-553,485,-553v317,0,484,224,484,553v0,326,-173,558,-484,558xm550,-936v-194,0,-285,180,-285,398v0,269,95,403,285,403v197,0,284,-183,284,-403v0,-265,-95,-398,-284,-398xm565,-1285r-226,-333r197,0r169,333r-140,0","w":1099},"\u00f4":{"d":"550,20v-315,0,-485,-234,-485,-558v0,-312,186,-553,485,-553v317,0,484,224,484,553v0,326,-173,558,-484,558xm550,-936v-194,0,-285,180,-285,398v0,269,95,403,285,403v197,0,284,-183,284,-403v0,-265,-95,-398,-284,-398xm709,-1285r-163,-189r-178,189r-172,0r298,-338r107,0r305,338r-197,0","w":1099},"\u00f6":{"d":"550,20v-315,0,-485,-234,-485,-558v0,-312,186,-553,485,-553v317,0,484,224,484,553v0,326,-173,558,-484,558xm550,-936v-194,0,-285,180,-285,398v0,269,95,403,285,403v197,0,284,-183,284,-403v0,-265,-95,-398,-284,-398xm215,-1401v0,-61,52,-112,113,-112v61,0,112,51,112,112v0,61,-51,113,-112,113v-61,0,-113,-52,-113,-113xm688,-1401v0,-61,51,-112,112,-112v61,0,113,51,113,112v0,61,-52,113,-113,113v-61,0,-112,-52,-112,-113","w":1099},"\u00f5":{"d":"550,20v-315,0,-485,-234,-485,-558v0,-312,186,-553,485,-553v317,0,484,224,484,553v0,326,-173,558,-484,558xm550,-936v-194,0,-285,180,-285,398v0,269,95,403,285,403v197,0,284,-183,284,-403v0,-265,-95,-398,-284,-398xm244,-1285v15,-97,82,-206,184,-207v55,0,106,12,152,38v46,26,81,39,104,39v54,0,90,-26,108,-77r88,0v-35,138,-99,207,-192,207v-67,0,-195,-77,-245,-77v-47,0,-83,26,-108,77r-91,0","w":1099},"\u00fa":{"d":"488,20v-238,0,-363,-146,-363,-388r0,-703r190,0r0,683v0,165,72,248,215,248v123,0,245,-88,275,-179r0,-752r190,0r0,1071r-190,0r0,-148v-36,79,-199,168,-317,168xm740,-1618r-226,333r-140,0r169,-333r197,0","w":1119},"\u00f9":{"d":"488,20v-238,0,-363,-146,-363,-388r0,-703r190,0r0,683v0,165,72,248,215,248v123,0,245,-88,275,-179r0,-752r190,0r0,1071r-190,0r0,-148v-36,79,-199,168,-317,168xm547,-1285r-226,-333r197,0r169,333r-140,0","w":1119},"\u00fb":{"d":"488,20v-238,0,-363,-146,-363,-388r0,-703r190,0r0,683v0,165,72,248,215,248v123,0,245,-88,275,-179r0,-752r190,0r0,1071r-190,0r0,-148v-36,79,-199,168,-317,168xm679,-1285r-163,-189r-178,189r-172,0r298,-338r107,0r305,338r-197,0","w":1119},"\u00fc":{"d":"488,20v-238,0,-363,-146,-363,-388r0,-703r190,0r0,683v0,165,72,248,215,248v123,0,245,-88,275,-179r0,-752r190,0r0,1071r-190,0r0,-148v-36,79,-199,168,-317,168xm181,-1401v0,-61,52,-112,113,-112v61,0,112,51,112,112v0,61,-51,113,-112,113v-61,0,-113,-52,-113,-113xm654,-1401v0,-61,51,-112,112,-112v61,0,113,51,113,112v0,61,-52,113,-113,113v-61,0,-112,-52,-112,-113","w":1119},"\u2020":{"d":"395,-931r-370,0r0,-140r370,0r0,-314r150,0r0,314r370,0r0,140r-370,0r0,1181r-74,88r-76,-88r0,-1181","w":940},"\u00b0":{"d":"719,-1282v0,113,-98,210,-211,210v-114,0,-212,-97,-212,-210v0,-113,98,-209,212,-209v114,0,211,96,211,209xm647,-1282v0,-74,-65,-139,-139,-139v-74,0,-139,65,-139,139v0,74,65,139,139,139v74,0,139,-65,139,-139"},"\u00a2":{"d":"694,-1217r102,0r-71,248v73,17,129,42,170,75r-78,113v-25,-25,-69,-44,-130,-56r-169,590v122,41,221,18,322,-59r60,136v-104,69,-270,100,-422,64r-74,258r-115,0r88,-300v-123,-73,-184,-200,-184,-379v0,-267,167,-452,431,-453xm583,-841v-135,19,-230,155,-230,314v0,93,24,166,72,218"},"\u00a3":{"d":"222,-1004v-5,-286,144,-487,407,-487v137,0,234,40,293,121r-94,133v-43,-57,-117,-86,-222,-86v-123,0,-184,104,-184,311r0,156r199,0r0,149r-199,0r0,527r223,0v101,0,179,-38,234,-113r142,111v-68,121,-216,182,-445,182r-444,0r0,-139v60,-20,90,-63,90,-129r0,-439r-82,0r0,-149r82,0r0,-148"},"\u00a7":{"d":"850,-322v2,229,-166,345,-400,345v-148,0,-264,-31,-349,-92r68,-186v73,67,163,100,270,100v134,0,201,-49,201,-147v0,-90,-76,-151,-229,-182v-91,-19,-164,-53,-220,-103v-56,-50,-84,-101,-84,-153v0,-91,32,-156,97,-197v-79,-45,-119,-126,-119,-243v0,-235,300,-372,545,-280v58,22,104,42,136,69r-62,184v-72,-69,-146,-103,-222,-103v-168,0,-231,104,-156,210v19,27,82,51,186,78v178,46,296,107,296,297v0,65,-27,126,-81,182v82,55,123,128,123,221xm355,-881v-68,46,-89,99,-35,161v65,75,132,71,276,108v22,-44,29,-132,-6,-172v-57,-68,-128,-70,-235,-97","w":929},"\u2022":{"d":"253,-574v0,-156,133,-289,289,-289v156,0,289,133,289,289v0,156,-133,289,-289,289v-156,0,-289,-133,-289,-289"},"\u00b6":{"d":"118,-1077v0,-215,103,-412,307,-412r507,0r0,1739r-154,0r0,-1616r-158,0r0,1616r-154,0r0,-893v-232,0,-348,-145,-348,-434"},"\u00df":{"d":"1039,-446v0,272,-119,465,-376,466v-51,0,-98,-8,-141,-23r36,-151v98,26,203,-14,240,-84v43,-82,58,-248,12,-340v-20,-41,-39,-70,-58,-86r-152,-125v-56,-45,-84,-94,-84,-146v0,-41,111,-109,127,-147v17,-26,26,-57,26,-96v0,-108,-56,-162,-169,-162v-64,0,-110,25,-136,75v-26,50,-39,133,-39,249r0,1016r-190,0r0,-1115v-4,-229,122,-393,339,-395v210,-2,370,89,370,278v0,85,-32,164,-95,237v-33,39,-44,50,-20,82v9,7,35,22,79,45v154,80,231,221,231,422","w":1119},"\u00ae":{"d":"780,14v-362,0,-675,-313,-675,-675v0,-362,313,-674,675,-674v362,0,674,312,674,674v0,362,-312,675,-674,675xm780,-96v304,0,564,-262,564,-565v0,-304,-260,-564,-564,-564v-304,0,-565,260,-565,564v0,304,262,565,565,565xm990,-254r-211,-357r-120,0r0,357r-119,0r0,-831r213,0v200,0,300,77,300,230v0,107,-54,182,-161,226r227,375r-129,0xm737,-705v141,0,189,-15,196,-142v7,-123,-127,-148,-274,-136r0,276v10,1,36,2,78,2","w":1460},"\u00a9":{"d":"780,14v-362,0,-675,-313,-675,-675v0,-362,313,-674,675,-674v362,0,674,312,674,674v0,362,-312,675,-674,675xm780,-96v304,0,564,-262,564,-565v0,-304,-260,-564,-564,-564v-304,0,-565,260,-565,564v0,304,262,565,565,565xm553,-657v0,170,88,317,243,318v78,0,138,-27,179,-82r63,86v-67,66,-151,99,-254,99v-227,1,-350,-187,-350,-427v0,-231,139,-434,358,-432v91,0,162,15,212,44r-38,97v-36,-26,-93,-39,-172,-39v-160,1,-241,161,-241,336","w":1460},"\u2122":{"d":"499,-1381r0,643r-100,0r0,-643r-208,0r0,-90r527,0r0,90r-219,0xm1254,-739r-83,-498r-147,503r-59,0r-155,-510r-77,505r-95,0r112,-732r75,0r169,567r167,-567r75,0r113,732r-95,0","w":1300},"\u00b4":{"d":"744,-1618r-226,333r-140,0r169,-333r197,0"},"\u00a8":{"d":"189,-1401v0,-61,52,-112,113,-112v61,0,112,51,112,112v0,61,-51,113,-112,113v-61,0,-113,-52,-113,-113xm662,-1401v0,-61,51,-112,112,-112v61,0,113,51,113,112v0,61,-52,113,-113,113v-61,0,-112,-52,-112,-113"},"\u2260":{"d":"822,-1051r139,0r-143,175r142,0r0,141r-257,0r-162,199r419,0r0,141r-534,0r-165,202r-138,0r165,-202r-166,0r0,-141r280,0r163,-199r-443,0r0,-141r557,0"},"\u00c6":{"d":"828,-307r-448,0r-139,307r-224,0r705,-1465r981,0r0,180r-675,0r0,407r484,0r0,170r-484,0r0,528r664,0r0,180r-864,0r0,-307xm828,-1285r-384,829r384,0r0,-829","w":1775},"\u00d8":{"d":"1287,-745v0,450,-202,769,-630,770v-117,0,-220,-30,-307,-91r-67,91r-216,0r160,-211v-107,-143,-160,-329,-160,-559v0,-392,213,-746,590,-746v143,0,263,33,361,100r67,-100r202,0r-144,220v96,129,144,305,144,526xm913,-1229v-66,-55,-151,-82,-256,-82v-124,0,-216,52,-283,152v-120,180,-129,582,-20,792xm657,-155v303,0,422,-258,420,-590v0,-137,-19,-249,-58,-338r-562,856v56,48,123,72,200,72","w":1345},"\u221e":{"d":"1024,-671v0,141,-101,219,-246,219v-85,0,-165,-48,-241,-144v-76,96,-155,144,-238,144v-147,1,-247,-75,-247,-219v0,-126,106,-215,234,-215v97,0,180,43,250,129v70,-86,155,-129,255,-129v127,0,233,89,233,215xm598,-674v57,79,120,119,190,119v87,0,130,-39,130,-116v0,-77,-47,-116,-140,-116v-51,0,-111,38,-180,113xm479,-674v-69,-75,-129,-113,-180,-113v-93,0,-140,39,-140,116v0,77,43,116,130,116v70,0,133,-40,190,-119"},"\u00b1":{"d":"611,-706r349,0r0,141r-349,0r0,345r-141,0r0,-345r-348,0r0,-141r348,0r0,-343r141,0r0,343xm960,-121r0,141r-838,0r0,-141r838,0"},"\u2264":{"d":"150,-594r0,-123r739,-354r0,161r-571,255r571,258r0,161xm960,-121r0,141r-838,0r0,-141r838,0"},"\u2265":{"d":"932,-594r-739,358r0,-161r571,-258r-571,-255r0,-161r739,354r0,123xm122,-121r838,0r0,141r-838,0r0,-141"},"\u00a5":{"d":"932,-475r-254,0r0,475r-200,0r0,-475r-243,0r0,-131r243,0r0,-50r-439,-809r206,0r332,640r368,-640r197,0r-464,809r0,50r254,0r0,131","w":1168},"\u03bc":{"d":"795,-148v-41,95,-154,169,-287,168v-72,0,-133,-13,-183,-38r0,438r-190,0r0,-1491r190,0r0,623v0,201,78,302,235,302v111,0,206,-69,235,-149r0,-776r190,0r0,1071r-190,0r0,-148","w":1119},"\u2202":{"d":"1014,-549v4,314,-200,570,-509,570v-300,0,-450,-163,-450,-489v0,-174,57,-319,169,-436v112,-117,235,-175,368,-175v0,-37,-56,-97,-167,-179v-111,-82,-211,-122,-298,-122r44,-161v113,0,240,48,381,143v250,168,457,464,462,849xm515,-150v209,0,309,-178,309,-408v0,-171,-35,-291,-106,-362v-275,-7,-473,188,-473,452v0,192,90,318,270,318","w":1125},"\u2211":{"d":"329,-1285r399,546r-409,732r683,0r0,180r-914,0r0,-180r400,-732r-400,-566r0,-160r875,0r0,180r-634,0","w":1075},"\u220f":{"d":"365,-1285r-1,1455r-200,0r0,-1455r-130,0r0,-180r1050,0r0,180r-130,0r0,1455r-200,0r0,-1455r-389,0","w":1132},"\u03c0":{"d":"982,0r-193,0r0,-911r-337,0r0,911r-193,0r0,-911r-167,0r0,-160r1048,0r0,160r-158,0r0,911","w":1232},"\u222b":{"d":"624,-23v3,231,-123,443,-345,443v-119,0,-219,-41,-301,-123r100,-142v51,63,108,95,170,95v102,1,157,-133,157,-241r0,-1073v-7,-223,165,-446,381,-446v107,0,201,34,280,102r-124,142v-58,-79,-210,-109,-276,-19v-27,37,-42,120,-42,251r0,1011"},"\u00aa":{"d":"87,-1002v4,-189,193,-266,410,-248v-2,-85,-48,-127,-138,-127v-73,0,-131,21,-175,62r-58,-108v61,-45,134,-68,219,-68v192,0,288,89,288,267r0,225v0,53,18,88,53,107r0,67v-93,0,-150,-26,-173,-77v-50,52,-122,78,-216,78v-110,0,-211,-72,-210,-178xm221,-1017v0,55,62,84,123,84v61,0,113,-23,154,-69r0,-155v-140,-11,-277,25,-277,140","w":752},"\u00ba":{"d":"379,-824v-197,0,-313,-135,-313,-335v0,-191,125,-332,313,-332v200,0,312,131,312,332v0,199,-115,335,-312,335xm207,-1159v0,147,57,221,172,221v114,0,171,-74,171,-221v0,-145,-57,-218,-171,-218v-115,0,-172,73,-172,218","w":752},"\u03a9":{"d":"1295,-745v-1,262,-121,486,-289,595r289,0r0,150r-500,0r0,-152v181,-171,290,-300,290,-593v0,-377,-138,-566,-415,-566v-277,0,-385,260,-385,566v0,210,150,518,290,595r0,150r-500,0r0,-150r269,0v-179,-139,-269,-338,-269,-595v0,-392,218,-748,595,-746v425,3,628,302,625,746","w":1370},"\u00e6":{"d":"1226,-1091v288,0,488,196,485,478v0,31,-5,63,-15,96r-762,0v-4,214,122,378,327,377v117,0,208,-36,274,-109r80,152v-102,90,-206,117,-391,117v-113,0,-213,-32,-298,-95v3,33,7,65,11,95r-161,0r-35,-143v-76,95,-189,143,-339,143v-169,0,-324,-134,-322,-301v3,-259,234,-407,512,-402v37,0,81,7,132,22v0,-173,-78,-260,-233,-260v-119,0,-210,32,-274,96r-80,-159v64,-55,215,-107,332,-107v195,0,325,58,389,173v99,-115,221,-173,368,-173xm1532,-655v2,-168,-133,-276,-307,-276v-149,0,-292,144,-291,276r598,0xm724,-526v-204,-74,-454,53,-454,229v0,111,66,167,198,167v97,0,182,-46,256,-137r0,-259","w":1788},"\u00f8":{"d":"1030,-538v0,326,-173,559,-484,558v-108,0,-200,-26,-276,-78r-58,78r-151,0r119,-162v-79,-99,-119,-231,-119,-396v0,-312,186,-555,485,-553v110,0,203,25,278,76r56,-76r150,0r-117,159v78,97,117,229,117,394xm546,-926v-196,3,-295,171,-295,388v0,99,15,179,44,241r424,-575v-50,-36,-108,-54,-173,-54xm546,-135v198,0,294,-183,294,-403v0,-97,-14,-176,-43,-237r-424,576v46,43,104,64,173,64","w":1117},"\u00bf":{"d":"556,-940v0,80,-70,150,-150,150v-80,0,-150,-70,-150,-150v0,-80,70,-151,150,-151v80,0,150,71,150,151xm389,420v-192,0,-353,-122,-349,-312v2,-112,43,-196,104,-261r146,-156v75,-104,109,-188,74,-333r132,0v46,123,39,168,8,284v-24,88,-209,269,-246,340v-20,38,-32,74,-32,109v0,117,71,176,213,176v68,0,127,-24,178,-73r73,143v-67,55,-168,83,-301,83","w":752},"\u00a1":{"d":"534,-940v0,80,-70,150,-150,150v-80,0,-150,-70,-150,-150v0,-80,70,-151,150,-151v80,0,150,71,150,151xm413,-689v85,553,81,642,78,1109r-226,0v-2,-461,-8,-567,77,-1109r71,0","w":752},"\u00ac":{"d":"960,-886r0,486r-141,0r0,-345r-697,0r0,-141r838,0"},"\u221a":{"d":"751,-1349r-384,1349r-142,0r-209,-268r98,-83r150,194r374,-1314r450,0r0,122r-337,0"},"\u0192":{"d":"802,-1332v-205,-81,-320,18,-355,260v86,5,161,1,251,-8r-13,116v-111,16,-200,26,-265,29r-165,1008v-29,190,-179,313,-377,335v-18,-38,-40,-117,-54,-155v92,-16,227,-93,241,-180r166,-999v-29,0,-80,4,-151,13r30,-158r147,-1v59,-292,205,-438,439,-438v35,0,83,10,142,30","w":795},"\u2248":{"d":"342,-836v76,-5,300,77,366,77v54,0,90,-26,108,-77r88,0v-35,138,-99,207,-192,207v-69,0,-294,-77,-355,-77v-47,0,-83,26,-108,77r-91,0v14,-98,82,-201,184,-207xm342,-506v76,-5,300,77,366,77v54,0,90,-26,108,-77r88,0v-35,138,-99,207,-192,207v-69,0,-294,-77,-355,-77v-47,0,-83,26,-108,77r-91,0v14,-98,82,-201,184,-207"},"\u0394":{"d":"25,0r0,-124r526,-1341r144,0r480,1341r0,124r-1150,0xm619,-1216r-376,1046r725,0","w":1198},"\u00ab":{"d":"129,-535r0,-64r355,-244r0,125r-212,157r212,138r0,125xm528,-535r0,-64r355,-244r0,125r-212,157r212,138r0,125"},"\u00bb":{"d":"524,-535r-355,237r0,-125r212,-138r-212,-157r0,-125r355,244r0,64xm923,-535r-355,237r0,-125r212,-138r-212,-157r0,-125r355,244r0,64"},"\u2026":{"d":"250,-281v80,0,150,70,150,150v0,80,-70,151,-150,151v-80,0,-150,-71,-150,-151v0,-80,70,-150,150,-150xm752,-281v80,0,150,70,150,150v0,80,-70,151,-150,151v-80,0,-150,-71,-150,-151v0,-80,70,-150,150,-150xm1254,-281v80,0,150,70,150,150v0,80,-70,151,-150,151v-80,0,-150,-71,-150,-151v0,-80,70,-150,150,-150","w":1504},"\u00a0":{"w":617},"\u00c0":{"d":"982,0r-101,-309r-545,0r-108,309r-224,0r595,-1485r53,0r552,1485r-222,0xm616,-1101r-227,645r435,0xm578,-1585r-226,-333r197,0r169,333r-140,0","w":1208},"\u00c3":{"d":"982,0r-101,-309r-545,0r-108,309r-224,0r595,-1485r53,0r552,1485r-222,0xm616,-1101r-227,645r435,0xm296,-1585v15,-97,82,-206,184,-207v55,0,106,12,152,38v46,26,81,39,104,39v54,0,90,-26,108,-77r88,0v-35,138,-99,207,-192,207v-67,0,-195,-77,-245,-77v-47,0,-83,26,-108,77r-91,0","w":1208},"\u00d5":{"d":"670,25v-391,1,-590,-358,-590,-770v0,-392,213,-746,590,-746v425,0,630,303,630,746v0,450,-202,768,-630,770xm670,-155v303,0,420,-257,420,-590v0,-377,-140,-566,-420,-566v-124,0,-217,52,-283,152v-129,194,-125,633,3,835v70,110,159,169,280,169xm364,-1585v15,-97,82,-206,184,-207v55,0,106,12,152,38v46,26,81,39,104,39v54,0,90,-26,108,-77r88,0v-35,138,-99,207,-192,207v-67,0,-195,-77,-245,-77v-47,0,-83,26,-108,77r-91,0","w":1380},"\u0152":{"d":"67,-745v0,-392,213,-746,590,-746v180,0,323,52,430,156r0,-130r875,0r0,180r-675,0r0,407r484,0r0,170r-484,0r0,528r664,0r0,180r-864,0r0,-138v-107,109,-251,163,-430,163v-391,0,-590,-358,-590,-770xm657,-155v303,0,420,-257,420,-590v0,-377,-140,-566,-420,-566v-124,0,-217,52,-283,152v-129,194,-126,633,2,835v70,110,160,169,281,169","w":2034},"\u0153":{"d":"61,-538v0,-312,186,-553,485,-553v181,0,313,66,396,199v99,-133,229,-199,389,-199v288,0,488,196,485,478v0,31,-5,63,-15,96r-762,0v-4,215,121,378,327,377v112,0,203,-34,274,-101r80,152v-83,73,-213,109,-391,109v-169,0,-301,-64,-396,-193v-86,129,-215,193,-387,193v-315,0,-485,-234,-485,-558xm1637,-655v2,-168,-133,-276,-307,-276v-132,0,-298,143,-291,276r598,0xm546,-921v-197,0,-285,165,-285,383v0,259,95,388,285,388v200,0,284,-172,284,-388v0,-255,-95,-383,-284,-383","w":1893},"\u2013":{"d":"93,-532r0,-96r521,0r0,96r-521,0","w":752},"\u2014":{"d":"93,-532r0,-96r1309,0r0,96r-1309,0","w":1504},"\u201c":{"d":"819,-1242v0,55,98,137,98,194v0,98,-48,147,-145,147v-103,0,-155,-59,-155,-177v0,-177,88,-321,265,-432r67,89v-50,45,-130,93,-130,179xm369,-1242v0,55,98,137,98,194v0,98,-48,147,-145,147v-103,0,-155,-59,-155,-177v0,-177,88,-321,265,-432r67,89v-50,45,-130,93,-130,179"},"\u201d":{"d":"753,-1169v0,-55,-98,-137,-98,-194v0,-98,48,-147,145,-147v103,0,155,59,155,177v0,177,-88,321,-265,432r-67,-89v50,-45,130,-93,130,-179xm294,-1169v0,-55,-98,-137,-98,-194v0,-98,48,-147,145,-147v103,0,155,59,155,177v0,177,-88,321,-265,432r-67,-89v50,-45,130,-93,130,-179"},"\u2018":{"d":"423,-1242v0,55,98,137,98,194v0,98,-48,147,-145,147v-103,0,-155,-59,-155,-177v0,-177,88,-321,265,-432r67,89v-50,45,-130,93,-130,179","w":752,"k":{"\u2018":197}},"\u2019":{"d":"329,-1169v0,-55,-98,-137,-98,-194v0,-98,48,-147,145,-147v103,0,155,59,155,177v0,177,-88,321,-265,432r-67,-89v50,-45,130,-93,130,-179","w":752,"k":{"\u2019":197,"s":141," ":76}},"\u00f7":{"d":"544,-1150v80,0,150,70,150,150v0,80,-70,151,-150,151v-80,0,-150,-71,-150,-151v0,-80,70,-150,150,-150xm960,-705r0,141r-838,0r0,-141r838,0xm544,-400v80,0,150,70,150,150v0,80,-70,151,-150,151v-80,0,-150,-71,-150,-151v0,-80,70,-150,150,-150"},"\u25ca":{"d":"549,-1422r418,713r-418,709r-111,0r-391,-709r391,-713r111,0xm495,-1325r-340,616r340,615r359,-615","w":1012},"\u00ff":{"d":"124,250v136,4,289,-72,289,-191v0,-149,-66,-269,-111,-385r-290,-745r194,0r315,828r283,-828r194,0r-454,1253v-46,135,-234,241,-420,238r0,-170xm151,-1401v0,-61,52,-112,113,-112v61,0,112,51,112,112v0,61,-51,113,-112,113v-61,0,-113,-52,-113,-113xm624,-1401v0,-61,51,-112,112,-112v61,0,113,51,113,112v0,61,-52,113,-113,113v-61,0,-112,-52,-112,-113","w":1010},"\u0178":{"d":"685,-656r0,656r-200,0r0,-656r-472,-809r206,0r365,640r365,-640r206,0xm241,-1701v0,-61,52,-112,113,-112v61,0,112,51,112,112v0,61,-51,113,-112,113v-61,0,-113,-52,-113,-113xm714,-1701v0,-61,51,-112,112,-112v61,0,113,51,113,112v0,61,-52,113,-113,113v-61,0,-112,-52,-112,-113","w":1168},"\u2044":{"d":"131,35r-127,0r973,-1526r126,0","w":1083},"\u2215":{"d":"131,35r-127,0r973,-1526r126,0","w":1083},"\u20ac":{"d":"146,-928v40,-291,246,-563,553,-562v167,0,284,31,353,93r-89,164v-67,-51,-154,-77,-259,-77v-208,0,-332,180,-358,382r459,0r-58,141r-414,0v-4,46,-4,84,-1,131r347,0r-49,141r-283,0v11,165,171,363,340,360v130,-2,279,-69,344,-143r0,217v-93,71,-215,106,-365,106v-296,0,-480,-255,-519,-540r-116,0r0,-141r98,0v-3,-45,-4,-89,-1,-131r-97,0r0,-141r115,0"},"\u2039":{"d":"171,-535r0,-64r355,-244r0,125r-212,157r212,138r0,125","w":752},"\u203a":{"d":"566,-535r-355,237r0,-125r212,-138r-212,-157r0,-125r355,244r0,64","w":752},"\ufb01":{"d":"399,-1071r637,0r0,1071r-193,0r0,-911r-444,0r0,911r-190,0r0,-911r-156,0r0,-160r156,0v-5,-253,133,-438,368,-439v55,0,115,10,178,30r-53,140v-192,-77,-340,74,-303,269xm800,-1359v0,-64,53,-117,117,-117v63,0,118,54,118,117v0,64,-54,118,-118,118v-63,0,-117,-55,-117,-118","w":1187},"\ufb02":{"d":"221,-1071v-5,-253,133,-438,368,-439v98,0,174,16,227,47r0,-27r190,0r0,1155v0,123,46,185,139,185r0,170v-237,-3,-329,-85,-329,-323r0,-982v-33,-40,-133,-75,-210,-75v-137,0,-224,137,-195,289r188,0r0,160r-188,0r0,911r-190,0r0,-911r-156,0r0,-160r156,0","w":1230},"\u2021":{"d":"915,-381r0,140r-370,0r0,491r-76,94r-74,-94r0,-491r-370,0r0,-140r370,0r0,-550r-370,0r0,-140r370,0r0,-314r150,0r0,314r370,0r0,140r-370,0r0,550r370,0","w":940},"\u2219":{"d":"205,-651v0,-80,70,-150,150,-150v80,0,150,70,150,150v0,80,-70,151,-150,151v-80,0,-150,-71,-150,-151","w":752},"\u201a":{"d":"329,64v0,-55,-98,-137,-98,-194v0,-98,48,-147,145,-147v103,0,155,59,155,177v0,177,-88,321,-265,432r-67,-89v50,-45,130,-93,130,-179","w":752},"\u201e":{"d":"753,64v0,-55,-98,-137,-98,-194v0,-98,48,-147,145,-147v103,0,155,59,155,177v0,177,-88,321,-265,432r-67,-89v50,-45,130,-93,130,-179xm294,64v0,-55,-98,-137,-98,-194v0,-98,48,-147,145,-147v103,0,155,59,155,177v0,177,-88,321,-265,432r-67,-89v50,-45,130,-93,130,-179"},"\u2030":{"d":"218,20r-127,0r883,-1511r126,0xm618,-1143v0,191,-104,339,-279,339v-185,0,-278,-119,-278,-358v0,-183,114,-331,287,-329v181,2,270,147,270,348xm345,-1389v-110,0,-158,111,-158,237v0,129,39,246,143,246v108,0,162,-82,162,-245v0,-159,-49,-238,-147,-238xm1158,-319v0,191,-104,339,-279,339v-185,0,-278,-119,-278,-358v0,-183,114,-331,287,-329v181,2,270,147,270,348xm885,-565v-110,0,-158,111,-158,237v0,129,39,246,143,246v108,0,162,-82,162,-245v0,-159,-49,-238,-147,-238xm1808,-319v0,191,-104,339,-279,339v-185,0,-278,-119,-278,-358v0,-183,114,-331,287,-329v181,2,270,147,270,348xm1535,-565v-110,0,-158,111,-158,237v0,129,39,246,143,246v108,0,162,-82,162,-245v0,-159,-49,-238,-147,-238","w":1869},"\u00c2":{"d":"982,0r-101,-309r-545,0r-108,309r-224,0r595,-1485r53,0r552,1485r-222,0xm616,-1101r-227,645r435,0xm778,-1585r-163,-189r-178,189r-172,0r298,-338r107,0r305,338r-197,0","w":1208},"\u00ca":{"d":"350,-1285r0,407r484,0r0,170r-484,0r0,528r664,0r0,180r-864,0r0,-1465r875,0r0,180r-675,0xm718,-1585r-163,-189r-178,189r-172,0r298,-338r107,0r305,338r-197,0","w":1097},"\u00c1":{"d":"982,0r-101,-309r-545,0r-108,309r-224,0r595,-1485r53,0r552,1485r-222,0xm616,-1101r-227,645r435,0xm859,-1918r-226,333r-140,0r169,-333r197,0","w":1208},"\u00cb":{"d":"350,-1285r0,407r484,0r0,170r-484,0r0,528r664,0r0,180r-864,0r0,-1465r875,0r0,180r-675,0xm230,-1701v0,-61,52,-112,113,-112v61,0,112,51,112,112v0,61,-51,113,-112,113v-61,0,-113,-52,-113,-113xm703,-1701v0,-61,51,-112,112,-112v61,0,113,51,113,112v0,61,-52,113,-113,113v-61,0,-112,-52,-112,-113","w":1097},"\u00c8":{"d":"350,-1285r0,407r484,0r0,170r-484,0r0,528r664,0r0,180r-864,0r0,-1465r875,0r0,180r-675,0xm592,-1585r-226,-333r197,0r169,333r-140,0","w":1097},"\u00cd":{"d":"185,0r0,-1465r200,0r0,1465r-200,0xm577,-1918r-226,333r-140,0r169,-333r197,0","w":570},"\u00ce":{"d":"185,0r0,-1465r200,0r0,1465r-200,0xm433,-1585r-163,-189r-178,189r-172,0r298,-338r107,0r305,338r-197,0","w":570},"\u00cf":{"d":"185,0r0,-1465r200,0r0,1465r-200,0xm-31,-1701v0,-61,52,-112,113,-112v61,0,112,51,112,112v0,61,-51,113,-112,113v-61,0,-113,-52,-113,-113xm442,-1701v0,-61,51,-112,112,-112v61,0,113,51,113,112v0,61,-52,113,-113,113v-61,0,-112,-52,-112,-113","w":570},"\u00cc":{"d":"185,0r0,-1465r200,0r0,1465r-200,0xm329,-1585r-226,-333r197,0r169,333r-140,0","w":570},"\u00d3":{"d":"670,25v-391,1,-590,-358,-590,-770v0,-392,213,-746,590,-746v425,0,630,303,630,746v0,450,-202,768,-630,770xm670,-155v303,0,420,-257,420,-590v0,-377,-140,-566,-420,-566v-124,0,-217,52,-283,152v-129,194,-125,633,3,835v70,110,159,169,280,169xm889,-1918r-226,333r-140,0r169,-333r197,0","w":1380},"\u00d4":{"d":"670,25v-391,1,-590,-358,-590,-770v0,-392,213,-746,590,-746v425,0,630,303,630,746v0,450,-202,768,-630,770xm670,-155v303,0,420,-257,420,-590v0,-377,-140,-566,-420,-566v-124,0,-217,52,-283,152v-129,194,-125,633,3,835v70,110,159,169,280,169xm828,-1585r-163,-189r-178,189r-172,0r298,-338r107,0r305,338r-197,0","w":1380},"\u00d2":{"d":"670,25v-391,1,-590,-358,-590,-770v0,-392,213,-746,590,-746v425,0,630,303,630,746v0,450,-202,768,-630,770xm670,-155v303,0,420,-257,420,-590v0,-377,-140,-566,-420,-566v-124,0,-217,52,-283,152v-129,194,-125,633,3,835v70,110,159,169,280,169xm718,-1585r-226,-333r197,0r169,333r-140,0","w":1380},"\u00da":{"d":"662,25v-318,0,-513,-161,-512,-472r0,-1018r200,0r0,1003v-2,178,129,307,310,307v194,0,318,-120,318,-312r0,-998r200,0r0,1019v2,301,-209,471,-516,471xm854,-1918r-226,333r-140,0r169,-333r197,0","w":1328},"\u00db":{"d":"662,25v-318,0,-513,-161,-512,-472r0,-1018r200,0r0,1003v-2,178,129,307,310,307v194,0,318,-120,318,-312r0,-998r200,0r0,1019v2,301,-209,471,-516,471xm792,-1585r-163,-189r-178,189r-172,0r298,-338r107,0r305,338r-197,0","w":1328},"\u00d9":{"d":"662,25v-318,0,-513,-161,-512,-472r0,-1018r200,0r0,1003v-2,178,129,307,310,307v194,0,318,-120,318,-312r0,-998r200,0r0,1019v2,301,-209,471,-516,471xm659,-1585r-226,-333r197,0r169,333r-140,0","w":1328},"\u0131":{"d":"227,0r0,-911r-147,0r0,-160r340,0r0,1071r-193,0","w":584},"\u02c6":{"d":"682,-1285r-163,-189r-178,189r-172,0r298,-338r107,0r305,338r-197,0"},"\u02dc":{"d":"204,-1285v15,-97,82,-206,184,-207v55,0,106,12,152,38v46,26,81,39,104,39v54,0,90,-26,108,-77r88,0v-35,138,-99,207,-192,207v-67,0,-195,-77,-245,-77v-47,0,-83,26,-108,77r-91,0"},"\u02c9":{"d":"913,-1426r0,141r-738,0r0,-141r738,0"},"\u02d8":{"d":"526,-1439v103,0,202,-76,201,-171r143,0v-1,166,-155,325,-344,325v-192,0,-320,-141,-319,-325r141,0v-6,82,90,171,178,171"},"\u02d9":{"d":"418,-1403v0,-64,53,-117,117,-117v63,0,118,54,118,117v0,64,-54,118,-118,118v-63,0,-117,-55,-117,-118"},"\u02da":{"d":"296,-1495v0,-113,98,-209,212,-209v114,0,211,96,211,209v0,113,-98,210,-211,210v-114,0,-212,-97,-212,-210xm406,-1495v0,54,48,100,102,100v54,0,101,-46,101,-100v0,-54,-47,-99,-101,-99v-54,0,-102,45,-102,99"},"\u00b8":{"d":"423,61v123,-4,209,80,209,193v0,139,-122,203,-277,201r-24,-99v87,1,182,-28,182,-102v0,-49,-30,-74,-90,-74r0,-119"},"\u02dd":{"d":"540,-1568r-199,283r-140,0r142,-283r197,0xm910,-1568r-199,283r-140,0r142,-283r197,0"},"\u02db":{"d":"594,0v-72,39,-93,47,-98,133v-7,107,144,114,218,63r67,142v-64,23,-123,35,-178,35v-150,0,-272,-101,-272,-248v0,-116,68,-211,205,-286"},"\u02c7":{"d":"879,-1619r-305,334r-107,0r-298,-338r172,0r178,192r163,-188r197,0"},"\u0141":{"d":"485,-1045r0,131r-135,95r0,639r662,0r0,180r-862,0r0,-679r-152,106r0,-144r152,-102r0,-646r200,0r0,511","w":1037},"\u0142":{"d":"346,-335v-2,111,71,186,179,185r0,170v-246,0,-369,-108,-369,-323r0,-382r-107,74r0,-144r107,-72r0,-683r190,0r0,555r139,-90r0,131r-139,97r0,482","w":610},"\u0160":{"d":"904,-370v-2,238,-222,395,-487,395v-130,0,-241,-31,-333,-92r73,-184v61,47,190,94,289,96v146,3,266,-90,259,-227v-8,-164,-76,-198,-238,-276v-119,-57,-275,-128,-327,-221v-37,-66,-60,-141,-60,-231v0,-222,184,-380,414,-380v162,0,275,26,338,79r-59,174v-49,-37,-186,-83,-274,-83v-168,0,-270,157,-198,309v45,96,87,103,212,164v120,59,277,131,331,227v38,67,60,149,60,250xm859,-1919r-305,334r-107,0r-298,-338r172,0r178,192r163,-188r197,0","w":985},"\u0161":{"d":"764,-287v-1,205,-161,307,-381,307v-113,0,-219,-28,-318,-84r67,-180v106,69,191,104,256,104v117,0,176,-49,176,-148v0,-71,-57,-130,-170,-182v-141,-66,-181,-78,-256,-162v-41,-46,-65,-101,-66,-179v-1,-184,155,-282,347,-280v78,0,176,25,295,74r-54,176v-75,-60,-151,-90,-227,-90v-80,0,-160,41,-161,113v0,69,40,119,117,156v172,81,377,137,375,375xm762,-1619r-305,334r-107,0r-298,-338r172,0r178,192r163,-188r197,0","w":829},"\u017d":{"d":"100,0r0,-50r630,-1235r-620,0r0,-180r895,0r0,50r-632,1235r654,0r0,180r-927,0xm898,-1919r-305,334r-107,0r-298,-338r172,0r178,192r163,-188r197,0","w":1127},"\u017e":{"d":"338,-170r594,0r0,170r-892,0r0,-50r609,-851r-599,0r0,-170r876,0r0,54xm828,-1619r-305,334r-107,0r-298,-338r172,0r178,192r163,-188r197,0","w":972},"\u00a6":{"d":"472,-694r0,-723r146,0r0,723r-146,0xm472,276r0,-723r146,0r0,723r-146,0"},"\u00d0":{"d":"511,-1475v406,-5,665,277,665,683v0,528,-244,792,-731,792r-295,0r0,-691r-135,0r0,-160r135,0r0,-614v188,-7,308,-10,361,-10xm516,-180v306,-4,450,-259,450,-595v0,-347,-156,-520,-467,-520v-19,0,-68,3,-149,10r0,434r149,0r0,160r-149,0r0,501v45,7,100,10,166,10","w":1256},"\u00f0":{"d":"61,-538v0,-359,254,-629,631,-535v-43,-75,-81,-136,-115,-183r-174,94r-46,-90r159,-84v-61,-73,-119,-131,-176,-174r251,0v19,20,46,51,80,92r173,-92r46,85r-159,86v123,189,203,341,241,457v38,116,58,230,58,344v0,322,-171,558,-484,558v-314,0,-485,-236,-485,-558xm546,-921v-200,0,-295,172,-295,383v0,259,98,388,295,388v201,0,294,-174,294,-388v0,-255,-98,-383,-294,-383","w":1125},"\u00dd":{"d":"685,-656r0,656r-200,0r0,-656r-472,-809r206,0r365,640r365,-640r206,0xm819,-1918r-226,333r-140,0r169,-333r197,0","w":1168},"\u00de":{"d":"1063,-828v0,334,-221,517,-564,514r-148,0r0,314r-201,0r0,-1465r201,0r0,190r74,0v425,0,638,149,638,447xm857,-807v0,-228,-142,-286,-397,-288r-109,0r0,601r134,0v248,0,372,-104,372,-313","w":1138},"\u00fe":{"d":"1068,-533v0,319,-176,553,-498,553v-111,0,-192,-26,-245,-79r0,479r-190,0r0,-1930r190,0r0,527v72,-72,159,-108,261,-108v322,2,482,216,482,558xm515,-921v-62,0,-157,54,-190,91r0,604v59,51,122,76,189,76v257,-2,354,-126,354,-390v0,-262,-96,-381,-353,-381","w":1133},"\u2212":{"d":"960,-706r0,141r-838,0r0,-141r838,0"},"\u00b9":{"d":"439,-595r0,-674r-188,112r0,-113v131,-66,225,-135,282,-208r36,0r0,883r-130,0","w":924},"\u00b2":{"d":"162,-1317v29,-89,127,-173,240,-173v176,0,264,75,264,224v0,80,-31,169,-93,266r-183,287r334,0r0,118r-540,0r0,-24r266,-414v57,-89,86,-164,86,-223v0,-81,-43,-122,-128,-122v-71,0,-128,41,-169,124","w":924},"\u00b3":{"d":"655,-1270v0,98,-64,179,-135,205v110,36,165,112,165,227v0,169,-98,253,-295,253v-86,0,-154,-24,-205,-72r59,-102v33,36,82,54,148,54v109,0,163,-47,163,-142v0,-103,-73,-168,-184,-163r0,-102v102,2,154,-44,154,-139v0,-79,-46,-119,-139,-119v-57,0,-98,15,-124,44r-54,-91v37,-49,100,-73,187,-73v143,0,260,87,260,220","w":929},"\u00bd":{"d":"336,35r-128,0r974,-1526r126,0xm289,-595r0,-674r-188,112r0,-113v131,-66,225,-135,282,-208r36,0r0,883r-130,0xm1002,-722v29,-89,127,-173,240,-173v176,0,264,75,264,224v0,80,-31,169,-93,266r-183,287r334,0r0,118r-540,0r0,-24r266,-414v57,-89,86,-164,86,-223v0,-81,-43,-122,-128,-122v-71,0,-128,41,-169,124","w":1668},"\u00bc":{"d":"349,35r-128,0r974,-1526r126,0xm259,-595r0,-664r-178,102r0,-113v131,-66,225,-135,282,-208r36,0r0,883r-140,0xm1400,-210r0,210r-130,0r0,-210r-404,0r0,-68r492,-605r42,0r0,571r89,0r0,102r-89,0xm1270,-623r-252,311r252,0r0,-311","w":1668},"\u00be":{"d":"429,35r-128,0r974,-1526r126,0xm595,-1270v0,98,-64,179,-135,205v110,36,165,112,165,227v0,169,-98,253,-295,253v-86,0,-154,-24,-205,-72r59,-102v33,36,82,54,148,54v109,0,163,-47,163,-142v0,-103,-73,-168,-184,-163r0,-102v102,2,154,-44,154,-139v0,-79,-46,-119,-139,-119v-57,0,-98,15,-124,44r-54,-91v37,-49,100,-73,187,-73v143,0,260,87,260,220xm1430,-210r0,210r-130,0r0,-210r-404,0r0,-68r492,-605r42,0r0,571r89,0r0,102r-89,0xm1300,-623r-252,311r252,0r0,-311","w":1668},"\u00b5":{"d":"795,-148v-41,95,-154,169,-287,168v-72,0,-133,-13,-183,-38r0,438r-190,0r0,-1491r190,0r0,623v0,201,78,302,235,302v111,0,206,-69,235,-149r0,-776r190,0r0,1071r-190,0r0,-148","w":1119},"\u2126":{"d":"1295,-745v-1,262,-121,486,-289,595r289,0r0,150r-500,0r0,-152v181,-171,290,-300,290,-593v0,-377,-138,-566,-415,-566v-277,0,-385,260,-385,566v0,210,150,518,290,595r0,150r-500,0r0,-150r269,0v-179,-139,-269,-338,-269,-595v0,-392,218,-748,595,-746v425,3,628,302,625,746","w":1370},"\u2206":{"d":"25,0r0,-124r526,-1341r144,0r480,1341r0,124r-1150,0xm619,-1216r-376,1046r725,0","w":1198},"\u00fd":{"d":"124,250v136,4,289,-72,289,-191v0,-149,-66,-269,-111,-385r-290,-745r194,0r315,828r283,-828r194,0r-454,1253v-46,135,-234,241,-420,238r0,-170xm755,-1618r-226,333r-140,0r169,-333r197,0","w":1010},"\u00d7":{"d":"544,-728r317,-317r100,99r-317,317r314,315r-100,100r-314,-315r-317,317r-100,-99r317,-317r-321,-321r100,-100"},"\u00ad":{"d":"159,-506r0,-175r428,0r0,175r-428,0","w":752},"\u20a3":{"d":"350,-1285r0,407r515,0r0,170r-515,0r0,207r149,0r0,160r-149,0r0,341r-200,0r0,-341r-135,0r0,-160r135,0r0,-964r905,0r0,180r-705,0","w":1075},"\u011e":{"d":"80,-727v0,-440,275,-763,712,-763v153,0,277,42,373,127r-83,165v-101,-75,-199,-112,-296,-112v-319,-2,-496,258,-496,591v0,320,177,566,486,564v107,0,193,-32,259,-96r0,-343r-203,0r0,-170r403,0r0,638v-96,87,-321,151,-501,151v-416,0,-654,-322,-654,-752xm716,-1739v103,0,202,-76,201,-171r143,0v-1,166,-155,325,-344,325v-192,0,-320,-141,-319,-325r141,0v-6,82,90,171,178,171","w":1385},"\u011f":{"d":"968,90v0,287,-396,394,-687,293v-76,-26,-138,-55,-185,-90r103,-152v111,74,213,111,306,111v139,0,278,-45,278,-155v0,-87,-63,-130,-188,-130v-42,0,-200,32,-247,32v-152,0,-228,-57,-228,-172v0,-86,102,-139,186,-158v-151,-71,-226,-193,-226,-368v0,-221,184,-392,406,-392v105,0,188,22,247,65r95,-114r124,117r-114,86v105,136,95,397,-28,520v-70,70,-156,113,-265,126v-86,10,-158,6,-232,37v-31,13,-47,29,-47,49v0,27,33,41,98,41v50,0,219,-31,269,-31v198,0,335,97,335,285xm714,-698v0,-126,-92,-240,-215,-240v-130,0,-224,111,-224,240v0,142,84,259,224,259v140,0,215,-114,215,-259xm466,-1439v103,0,202,-76,201,-171r143,0v-1,166,-155,325,-344,325v-192,0,-320,-141,-319,-325r141,0v-6,82,90,171,178,171","w":1028},"\u0130":{"d":"185,0r0,-1465r200,0r0,1465r-200,0xm166,-1703v0,-64,53,-117,117,-117v63,0,118,54,118,117v0,64,-54,118,-118,118v-63,0,-117,-55,-117,-118","w":570},"\u015e":{"d":"904,-370v-2,238,-222,395,-487,395v-130,0,-241,-31,-333,-92r73,-184v61,47,190,94,289,96v146,3,266,-90,259,-227v-8,-164,-76,-198,-238,-276v-119,-57,-275,-128,-327,-221v-37,-66,-60,-141,-60,-231v0,-222,184,-380,414,-380v162,0,275,26,338,79r-59,174v-49,-37,-186,-83,-274,-83v-168,0,-270,157,-198,309v45,96,87,103,212,164v120,59,277,131,331,227v38,67,60,149,60,250xm373,61v123,-4,209,80,209,193v0,139,-122,203,-277,201r-24,-99v87,1,182,-28,182,-102v0,-49,-30,-74,-90,-74r0,-119","w":985},"\u015f":{"d":"764,-287v-1,205,-161,307,-381,307v-113,0,-219,-28,-318,-84r67,-180v106,69,191,104,256,104v117,0,176,-49,176,-148v0,-71,-57,-130,-170,-182v-141,-66,-181,-78,-256,-162v-41,-46,-65,-101,-66,-179v-1,-184,155,-282,347,-280v78,0,176,25,295,74r-54,176v-75,-60,-151,-90,-227,-90v-80,0,-160,41,-161,113v0,69,40,119,117,156v172,81,377,137,375,375xm293,61v123,-4,209,80,209,193v0,139,-122,203,-277,201r-24,-99v87,1,182,-28,182,-102v0,-49,-30,-74,-90,-74r0,-119","w":829},"\u0106":{"d":"80,-728v0,-405,245,-762,631,-762v159,0,284,26,374,79r-67,171v-64,-47,-165,-70,-302,-70v-281,0,-426,285,-426,594v0,300,155,561,428,561v137,0,243,-49,317,-146r110,153v-116,115,-265,173,-448,173v-401,2,-617,-333,-617,-753xm954,-1918r-226,333r-140,0r169,-333r197,0","w":1225},"\u0107":{"d":"65,-525v0,-338,215,-566,555,-566v105,0,267,61,323,107r-94,134v-39,-39,-163,-82,-247,-81v-219,2,-337,173,-337,406v0,239,122,384,351,385v85,0,171,-33,258,-99r75,160v-102,66,-228,99,-379,99v-300,1,-505,-229,-505,-545xm834,-1618r-226,333r-140,0r169,-333r197,0","w":1014},"\u010c":{"d":"80,-728v0,-405,245,-762,631,-762v159,0,284,26,374,79r-67,171v-64,-47,-165,-70,-302,-70v-281,0,-426,285,-426,594v0,300,155,561,428,561v137,0,243,-49,317,-146r110,153v-116,115,-265,173,-448,173v-401,2,-617,-333,-617,-753xm1049,-1919r-305,334r-107,0r-298,-338r172,0r178,192r163,-188r197,0","w":1225},"\u010d":{"d":"65,-525v0,-338,215,-566,555,-566v105,0,267,61,323,107r-94,134v-39,-39,-163,-82,-247,-81v-219,2,-337,173,-337,406v0,239,122,384,351,385v85,0,171,-33,258,-99r75,160v-102,66,-228,99,-379,99v-300,1,-505,-229,-505,-545xm919,-1619r-305,334r-107,0r-298,-338r172,0r178,192r163,-188r197,0","w":1014},"\u0111":{"d":"75,-509v0,-294,212,-582,487,-582v111,0,195,26,252,78r0,-178r-249,0r0,-150r249,0r0,-169r190,0r0,169r119,0r0,150r-119,0r0,1190r-190,0r0,-79v-66,66,-162,99,-288,99v-280,1,-451,-231,-451,-528xm627,-150v54,0,181,-57,187,-89r0,-574v-48,-72,-114,-108,-197,-108v-213,0,-342,176,-342,394v0,251,117,377,352,377","w":1141},"\u00af":{"d":"-8,-1546r0,-129r1085,0r0,129r-1085,0"},"\u00b7":{"d":"205,-651v0,-80,70,-150,150,-150v80,0,150,70,150,150v0,80,-70,151,-150,151v-80,0,-150,-71,-150,-151","w":752},"\u0102":{"d":"982,0r-101,-309r-545,0r-108,309r-224,0r595,-1485r53,0r552,1485r-222,0xm616,-1101r-227,645r435,0xm610,-1739v103,0,202,-76,201,-171r143,0v-1,166,-155,325,-344,325v-192,0,-320,-141,-319,-325r141,0v-6,82,90,171,178,171","w":1208},"\u0103":{"d":"996,19v-150,-1,-218,-35,-256,-142v-76,95,-192,143,-349,143v-167,0,-314,-146,-311,-319v4,-275,344,-458,642,-362v0,-173,-77,-260,-232,-260v-119,0,-210,32,-274,96r-80,-159v64,-55,215,-108,332,-107v312,2,444,132,444,443r0,384v0,94,28,157,84,188r0,95xm596,-546v-169,-6,-326,100,-326,249v0,111,66,167,197,167v96,0,181,-46,255,-137r0,-259v-60,-13,-102,-20,-126,-20xm506,-1439v103,0,202,-76,201,-171r143,0v-1,166,-155,325,-344,325v-192,0,-320,-141,-319,-325r141,0v-6,82,90,171,178,171","w":1076},"\u0104":{"d":"1046,133v0,98,140,119,218,63r67,142v-64,23,-123,35,-178,35v-150,0,-272,-101,-272,-248v0,-75,27,-137,82,-184r-82,-250r-545,0r-108,309r-224,0r595,-1485r53,0r552,1485v-104,-12,-158,34,-158,133xm824,-456r-208,-645r-227,645r435,0","w":1208},"\u0105":{"d":"468,-1091v312,2,444,132,444,443r0,384v0,94,28,157,84,188r0,95v-21,0,-36,0,-47,-1v-43,25,-64,63,-64,115v0,107,144,114,218,63r67,142v-64,23,-123,35,-178,35v-150,0,-272,-101,-272,-248v0,-63,20,-120,61,-172v-17,-19,-30,-45,-41,-76v-76,95,-192,143,-349,143v-167,0,-314,-146,-311,-319v4,-275,344,-458,642,-362v0,-173,-77,-260,-232,-260v-119,0,-210,32,-274,96r-80,-159v64,-55,215,-108,332,-107xm596,-546v-169,-6,-326,100,-326,249v0,111,66,167,197,167v96,0,181,-46,255,-137r0,-259v-60,-13,-102,-20,-126,-20","w":1076},"\u010e":{"d":"512,-1475v406,-5,665,277,665,683v0,528,-244,792,-731,792r-295,0r0,-1465v188,-7,308,-10,361,-10xm517,-180v306,-4,450,-259,450,-595v0,-347,-156,-520,-467,-520v-19,0,-68,3,-149,10r0,1095v45,7,100,10,166,10xm940,-1919r-305,334r-107,0r-298,-338r172,0r178,192r163,-188r197,0","w":1256},"\u010f":{"d":"1280,-1271v5,-45,-69,-88,-69,-136v0,-69,34,-103,102,-103v72,0,108,41,108,124v0,125,-62,226,-185,303r-47,-63v66,-60,84,-56,91,-125xm75,-509v0,-294,212,-582,487,-582v111,0,195,26,252,78r0,-497r190,0r0,1509r-190,0r0,-79v-66,66,-162,99,-288,99v-280,1,-451,-231,-451,-528xm627,-140v56,0,172,-49,187,-89r0,-594v-48,-72,-114,-108,-197,-108v-210,-2,-342,185,-342,404v0,258,117,387,352,387","w":1416},"\u0110":{"d":"511,-1475v406,-5,665,277,665,683v0,528,-244,792,-731,792r-295,0r0,-691r-135,0r0,-160r135,0r0,-614v188,-7,308,-10,361,-10xm516,-180v306,-4,450,-259,450,-595v0,-347,-156,-520,-467,-520v-19,0,-68,3,-149,10r0,434r149,0r0,160r-149,0r0,501v45,7,100,10,166,10","w":1256},"\u0118":{"d":"865,373v-150,0,-275,-101,-272,-248v0,-44,11,-86,32,-125r-475,0r0,-1465r875,0r0,180r-674,0r0,407r483,0r0,170r-483,0r0,528r663,0r0,180r-158,0v-14,4,-89,49,-88,73v-27,81,0,154,101,154v36,0,72,-10,107,-31r67,142v-64,23,-123,35,-178,35","w":1097},"\u0119":{"d":"265,-517v-4,225,124,377,337,377v109,0,199,-32,272,-95r79,153v-81,61,-184,94,-309,100v-43,25,-64,63,-64,115v0,107,144,114,218,63r67,142v-64,23,-123,35,-178,35v-150,0,-275,-101,-272,-248v0,-31,7,-71,22,-121v-223,-53,-372,-252,-372,-527v0,-312,213,-568,502,-568v328,0,543,238,470,574r-772,0xm863,-655v1,-162,-120,-276,-287,-276v-165,0,-295,124,-306,276r593,0","w":1117},"\u011a":{"d":"350,-1285r0,407r484,0r0,170r-484,0r0,528r664,0r0,180r-864,0r0,-1465r875,0r0,180r-675,0xm939,-1919r-305,334r-107,0r-298,-338r172,0r178,192r163,-188r197,0","w":1097},"\u011b":{"d":"567,-1091v328,-5,542,237,470,574r-772,0v-4,223,123,376,337,377v109,0,199,-32,272,-95r80,137v-75,71,-237,118,-389,118v-292,0,-500,-239,-500,-543v0,-310,210,-564,502,-568xm863,-655v1,-163,-120,-276,-287,-276v-165,0,-295,123,-306,276r593,0xm909,-1619r-305,334r-107,0r-298,-338r172,0r178,192r163,-188r197,0","w":1117},"\u0139":{"d":"150,0r0,-1465r200,0r0,1285r662,0r0,180r-862,0xm604,-1918r-226,333r-140,0r169,-333r197,0","w":1037},"\u013a":{"d":"340,-335v-2,111,71,186,179,185r0,170v-246,0,-369,-108,-369,-323r0,-1207r190,0r0,1175xm544,-1918r-226,333r-140,0r169,-333r197,0","w":604},"\u013d":{"d":"630,-1252v5,-45,-69,-88,-69,-136v0,-69,34,-103,102,-103v72,0,108,41,108,124v0,125,-62,226,-185,303r-47,-63v66,-60,84,-56,91,-125xm150,0r0,-1465r200,0r0,1285r662,0r0,180r-862,0","w":1037},"\u013e":{"d":"570,-1271v5,-45,-69,-88,-69,-136v0,-69,34,-103,102,-103v72,0,108,41,108,124v0,125,-62,226,-185,303r-47,-63v66,-60,84,-56,91,-125xm340,-335v-2,111,71,186,179,185r0,170v-246,0,-369,-108,-369,-323r0,-1207r190,0r0,1175","w":604},"\u013f":{"d":"150,0r0,-1465r200,0r0,1285r662,0r0,180r-862,0xm578,-733v0,-64,53,-117,117,-117v63,0,118,54,118,117v0,64,-54,118,-118,118v-63,0,-117,-55,-117,-118","w":1037},"\u0140":{"d":"340,-335v-2,111,71,186,179,185r0,170v-246,0,-369,-108,-369,-323r0,-1207r190,0r0,1175xm518,-773v0,-64,53,-117,117,-117v63,0,118,54,118,117v0,64,-54,118,-118,118v-63,0,-117,-55,-117,-118","w":675},"\u0143":{"d":"1097,20r-757,-1071r0,1051r-190,0r0,-1465r80,0r737,1013r0,-1013r190,0r0,1485r-60,0xm864,-1918r-226,333r-140,0r169,-333r197,0","w":1307},"\u0144":{"d":"570,-931v-97,0,-205,70,-245,135r0,796r-190,0r0,-1071r130,0r60,138v63,-105,165,-158,307,-158v235,0,352,143,352,428r0,663r-190,0r0,-623v-3,-206,-39,-308,-224,-308xm794,-1618r-226,333r-140,0r169,-333r197,0","w":1119},"\u0147":{"d":"1097,20r-757,-1071r0,1051r-190,0r0,-1465r80,0r737,1013r0,-1013r190,0r0,1485r-60,0xm959,-1919r-305,334r-107,0r-298,-338r172,0r178,192r163,-188r197,0","w":1307},"\u0148":{"d":"570,-931v-97,0,-205,70,-245,135r0,796r-190,0r0,-1071r130,0r60,138v63,-105,165,-158,307,-158v235,0,352,143,352,428r0,663r-190,0r0,-623v-3,-206,-39,-308,-224,-308xm929,-1619r-305,334r-107,0r-298,-338r172,0r178,192r163,-188r197,0","w":1119},"\u0150":{"d":"670,25v-391,1,-590,-358,-590,-770v0,-392,213,-746,590,-746v425,0,630,303,630,746v0,450,-202,768,-630,770xm670,-155v303,0,420,-257,420,-590v0,-377,-140,-566,-420,-566v-124,0,-217,52,-283,152v-129,194,-125,633,3,835v70,110,159,169,280,169xm750,-1868r-199,283r-140,0r142,-283r197,0xm1120,-1868r-199,283r-140,0r142,-283r197,0","w":1380},"\u0151":{"d":"550,20v-315,0,-485,-234,-485,-558v0,-312,186,-553,485,-553v317,0,484,224,484,553v0,326,-173,558,-484,558xm550,-936v-194,0,-285,180,-285,398v0,269,95,403,285,403v197,0,284,-183,284,-403v0,-265,-95,-398,-284,-398xm620,-1568r-199,283r-140,0r142,-283r197,0xm990,-1568r-199,283r-140,0r142,-283r197,0","w":1099},"\u0154":{"d":"1054,-1060v0,182,-138,356,-287,386r425,674r-229,0r-391,-629v-45,0,-115,-3,-212,-10r0,639r-200,0r0,-1465r366,-15v352,0,528,140,528,420xm844,-1064v0,-229,-238,-247,-484,-221r0,476v48,7,95,10,140,10v226,-3,344,-50,344,-265xm744,-1918r-226,333r-140,0r169,-333r197,0","w":1192},"\u0155":{"d":"717,-888v-185,-134,-377,70,-377,274r0,614r-190,0r0,-1071r190,0r0,171v99,-171,233,-223,456,-173xm694,-1618r-226,333r-140,0r169,-333r197,0","w":796},"\u0158":{"d":"1054,-1060v0,182,-138,356,-287,386r425,674r-229,0r-391,-629v-45,0,-115,-3,-212,-10r0,639r-200,0r0,-1465r366,-15v352,0,528,140,528,420xm844,-1064v0,-229,-238,-247,-484,-221r0,476v48,7,95,10,140,10v226,-3,344,-50,344,-265xm920,-1919r-305,334r-107,0r-298,-338r172,0r178,192r163,-188r197,0","w":1192},"\u0159":{"d":"717,-888v-185,-134,-377,70,-377,274r0,614r-190,0r0,-1071r190,0r0,171v99,-171,233,-223,456,-173xm809,-1619r-305,334r-107,0r-298,-338r172,0r178,192r163,-188r197,0","w":796},"\u015a":{"d":"904,-370v-2,238,-222,395,-487,395v-130,0,-241,-31,-333,-92r73,-184v61,47,190,94,289,96v146,3,266,-90,259,-227v-8,-164,-76,-198,-238,-276v-119,-57,-275,-128,-327,-221v-37,-66,-60,-141,-60,-231v0,-222,184,-380,414,-380v162,0,275,26,338,79r-59,174v-49,-37,-186,-83,-274,-83v-168,0,-270,157,-198,309v45,96,87,103,212,164v120,59,277,131,331,227v38,67,60,149,60,250xm760,-1918r-226,333r-140,0r169,-333r197,0","w":985},"\u015b":{"d":"764,-287v-1,205,-161,307,-381,307v-113,0,-219,-28,-318,-84r67,-180v106,69,191,104,256,104v117,0,176,-49,176,-148v0,-71,-57,-130,-170,-182v-141,-66,-181,-78,-256,-162v-41,-46,-65,-101,-66,-179v-1,-184,155,-282,347,-280v78,0,176,25,295,74r-54,176v-75,-60,-151,-90,-227,-90v-80,0,-160,41,-161,113v0,69,40,119,117,156v172,81,377,137,375,375xm654,-1618r-226,333r-140,0r169,-333r197,0","w":829},"\u021a":{"d":"548,349v5,-45,-69,-88,-69,-136v0,-69,34,-103,102,-103v72,0,108,41,108,124v0,125,-62,226,-185,303r-47,-63v66,-60,84,-56,91,-125xm684,-1285r0,1285r-200,0r0,-1285r-466,0r0,-180r1153,0r0,180r-487,0","w":1189},"\u021b":{"d":"430,349v5,-45,-69,-88,-69,-136v0,-69,34,-103,102,-103v72,0,108,41,108,124v0,125,-62,226,-185,303r-47,-63v66,-60,84,-56,91,-125xm505,20v-172,0,-302,-153,-302,-333r0,-608r-124,0r0,-150r124,0r0,-224r190,-73r0,297r294,0r0,150r-294,0r0,532v1,165,41,249,192,249v49,0,99,-12,151,-37r28,167v-79,20,-165,30,-259,30","w":812},"\u0164":{"d":"684,-1285r0,1285r-200,0r0,-1285r-466,0r0,-180r1153,0r0,180r-487,0xm949,-1919r-305,334r-107,0r-298,-338r172,0r178,192r163,-188r197,0","w":1189},"\u0165":{"d":"853,-1140v5,-45,-69,-88,-69,-136v0,-69,34,-103,102,-103v72,0,108,41,108,124v0,125,-62,226,-185,303r-47,-63v66,-60,84,-56,91,-125xm505,20v-172,0,-302,-153,-302,-333r0,-608r-124,0r0,-150r124,0r0,-224r190,-73r0,297r294,0r0,150r-294,0r0,532v1,165,41,249,192,249v49,0,99,-12,151,-37r28,167v-79,20,-165,30,-259,30","w":1016},"\u016e":{"d":"662,25v-318,0,-513,-161,-512,-472r0,-1018r200,0r0,1003v-2,178,129,307,310,307v194,0,318,-120,318,-312r0,-998r200,0r0,1019v2,301,-209,471,-516,471xm466,-1695v0,-113,98,-209,212,-209v114,0,211,96,211,209v0,113,-98,210,-211,210v-114,0,-212,-97,-212,-210xm576,-1695v0,54,48,100,102,100v54,0,101,-46,101,-100v0,-54,-47,-99,-101,-99v-54,0,-102,45,-102,99","w":1328},"\u016f":{"d":"488,20v-238,0,-363,-146,-363,-388r0,-703r190,0r0,683v0,165,72,248,215,248v123,0,245,-88,275,-179r0,-752r190,0r0,1071r-190,0r0,-148v-36,79,-199,168,-317,168xm376,-1495v0,-113,98,-209,212,-209v114,0,211,96,211,209v0,113,-98,210,-211,210v-114,0,-212,-97,-212,-210xm486,-1495v0,54,48,100,102,100v54,0,101,-46,101,-100v0,-54,-47,-99,-101,-99v-54,0,-102,45,-102,99","w":1119},"\u0170":{"d":"662,25v-318,0,-513,-161,-512,-472r0,-1018r200,0r0,1003v-2,178,129,307,310,307v194,0,318,-120,318,-312r0,-998r200,0r0,1019v2,301,-209,471,-516,471xm720,-1868r-199,283r-140,0r142,-283r197,0xm1090,-1868r-199,283r-140,0r142,-283r197,0","w":1328},"\u0171":{"d":"488,20v-238,0,-363,-146,-363,-388r0,-703r190,0r0,683v0,165,72,248,215,248v123,0,245,-88,275,-179r0,-752r190,0r0,1071r-190,0r0,-148v-36,79,-199,168,-317,168xm630,-1568r-199,283r-140,0r142,-283r197,0xm1000,-1568r-199,283r-140,0r142,-283r197,0","w":1119},"\u0179":{"d":"100,0r0,-50r630,-1235r-620,0r0,-180r895,0r0,50r-632,1235r654,0r0,180r-927,0xm703,-1918r-226,333r-140,0r169,-333r197,0","w":1127},"\u017a":{"d":"338,-170r594,0r0,170r-892,0r0,-50r609,-851r-599,0r0,-170r876,0r0,54xm673,-1618r-226,333r-140,0r169,-333r197,0","w":972},"\u017b":{"d":"100,0r0,-50r630,-1235r-620,0r0,-180r895,0r0,50r-632,1235r654,0r0,180r-927,0xm377,-1703v0,-64,53,-117,117,-117v63,0,118,54,118,117v0,64,-54,118,-118,118v-63,0,-117,-55,-117,-118","w":1127},"\u017c":{"d":"338,-170r594,0r0,170r-892,0r0,-50r609,-851r-599,0r0,-170r876,0r0,54xm377,-1403v0,-64,53,-117,117,-117v63,0,118,54,118,117v0,64,-54,118,-118,118v-63,0,-117,-55,-117,-118","w":972},"\u00a4":{"d":"932,-246r-143,-144v-160,112,-345,112,-506,0r-143,144r-84,-88r143,-140v-109,-170,-110,-333,0,-503r-143,-140r84,-88r143,143v161,-111,346,-111,506,0r143,-143r85,88r-143,140v110,170,109,333,0,503r143,140xm535,-1025v-162,0,-299,137,-299,299v0,162,137,300,299,300v161,0,299,-139,299,-300v0,-162,-137,-299,-299,-299"},"\u037e":{"d":"204,-941v0,-80,70,-150,150,-150v80,0,150,70,150,150v0,80,-70,151,-150,151v-80,0,-150,-71,-150,-151xm373,-277v74,0,146,82,142,160v-14,257,-101,330,-291,480r-51,-72v115,-94,172,-174,172,-240v0,-29,-10,-59,-30,-88v-57,-27,-86,-67,-86,-118v-1,-73,67,-122,144,-122","w":752},"\u0384":{"d":"731,-1618r-178,334r-158,0r111,-334r225,0","w":1073},"\u0385":{"d":"672,-1618r-117,354r-117,0r58,-354r176,0xm713,-1407v0,-62,48,-111,110,-111v63,0,117,49,117,111v0,61,-53,115,-115,115v-62,0,-112,-53,-112,-115xm246,-1518v64,0,111,54,114,111v3,62,-50,115,-112,115v-63,0,-115,-52,-115,-115v0,-62,51,-111,113,-111","w":1073},"\u0386":{"d":"981,0r-100,-309r-545,0r-109,309r-223,0r594,-1485r53,0r553,1485r-223,0xm616,-1102r-227,645r434,0xm373,-1464r-164,350r-154,0r101,-350r217,0","w":1208},"\u0387":{"d":"207,-653v0,-83,69,-152,149,-152v80,0,152,72,152,152v0,74,-69,151,-152,151v-80,0,-149,-70,-149,-151","w":754},"\u0388":{"d":"575,-1284r0,405r484,0r0,170r-484,0r0,529r664,0r0,180r-864,0r0,-1464r874,0r0,180r-674,0xm223,-1464r-164,350r-153,0r100,-350r217,0","w":1323},"\u0389":{"d":"1214,0r0,-709r-639,0r0,709r-200,0r0,-1464r200,0r0,585r639,0r0,-585r201,0r0,1464r-201,0xm223,-1464r-164,350r-153,0r100,-350r217,0","w":1565},"\u038a":{"d":"375,0r0,-1464r200,0r0,1464r-200,0xm223,-1464r-164,350r-153,0r100,-350r217,0","w":760},"\u038c":{"d":"772,25v-393,0,-590,-357,-590,-770v0,-293,116,-538,286,-656v86,-60,187,-90,304,-90v426,-2,631,306,631,746v0,447,-203,770,-631,770xm772,-156v305,0,420,-253,420,-589v0,-377,-140,-566,-420,-566v-121,0,-213,51,-280,149v-130,188,-127,630,-2,835v68,112,158,171,282,171xm223,-1464r-164,350r-153,0r100,-350r217,0","w":1483},"\u038e":{"d":"1004,-655r0,655r-199,0r0,-655r-473,-809r207,0r364,639r365,-639r207,0xm223,-1464r-164,350r-153,0r100,-350r217,0","w":1462},"\u038f":{"d":"811,-1499v394,0,620,297,614,700v-4,248,-121,488,-260,637v64,-7,158,-10,283,-10r0,172r-555,0r0,-51v103,-129,183,-253,238,-371v55,-118,83,-242,83,-371v0,-306,-124,-523,-405,-526v-265,-3,-401,238,-401,516v0,126,27,249,82,369v55,120,135,247,239,383r0,51r-555,0r0,-172v122,0,215,3,279,10v-171,-207,-256,-420,-256,-639v0,-380,240,-698,614,-698xm223,-1464r-164,350r-153,0r100,-350r217,0","w":1520},"\u0390":{"d":"483,18v-221,0,-331,-103,-331,-309r0,-780r192,0r0,756v0,109,46,167,139,174r0,159xm399,-1618r-118,354r-115,0r57,-354r176,0xm440,-1407v0,-62,49,-111,111,-111v62,0,115,49,115,111v0,61,-54,115,-115,115v-62,0,-111,-53,-111,-115xm-139,-1407v0,-61,51,-111,112,-111v62,0,113,49,113,111v0,62,-50,115,-113,115v-63,0,-112,-53,-112,-115","w":569},"\u0391":{"d":"981,0r-100,-309r-545,0r-109,309r-223,0r594,-1485r53,0r553,1485r-223,0xm616,-1102r-227,645r434,0","w":1208},"\u0392":{"d":"1079,-424v0,271,-227,424,-512,424r-417,0r0,-1464v166,-10,294,-15,385,-15v264,-1,451,112,454,363v1,134,-131,269,-244,291v223,49,334,183,334,401xm350,-1305r0,420v41,4,93,6,156,6v190,0,285,-77,285,-231v0,-135,-88,-203,-263,-203v-49,0,-109,3,-178,8xm868,-455v0,-204,-125,-278,-331,-279v-6,0,-68,2,-187,5r0,559v293,33,518,-4,518,-285","w":1159},"\u0393":{"d":"1004,-1284r-652,0r0,1284r-202,0r0,-1464r854,0r0,180","w":1044},"\u0395":{"d":"350,-1284r0,405r484,0r0,170r-484,0r0,529r664,0r0,180r-864,0r0,-1464r874,0r0,180r-674,0","w":1098},"\u0396":{"d":"100,0r0,-49r629,-1235r-618,0r0,-180r895,0r0,49r-633,1235r653,0r0,180r-926,0","w":1126},"\u0397":{"d":"989,0r0,-709r-639,0r0,709r-200,0r0,-1464r200,0r0,585r639,0r0,-585r201,0r0,1464r-201,0","w":1339},"\u0398":{"d":"705,25v-413,0,-630,-330,-625,-770v3,-286,114,-521,292,-645v182,-126,464,-131,663,-16v191,110,296,367,300,661v5,437,-229,770,-630,770xm707,-1315v-296,0,-420,246,-420,570v0,187,37,333,111,437v74,104,177,156,311,156v134,0,237,-48,310,-145v73,-97,109,-246,109,-448v0,-326,-125,-570,-421,-570xm997,-664r-579,0r0,-176r579,0r0,176","w":1415},"\u0399":{"d":"184,0r0,-1464r201,0r0,1464r-201,0","w":569},"\u039a":{"d":"958,0r-413,-674r-195,277r0,397r-200,0r0,-1464r200,0r0,796r545,-796r221,0r-436,635r500,829r-222,0","w":1180},"\u039b":{"d":"1192,0r-225,0r-359,-1071r-377,1071r-223,0r580,-1485r53,0","w":1200},"\u039c":{"d":"1253,0r-174,-940r-319,960r-51,0r-328,-960r-170,940r-191,0r275,-1464r90,0r348,1069r324,-1069r90,0r297,1464r-191,0","w":1452},"\u039d":{"d":"1098,20r-758,-1071r0,1051r-190,0r0,-1464r79,0r738,1011r0,-1011r190,0r0,1484r-59,0","w":1307},"\u039e":{"d":"1120,0r-1018,0r0,-170r412,0r0,-541r-299,0r0,-159r299,0r0,-426r-399,0r0,-168r993,0r0,168r-399,0r0,426r299,0r0,159r-299,0r0,541r411,0r0,170","w":1223},"\u039f":{"d":"670,25v-394,0,-590,-357,-590,-770v0,-393,213,-746,590,-746v425,0,630,306,630,746v0,447,-202,770,-630,770xm670,-156v305,0,420,-253,420,-589v0,-377,-140,-566,-420,-566v-121,0,-212,51,-280,149v-130,188,-127,638,0,838v69,109,159,168,280,168","w":1380},"\u03a0":{"d":"1151,0r-201,0r0,-1284r-600,0r0,1284r-200,0r0,-1464r1001,0r0,1464","w":1300},"\u03a1":{"d":"350,-563r0,563r-200,0r0,-1464v126,-7,217,-11,274,-11v426,0,639,142,639,426v0,329,-188,494,-565,494v-31,0,-81,-3,-148,-8xm350,-1284r0,541r133,10v249,0,373,-98,373,-293v0,-179,-132,-268,-397,-268v-35,0,-71,3,-109,10","w":1143},"\u03a3":{"d":"1040,-1284r-616,0r373,483r-441,621r676,0r0,180r-991,0r0,-49r522,-731r-483,-637r0,-47r960,0r0,180","w":1110},"\u03a4":{"d":"684,-1284r0,1284r-201,0r0,-1284r-465,0r0,-180r1153,0r0,180r-487,0","w":1190},"\u03a5":{"d":"709,-655r0,655r-199,0r0,-655r-473,-809r207,0r364,639r365,-639r207,0","w":1167},"\u03a6":{"d":"74,-737v0,-361,247,-628,606,-635r0,-152r199,0r0,152v351,9,606,263,606,618v0,360,-248,633,-606,639r0,152r-199,0r0,-152v-351,-9,-606,-267,-606,-622xm877,-270v262,-10,407,-204,407,-480v0,-267,-150,-459,-407,-467r0,947xm682,-1217v-263,10,-408,200,-408,476v0,267,151,463,408,471r0,-947","w":1561},"\u03a7":{"d":"915,0r-364,-588r-336,588r-203,0r432,-760r-397,-706r199,2r311,553r346,-553r201,0r-455,708r477,756r-211,0","w":1141},"\u03a8":{"d":"891,-514v222,-15,375,-165,375,-387r0,-563r198,0r0,557v-2,334,-244,529,-571,555r0,356r-199,0r0,-354v-334,-19,-575,-207,-575,-541r0,-573r198,0r0,555v1,228,154,382,379,395r0,-950r195,0r0,950","w":1583},"\u03aa":{"d":"184,0r0,-1464r201,0r0,1464r-201,0xm412,-1706v0,-62,48,-113,110,-113v62,0,115,52,115,113v0,63,-53,113,-115,113v-62,0,-110,-51,-110,-113xm-63,-1706v0,-61,51,-113,112,-113v62,0,113,52,113,113v0,63,-51,113,-113,113v-61,0,-112,-52,-112,-113","w":569},"\u03ab":{"d":"709,-655r0,655r-199,0r0,-655r-473,-809r207,0r364,639r365,-639r207,0xm733,-1706v0,-61,51,-113,113,-113v61,0,112,52,112,113v0,62,-50,113,-112,113v-62,0,-113,-52,-113,-113xm258,-1706v0,-63,51,-113,113,-113v61,0,114,52,114,113v0,61,-53,113,-114,113v-62,0,-113,-52,-113,-113","w":1167},"\u03ac":{"d":"1008,-279v0,111,24,158,104,183r0,114v-169,-2,-234,-26,-276,-145v-73,98,-173,147,-301,147v-293,-1,-455,-235,-455,-550v0,-314,192,-562,498,-562v99,0,189,37,268,111v52,-88,112,-110,254,-111r0,109v-71,29,-92,64,-92,164r0,540xm281,-532v0,225,109,391,309,391v87,0,162,-43,227,-129r0,-572v-63,-60,-132,-90,-207,-90v-218,-1,-329,171,-329,400xm825,-1618r-178,334r-158,0r111,-334r225,0","w":1192},"\u03ad":{"d":"287,-301v0,116,98,166,227,166v104,0,202,-38,293,-113r90,144v-125,83,-258,124,-401,124v-234,0,-412,-100,-412,-307v0,-121,77,-209,231,-266v-109,-25,-204,-106,-204,-223v0,-201,168,-316,391,-316v108,0,224,28,348,84r-70,154v-107,-55,-204,-82,-291,-82v-102,0,-181,52,-180,150v2,109,95,154,219,153v53,0,99,-1,138,-4r0,154v-36,-4,-87,-6,-154,-6v-132,-2,-225,65,-225,188xm743,-1618r-178,334r-157,0r110,-334r225,0","w":956},"\u03ae":{"d":"639,-1092v244,0,344,177,344,441r0,930r-188,47r0,-949v0,-206,-46,-309,-220,-309v-101,0,-199,77,-241,144r0,788r-191,0r0,-1071r129,0r60,133v76,-103,178,-154,307,-154xm834,-1618r-179,334r-157,0r110,-334r226,0","w":1126},"\u03af":{"d":"483,18v-221,0,-331,-103,-331,-309r0,-780r192,0r0,756v0,109,46,167,139,174r0,159xm489,-1618r-178,334r-157,0r110,-334r225,0","w":569},"\u03b0":{"d":"555,-135v185,0,243,-112,244,-311r0,-629r188,0r0,610v-1,331,-117,483,-432,483v-303,0,-420,-164,-420,-479r0,-614r191,0r0,624v0,211,76,316,229,316xm690,-1618r-119,354r-114,0r57,-354r176,0xm731,-1407v0,-62,49,-111,111,-111v62,0,114,49,114,111v0,61,-53,115,-114,115v-62,0,-111,-53,-111,-115xm152,-1407v0,-62,50,-111,112,-111v62,0,113,49,113,111v0,62,-52,115,-113,115v-63,0,-112,-53,-112,-115","w":1128},"\u03b1":{"d":"1008,-279v0,111,24,158,104,183r0,114v-169,-2,-234,-26,-276,-145v-73,98,-173,147,-301,147v-293,-1,-455,-235,-455,-550v0,-314,192,-562,498,-562v99,0,189,37,268,111v52,-88,112,-110,254,-111r0,109v-71,29,-92,64,-92,164r0,540xm281,-532v0,225,109,391,309,391v87,0,162,-43,227,-129r0,-572v-63,-60,-132,-90,-207,-90v-218,-1,-329,171,-329,400","w":1192},"\u03b2":{"d":"961,-1165v-2,155,-120,277,-250,317v214,39,358,175,362,408v5,262,-197,460,-459,460v-135,0,-238,-35,-309,-106r-69,104r-93,0r0,-1067v-2,-271,157,-467,426,-467v220,0,395,137,392,351xm565,-1364v-163,2,-237,128,-235,307r0,148r162,0v158,3,278,-100,278,-252v0,-120,-83,-205,-205,-203xm877,-434v-3,-214,-158,-333,-392,-328r-155,0r0,526v48,55,145,102,239,103v186,2,310,-117,308,-301","w":1155},"\u03b3":{"d":"1092,-1071r-428,1030r0,461r-195,0r0,-445v-71,-243,-135,-437,-193,-584v-58,-147,-102,-235,-133,-265v-31,-30,-69,-44,-114,-44r0,-161v164,1,233,29,297,127v100,154,186,459,254,702r309,-821r203,0","w":1112},"\u03b4":{"d":"74,-539v4,-294,152,-542,434,-542v35,0,67,3,98,10r-307,-385r0,-53r688,0r0,153r-399,0v30,23,102,99,208,233v174,218,238,296,246,588v9,316,-175,555,-485,555v-315,0,-487,-234,-483,-559xm557,-135v201,0,285,-187,285,-404v0,-159,-45,-289,-135,-389v-39,-12,-81,-18,-127,-18v-210,0,-308,184,-308,407v0,269,95,404,285,404","w":1133},"\u03b5":{"d":"287,-301v0,116,98,166,227,166v104,0,202,-38,293,-113r90,144v-125,83,-258,124,-401,124v-234,0,-412,-100,-412,-307v0,-121,77,-209,231,-266v-109,-25,-204,-106,-204,-223v0,-201,168,-316,391,-316v108,0,224,28,348,84r-70,154v-107,-55,-204,-82,-291,-82v-102,0,-181,52,-180,150v2,109,95,154,219,153v51,0,97,-1,138,-4r0,154v-36,-4,-87,-6,-154,-6v-132,-2,-225,65,-225,188","w":956},"\u03b6":{"d":"481,252v105,43,242,11,242,-107v0,-73,-54,-116,-113,-127v-30,-5,-76,-12,-139,-14v-241,-7,-397,-162,-397,-412v0,-136,40,-276,122,-422v82,-146,221,-321,418,-524r-397,0r0,-155r692,0r0,53v-214,229,-371,423,-473,582v-102,159,-153,306,-153,442v0,199,95,265,303,280v183,12,317,99,319,281v3,216,-228,337,-459,277","w":907},"\u03b7":{"d":"639,-1092v244,0,344,177,344,441r0,930r-188,47r0,-949v0,-206,-46,-309,-220,-309v-101,0,-199,77,-241,144r0,788r-191,0r0,-1071r129,0r60,133v76,-103,178,-154,307,-154","w":1126},"\u03b8":{"d":"561,-1516v145,0,253,69,341,198v162,238,157,905,2,1140v-85,129,-198,198,-351,198v-146,0,-255,-69,-342,-196v-162,-238,-156,-903,0,-1139v87,-131,199,-201,350,-201xm829,-854v-3,-145,-27,-265,-73,-362v-46,-97,-114,-146,-203,-146v-163,0,-253,169,-268,508r544,0xm831,-702r-548,0v9,379,101,569,278,569v175,0,265,-190,270,-569","w":1114},"\u03b9":{"d":"483,18v-221,0,-331,-103,-331,-309r0,-780r192,0r0,756v0,109,46,167,139,174r0,159","w":569},"\u03ba":{"d":"1075,0r-248,0r-331,-485r-160,178r0,307r-191,0r0,-1071r191,0r0,530r442,-530r242,0r-399,450","w":1116},"\u03bb":{"d":"1063,0r-211,0r-272,-868r-342,868r-211,0r465,-1090v-27,-93,-51,-162,-77,-204v-52,-84,-153,-77,-255,-27r-51,-160v160,-52,342,-54,431,47v48,55,88,131,119,226","w":1085},"\u03bd":{"d":"999,-1071r-469,1091r-49,0r-461,-1091r213,0r281,737r281,-737r204,0","w":1020},"\u03be":{"d":"336,-1149v2,169,144,248,330,246r143,0r0,155r-174,0v-175,-1,-360,147,-350,340v10,195,99,245,317,258v186,12,322,96,324,279v2,172,-155,291,-334,291v-52,0,-98,-5,-137,-14r34,-154v106,40,254,17,254,-107v0,-128,-126,-140,-254,-141v-239,-4,-413,-147,-411,-387v2,-226,143,-373,325,-436v-152,-25,-267,-142,-268,-311v-2,-242,197,-386,447,-386v106,0,208,20,305,60r-62,160v-75,-43,-159,-64,-252,-64v-141,-1,-238,74,-237,211","w":942},"\u03bf":{"d":"74,-539v0,-310,187,-553,485,-553v316,0,483,228,483,553v0,329,-177,558,-483,559v-315,1,-485,-232,-485,-559xm559,-936v-195,0,-287,182,-287,397v0,269,96,404,287,404v196,0,283,-189,283,-404v0,-265,-94,-397,-283,-397","w":1116},"\u03c1":{"d":"1087,-537v0,314,-178,557,-483,557v-120,0,-215,-28,-285,-83r0,483r-190,0r0,-877v0,-219,43,-379,128,-481v85,-102,200,-154,343,-154v312,0,487,236,487,555xm600,-936v-195,0,-276,204,-276,422r0,297v64,52,143,78,237,78v223,-1,326,-153,326,-389v0,-226,-89,-408,-287,-408","w":1169},"\u03c2":{"d":"74,-524v-3,-337,211,-571,540,-568v113,0,212,30,295,91r-84,137v-67,-45,-141,-68,-221,-68v-217,0,-332,176,-332,408v0,189,114,305,342,352v191,40,315,100,320,301v5,216,-227,337,-457,277r33,-154v105,41,250,14,242,-107v-8,-121,-70,-140,-215,-159v-277,-37,-460,-212,-463,-510","w":940},"\u03c3":{"d":"74,-510v0,-327,211,-561,532,-561r516,0r0,158r-319,0v129,96,242,239,246,430v6,285,-194,503,-486,503v-304,0,-489,-222,-489,-530xm571,-135v185,1,279,-156,277,-346v-2,-184,-118,-348,-238,-432v-224,-1,-338,158,-338,391v0,215,97,386,299,387","w":1167},"\u03c4":{"d":"580,18v-179,0,-273,-109,-273,-292r0,-637r-270,0r0,-160r825,0r0,160r-364,0r0,608v1,100,25,158,118,160v31,0,66,-8,107,-25r25,160v-57,17,-113,26,-168,26","w":905},"\u03c5":{"d":"559,-135v185,0,242,-110,242,-309r0,-627r190,0r0,604v0,323,-146,485,-438,485v-297,0,-416,-172,-416,-483r0,-606r191,0r0,622v0,209,77,314,231,314","w":1128},"\u03c6":{"d":"627,18v-335,-12,-551,-210,-551,-542v0,-264,132,-466,313,-570r103,131v-149,105,-224,254,-224,447v0,219,152,371,361,385r0,-565v-3,-244,96,-394,313,-398v268,-4,427,261,424,545v-4,332,-221,549,-549,567r0,402r-190,0r0,-402xm815,-129v217,-16,362,-167,361,-397v0,-117,-22,-216,-66,-296v-44,-80,-100,-120,-168,-120v-85,0,-127,71,-127,213r0,600","w":1446},"\u03c7":{"d":"1022,0r-236,0r-274,-410r-266,410r-226,0r398,-549r-365,-522r223,0r240,377r254,-377r215,0r-377,514","w":1042},"\u03c8":{"d":"834,-129v211,-20,321,-163,321,-393r0,-549r186,0r0,534v0,338,-183,532,-505,555r0,402r-191,0r0,-402v-341,-23,-512,-205,-512,-546r0,-543r191,0r0,547v0,226,114,374,323,393r0,-940r187,0r0,942","w":1475},"\u03c9":{"d":"866,-330v48,121,81,195,217,195v133,0,199,-114,199,-342v0,-199,-79,-367,-238,-504r134,-119v199,165,299,370,299,615v0,293,-131,504,-408,505v-132,0,-229,-65,-291,-196v-67,131,-165,196,-293,196v-271,0,-405,-207,-405,-493v0,-252,101,-461,303,-627r127,117v-133,108,-233,285,-236,502v-2,192,59,346,224,346v81,0,111,-35,152,-97v24,-38,36,-64,36,-75r0,-199v0,-107,-3,-196,-8,-268r196,0v-10,104,-8,307,-8,444","w":1556},"\u03ca":{"d":"483,18v-221,0,-331,-103,-331,-309r0,-780r192,0r0,756v0,109,46,167,139,174r0,159xm377,-1407v0,-61,51,-111,112,-111v62,0,113,49,113,111v0,63,-49,115,-113,115v-62,0,-112,-53,-112,-115xm-96,-1407v0,-61,51,-111,112,-111v62,0,111,49,111,111v0,62,-48,115,-111,115v-63,0,-112,-53,-112,-115","w":569},"\u03cb":{"d":"555,-135v185,0,243,-112,244,-311r0,-629r188,0r0,610v-1,331,-117,483,-432,483v-303,0,-420,-164,-420,-479r0,-614r191,0r0,624v0,211,76,316,229,316xm686,-1407v0,-62,51,-111,113,-111v61,0,112,50,112,111v0,62,-49,115,-112,115v-61,0,-113,-53,-113,-115xm213,-1407v0,-62,51,-111,113,-111v61,0,112,50,112,111v0,62,-50,115,-112,115v-63,0,-113,-53,-113,-115","w":1128},"\u03cc":{"d":"74,-539v0,-310,187,-553,485,-553v316,0,483,228,483,553v0,329,-177,558,-483,559v-315,1,-485,-232,-485,-559xm559,-936v-195,0,-287,182,-287,397v0,269,96,404,287,404v196,0,283,-189,283,-404v0,-265,-94,-397,-283,-397xm799,-1618r-178,334r-158,0r117,-334r219,0","w":1116},"\u03cd":{"d":"559,-135v185,0,242,-110,242,-309r0,-627r190,0r0,604v0,323,-146,485,-438,485v-297,0,-416,-172,-416,-483r0,-606r191,0r0,622v0,209,77,314,231,314xm809,-1618r-178,334r-162,0r102,-334r238,0","w":1128},"\u03ce":{"d":"866,-330v48,121,81,195,217,195v133,0,199,-114,199,-342v0,-198,-79,-366,-238,-504r134,-119v170,140,295,340,299,615v4,294,-130,504,-408,505v-132,0,-229,-65,-291,-196v-67,131,-165,196,-293,196v-271,0,-405,-207,-405,-493v0,-252,101,-461,303,-627r127,117v-133,108,-233,285,-236,502v-2,192,59,346,224,346v82,0,112,-33,152,-97v24,-39,36,-64,36,-75r0,-199v0,-107,-3,-196,-8,-268r196,0v-10,104,-8,307,-8,444xm1032,-1618r-178,334r-158,0r111,-334r225,0","w":1556},"\u0401":{"d":"350,-1284r0,405r484,0r0,170r-484,0r0,529r664,0r0,180r-864,0r0,-1464r874,0r0,180r-674,0xm686,-1700v0,-66,56,-111,113,-112v59,-1,112,50,112,112v0,61,-51,113,-112,113v-63,0,-113,-54,-113,-113xm287,-1700v0,-60,52,-112,112,-112v61,0,113,51,113,112v0,61,-50,113,-113,113v-62,0,-112,-54,-112,-113","w":1112},"\u0402":{"d":"907,-899v315,-2,514,152,514,463v0,311,-210,487,-536,438r0,-166v45,5,80,8,106,8v156,-2,223,-122,223,-297v0,-185,-116,-283,-305,-282v-85,0,-167,8,-247,24r0,711r-199,0r0,-1288r-406,0r0,-176r1078,0r0,176r-473,0r0,414v77,-17,158,-25,245,-25","w":1493},"\u0403":{"d":"1004,-1284r-652,0r0,1284r-202,0r0,-1464r854,0r0,180xm868,-1919r-225,334r-139,0r168,-334r196,0","w":1065},"\u0404":{"d":"283,-694v8,298,152,544,434,544v134,0,240,-50,317,-149r111,152v-115,115,-265,172,-449,172v-402,0,-616,-336,-616,-752v0,-408,242,-764,647,-764v130,0,249,27,358,80r-67,170v-181,-103,-449,-111,-583,45v-71,83,-121,194,-142,340r545,0r0,162r-555,0","w":1198},"\u0405":{"d":"907,-371v5,247,-232,396,-485,396v-130,0,-241,-31,-334,-93r74,-184v64,50,186,95,289,96v143,2,258,-87,258,-227v0,-109,-60,-174,-127,-216v-79,-49,-257,-121,-330,-171v-94,-66,-168,-172,-168,-340v0,-229,187,-381,414,-381v161,0,273,27,338,80r-60,174v-53,-42,-184,-83,-272,-84v-127,-2,-224,83,-219,209v7,179,123,216,262,278v206,92,355,177,360,463","w":993},"\u0406":{"d":"184,0r0,-1464r201,0r0,1464r-201,0","w":569},"\u0407":{"d":"184,0r0,-1464r201,0r0,1464r-201,0xm371,-1702v0,-58,52,-110,112,-110v60,0,113,49,113,110v0,59,-50,115,-113,115v-58,0,-112,-54,-112,-115xm-29,-1702v0,-59,52,-110,115,-110v60,0,111,50,111,110v0,61,-54,115,-111,115v-60,0,-115,-54,-115,-115","w":569},"\u0408":{"d":"821,-547v-3,392,-89,559,-440,567v-192,4,-328,-127,-336,-313r174,0v17,89,70,133,160,133v95,0,159,-20,193,-62v34,-42,51,-148,51,-317r0,-925r198,0r0,917","w":961},"\u0409":{"d":"1905,-465v0,291,-222,465,-516,465r-388,0r0,-1288r-270,0v-45,251,-97,475,-155,670v-58,195,-114,336,-172,421v-100,147,-169,202,-373,209r0,-182v53,0,100,-14,139,-44v39,-30,86,-100,136,-211v134,-298,193,-626,282,-1039r610,0r0,555v397,-56,707,79,707,444xm1704,-469v0,-196,-139,-288,-344,-287v-49,0,-104,4,-164,11r0,575v55,7,105,10,152,10v237,0,356,-103,356,-309","w":1989},"\u040a":{"d":"1786,-465v0,291,-221,465,-516,465r-387,0r0,-709r-537,0r0,709r-196,0r0,-1464r196,0r0,585r537,0r0,-585r196,0r0,555v397,-56,707,79,707,444xm1585,-469v-1,-195,-137,-289,-344,-287v-49,0,-104,4,-164,11r0,575v55,7,105,10,152,10v237,0,356,-103,356,-309","w":1870},"\u040b":{"d":"889,-899v303,-2,505,151,504,444r0,455r-203,0r0,-457v0,-185,-111,-279,-299,-278v-68,0,-144,8,-229,24r0,711r-199,0r0,-1288r-406,0r0,-176r1073,0r0,176r-468,0r0,414v79,-17,154,-25,227,-25","w":1520},"\u040c":{"d":"1161,6v-10,3,-35,4,-74,4v-195,0,-234,-100,-268,-286v-49,-269,-171,-410,-469,-412r0,688r-200,0r0,-1464r200,0r0,606v262,6,421,-115,461,-338v31,-175,73,-272,258,-277v26,0,49,2,70,5r0,172v-28,-4,-87,-3,-99,24v-14,17,-27,54,-39,113v-37,189,-168,336,-348,385v201,70,322,220,367,450v22,113,31,167,141,152r0,178xm907,-1919r-225,334r-139,0r168,-334r196,0","w":1253},"\u040e":{"d":"1169,-1464v-86,325,-186,606,-301,840v-115,234,-228,398,-340,494v-112,96,-243,144,-395,144r0,-194v161,0,289,-77,383,-230r-502,-1054r228,0r397,893v137,-278,241,-576,313,-893r217,0xm973,-1888v-45,205,-164,307,-359,307v-194,0,-313,-102,-358,-307r170,-39v25,137,87,205,188,205v113,0,179,-68,197,-203","w":1182},"\u040f":{"d":"1151,0r-408,0r0,420r-186,0r0,-420r-407,0r0,-1464r200,0r0,1286r600,0r0,-1286r201,0r0,1464","w":1300},"\u0410":{"d":"985,0r-100,-309r-545,0r-109,309r-223,0r594,-1485r53,0r553,1485r-223,0xm621,-1102r-228,645r434,0","w":1217},"\u0411":{"d":"1081,-453v2,291,-222,453,-520,453r-411,0r0,-1464r829,0r0,174r-629,0r0,405v75,-7,138,-10,191,-10v322,-2,538,138,540,442xm350,-170v91,7,147,10,168,10v235,0,352,-100,352,-299v0,-183,-114,-274,-342,-274v-59,0,-119,3,-178,10r0,553","w":1165},"\u0412":{"d":"1079,-424v0,271,-227,424,-512,424r-417,0r0,-1464v166,-10,294,-15,385,-15v264,-1,451,112,454,363v1,134,-131,269,-244,291v223,49,334,183,334,401xm350,-1305r0,420v41,4,93,6,156,6v190,0,285,-77,285,-231v0,-135,-88,-203,-263,-203v-49,0,-109,3,-178,8xm868,-455v0,-204,-125,-278,-331,-279v-6,0,-68,2,-187,5r0,559v293,33,518,-4,518,-285","w":1163},"\u0413":{"d":"1004,-1284r-652,0r0,1284r-202,0r0,-1464r854,0r0,180","w":1065},"\u0414":{"d":"115,-168v287,-385,391,-719,510,-1296r589,0r0,1296r156,0r0,588r-182,0r0,-420r-977,0r0,420r-182,0r0,-588r86,0xm1022,-168r0,-1128r-260,0v-89,469,-235,845,-440,1128r700,0","w":1415},"\u0415":{"d":"350,-1284r0,405r484,0r0,170r-484,0r0,529r664,0r0,180r-864,0r0,-1464r874,0r0,180r-674,0","w":1112},"\u0416":{"d":"1741,6v-11,3,-33,4,-68,4v-193,0,-227,-102,-260,-289v-47,-262,-128,-404,-395,-413r0,692r-197,0r0,-692v-274,7,-367,148,-409,413v-32,204,-97,310,-324,285r0,-178v52,10,89,4,109,-39v14,-29,25,-66,32,-113v40,-232,141,-367,330,-446v-175,-45,-277,-176,-315,-389v-13,-74,-17,-139,-94,-139v-24,0,-39,1,-44,2r0,-172v100,-15,197,5,244,62v37,45,66,115,82,212v38,224,140,335,389,338r0,-608r197,0r0,608v240,-2,349,-120,383,-338v31,-196,101,-302,321,-274r0,172v-28,-4,-84,-5,-98,23v-14,17,-28,55,-39,114v-34,187,-150,335,-319,385v196,83,297,210,338,450v14,87,31,179,137,152r0,178","w":1829},"\u0417":{"d":"944,-1112v-1,154,-123,283,-256,321v176,45,301,162,303,363v3,291,-228,453,-534,453v-170,0,-305,-32,-404,-97r74,-182v104,71,219,107,346,107v181,0,315,-102,315,-273v0,-195,-155,-292,-362,-289v-34,0,-76,1,-125,4r0,-167v53,3,100,4,143,4v173,2,308,-84,308,-246v1,-140,-117,-213,-263,-213v-101,0,-208,31,-321,92r-62,-166v121,-60,253,-90,394,-90v263,0,446,126,444,379","w":1075},"\u0418":{"d":"1227,0r-201,0r0,-1051r-823,1071r-53,0r0,-1484r200,0r0,1050r824,-1071r53,0r0,1485","w":1376},"\u0419":{"d":"1227,0r-201,0r0,-1051r-823,1071r-53,0r0,-1484r200,0r0,1050r824,-1071r53,0r0,1485xm1085,-1888v-45,205,-164,307,-358,307v-194,0,-313,-102,-358,-307r170,-39v25,137,87,205,188,205v113,0,178,-68,197,-203","w":1376},"\u041a":{"d":"1161,6v-10,3,-35,4,-74,4v-195,0,-234,-100,-268,-286v-49,-269,-171,-410,-469,-412r0,688r-200,0r0,-1464r200,0r0,606v262,6,421,-115,461,-338v31,-175,73,-272,258,-277v26,0,49,2,70,5r0,172v-28,-4,-87,-3,-99,24v-14,17,-27,54,-39,113v-37,189,-168,336,-348,385v201,70,322,220,367,450v22,113,31,167,141,152r0,178","w":1253},"\u041b":{"d":"1227,0r-201,0r0,-1288r-324,0v-48,457,-128,927,-346,1182v-81,94,-160,118,-325,120r0,-188v121,-4,165,-35,223,-124v176,-271,247,-736,295,-1166r678,0r0,1464","w":1376},"\u041c":{"d":"1282,0r-176,-946r-324,966r-51,0r-319,-966r-172,946r-191,0r285,-1464r88,0r340,1067r338,-1067r86,0r287,1464r-191,0","w":1522},"\u041d":{"d":"989,0r0,-709r-639,0r0,709r-200,0r0,-1464r200,0r0,585r639,0r0,-585r201,0r0,1464r-201,0","w":1339},"\u041e":{"d":"670,25v-394,0,-590,-357,-590,-770v0,-393,213,-746,590,-746v425,0,630,306,630,746v0,447,-202,770,-630,770xm670,-156v305,0,420,-253,420,-589v0,-377,-140,-566,-420,-566v-121,0,-212,51,-280,149v-130,188,-127,638,0,838v69,109,159,168,280,168","w":1380},"\u041f":{"d":"1151,0r-201,0r0,-1284r-600,0r0,1284r-200,0r0,-1464r1001,0r0,1464","w":1300},"\u0420":{"d":"350,-563r0,563r-200,0r0,-1464v126,-7,217,-11,274,-11v426,0,639,142,639,426v0,329,-188,494,-565,494v-31,0,-81,-3,-148,-8xm350,-1284r0,541r133,10v249,0,373,-98,373,-293v0,-179,-132,-268,-397,-268v-35,0,-71,3,-109,10","w":1143},"\u0421":{"d":"80,-727v0,-400,241,-764,631,-764v157,0,281,27,374,80r-67,172v-63,-48,-164,-72,-301,-72v-285,0,-426,293,-426,594v0,292,148,561,428,561v136,0,241,-48,315,-145r111,154v-117,115,-266,172,-449,172v-402,0,-616,-336,-616,-752","w":1206},"\u0422":{"d":"723,-1284r0,1284r-201,0r0,-1284r-465,0r0,-180r1153,0r0,180r-487,0","w":1268},"\u0423":{"d":"1169,-1464v-86,325,-186,606,-301,840v-115,234,-228,398,-340,494v-112,96,-243,144,-395,144r0,-194v161,0,289,-77,383,-230r-502,-1054r228,0r397,893v137,-278,241,-576,313,-893r217,0","w":1182},"\u0424":{"d":"74,-733v0,-334,246,-587,583,-592r0,-170r197,0r0,170v330,8,584,241,584,571v0,335,-247,591,-584,596r0,178r-197,0r0,-178v-330,-7,-583,-245,-583,-575xm852,-311v242,-6,391,-188,391,-437v0,-238,-154,-420,-391,-423r0,860xm659,-1171v-242,5,-391,185,-391,432v0,239,154,423,391,428r0,-860","w":1511},"\u0425":{"d":"924,0r-365,-588r-336,588r-203,0r433,-760r-398,-706r199,2r311,553r346,-553r201,0r-455,708r478,756r-211,0","w":1155},"\u0426":{"d":"1288,420r-182,0r0,-420r-956,0r0,-1464r200,0r0,1286r578,0r0,-1286r200,0r0,1286r160,0r0,598","w":1333},"\u0427":{"d":"322,-1047v-1,206,99,324,299,324v83,0,168,-11,253,-33r0,-708r199,0r0,1464r-199,0r0,-590v-95,22,-184,33,-268,33v-303,2,-487,-167,-487,-467r0,-440r203,0r0,417","w":1223},"\u0428":{"d":"1681,0r-1531,0r0,-1464r192,0r0,1294r477,0r0,-1294r193,0r0,1294r477,0r0,-1294r192,0r0,1464","w":1831},"\u0429":{"d":"1839,420r-180,0r0,-420r-1509,0r0,-1464r192,0r0,1294r477,0r0,-1294r193,0r0,1294r477,0r0,-1294r192,0r0,1294r158,0r0,590","w":1884},"\u042a":{"d":"1432,-465v2,293,-223,465,-521,465r-413,0r0,-1286r-441,0r0,-178r641,0r0,557v75,-7,140,-11,195,-11v322,-2,537,146,539,453xm1221,-469v-1,-197,-134,-286,-340,-285v-62,0,-123,4,-183,11r0,573v92,7,149,10,170,10v235,0,353,-103,353,-309","w":1516},"\u042b":{"d":"1452,0r-197,0r0,-1464r197,0r0,1464xm1069,-465v2,291,-221,465,-516,465r-403,0r0,-1464r196,0r0,555v73,-7,135,-11,186,-11v320,-3,535,149,537,455xm868,-469v-1,-196,-137,-291,-344,-289v-61,0,-121,3,-180,10r0,580v59,7,115,10,168,10v237,0,356,-104,356,-311","w":1602},"\u042c":{"d":"1096,-465v2,293,-223,465,-521,465r-425,0r0,-1464r200,0r0,557v75,-7,144,-11,207,-11v322,-2,537,146,539,453xm885,-469v-1,-196,-134,-287,-340,-285v-69,0,-134,4,-195,11r0,573v56,7,117,10,182,10v235,0,353,-103,353,-309","w":1180},"\u042d":{"d":"913,-856v-19,-248,-172,-461,-419,-461v-110,0,-211,31,-304,92r-84,-168v115,-65,245,-98,392,-98v403,0,624,332,624,750v0,420,-224,766,-635,766v-173,0,-318,-46,-434,-138r88,-176v99,93,207,139,326,139v297,0,443,-234,453,-544r-558,0r0,-162r551,0","w":1202},"\u042e":{"d":"1143,-1491v403,-1,588,324,588,746v0,307,-101,551,-274,677v-85,62,-192,93,-320,93v-169,0,-303,-66,-401,-197v-98,-131,-151,-311,-156,